{
    "type": "LSTM",
    "options": {
        "inputSize": 30,
        "inputRange": 30,
        "hiddenLayers": [
            20,
            20
        ],
        "outputSize": 30,
        "decayRate": 0.999,
        "smoothEps": 1e-8,
        "regc": 0.000001,
        "clipval": 5,
        "maxPredictionLength": 100,
        "dataFormatter": {
            "indexTable": {
                "H": 0,
                "i": 1,
                "g": 2,
                "r": 3,
                "e": 4,
                "t": 5,
                "n": 6,
                "y": 7,
                "o": 8,
                "w": 9,
                " ": 10,
                "a": 11,
                "u": 12,
                "I": 13,
                "s": 14,
                "h": 15,
                "?": 16,
                "l": 17,
                "G": 18,
                "d": 19,
                "B": 20,
                "b": 21,
                "v": 22,
                "_": 23,
                "c": 24,
                "m": 25,
                "f": 26,
                "stop-input": 27,
                "start-output": 28,
                "unrecognized": 29
            },
            "characterTable": {
                "0": "H",
                "1": "i",
                "2": "g",
                "3": "r",
                "4": "e",
                "5": "t",
                "6": "n",
                "7": "y",
                "8": "o",
                "9": "w",
                "10": " ",
                "11": "a",
                "12": "u",
                "13": "I",
                "14": "s",
                "15": "h",
                "16": "?",
                "17": "l",
                "18": "G",
                "19": "d",
                "20": "B",
                "21": "b",
                "22": "v",
                "23": "_",
                "24": "c",
                "25": "m",
                "26": "f",
                "27": null,
                "28": null,
                "29": null
            },
            "values": [
                {
                    "input": "Hi",
                    "output": "greeting"
                },
                {
                    "input": "Hey",
                    "output": "greeting"
                },
                {
                    "input": "How are you",
                    "output": "greeting"
                },
                {
                    "input": "Is anyone there?",
                    "output": "greeting"
                },
                {
                    "input": "Hello",
                    "output": "greeting"
                },
                {
                    "input": "Good day",
                    "output": "greeting"
                },
                {
                    "input": "Bye",
                    "output": "goodbye"
                },
                {
                    "input": "Goodbye",
                    "output": "goodbye"
                },
                {
                    "input": "I live in",
                    "output": "_location"
                },
                {
                    "input": "I am from",
                    "output": "_location"
                }
            ],
            "characters": [
                "H",
                "i",
                "g",
                "r",
                "e",
                "t",
                "n",
                "y",
                "o",
                "w",
                " ",
                "a",
                "u",
                "I",
                "s",
                "h",
                "?",
                "l",
                "G",
                "d",
                "B",
                "b",
                "v",
                "_",
                "c",
                "m",
                "f",
                "stop-input",
                "start-output",
                "unrecognized"
            ],
            "specialIndexes": [
                27,
                28,
                29
            ]
        }
    },
    "trainOpts": {
        "iterations": 100000,
        "errorThresh": 0.005,
        "logPeriod": 10,
        "learningRate": 0.01,
        "callbackPeriod": 10,
        "timeout": "Infinity"
    },
    "input": {
        "rows": 31,
        "columns": 30,
        "weights": [
            1.8213070631027222,
            0.5142217874526978,
            0.3283243179321289,
            1.5031367540359497,
            2.1498119831085205,
            0.1509326845407486,
            3.0073628425598145,
            1.5569218397140503,
            0.7887136936187744,
            -2.220338821411133,
            -0.6952258348464966,
            -0.5760770440101624,
            3.943441152572632,
            1.0510467290878296,
            -2.741419553756714,
            -0.4232747256755829,
            2.8988146781921387,
            0.24362266063690186,
            -0.7195867300033569,
            0.5004726052284241,
            -0.7268935441970825,
            -2.689519166946411,
            2.182281494140625,
            -0.9119230508804321,
            -0.4033512473106384,
            -1.3859671354293823,
            -2.6968681812286377,
            -2.1905267238616943,
            -0.43758830428123474,
            -1.9141472578048706,
            -5.683982849121094,
            0.10613147169351578,
            0.6839109659194946,
            -1.0810251235961914,
            2.99552845954895,
            5.67517614364624,
            -0.820317804813385,
            -5.900819778442383,
            -1.0408074855804443,
            -3.8930046558380127,
            1.9164048433303833,
            -6.771274089813232,
            -3.1545045375823975,
            0.06702277064323425,
            -2.8423914909362793,
            3.6865131855010986,
            2.753917932510376,
            -5.123917102813721,
            3.4202356338500977,
            -4.670351505279541,
            5.246091842651367,
            -1.9579169750213623,
            -0.9112218022346497,
            0.34133943915367126,
            -1.637775182723999,
            -3.700237274169922,
            -4.293230056762695,
            5.7156548500061035,
            -2.30790114402771,
            0.3507601320743561,
            -2.3529951572418213,
            -1.4126142263412476,
            1.171244740486145,
            -6.182460784912109,
            0.8056184649467468,
            -1.589949369430542,
            1.2144601345062256,
            1.920682668685913,
            1.7481955289840698,
            -0.16365671157836914,
            -4.905360698699951,
            0.19347277283668518,
            0.6185806393623352,
            1.345172643661499,
            1.1163277626037598,
            2.183094024658203,
            -1.2349421977996826,
            -4.426484107971191,
            -0.8749890923500061,
            -2.400371789932251,
            -5.784945964813232,
            1.9250822067260742,
            -1.3935779333114624,
            1.6744071245193481,
            0.767828643321991,
            -1.2431257963180542,
            -1.5886573791503906,
            -0.5632519125938416,
            -0.78436678647995,
            0.0409327894449234,
            0.13660819828510284,
            -0.8406480550765991,
            3.159895181655884,
            1.8913835287094116,
            -0.8648948669433594,
            3.942401885986328,
            -1.688879132270813,
            -4.935944080352783,
            -0.48001858592033386,
            2.430565118789673,
            2.1519594192504883,
            -2.035707712173462,
            2.581571102142334,
            1.6779232025146484,
            0.25079554319381714,
            0.21781504154205322,
            1.0121818780899048,
            2.3897290229797363,
            -0.5918897390365601,
            -1.581609845161438,
            2.7509753704071045,
            -0.2745203375816345,
            0.26494789123535156,
            -0.2811969816684723,
            3.5728490352630615,
            -1.188252329826355,
            -3.455951690673828,
            -1.7028261423110962,
            0.6830120086669922,
            -1.0687611103057861,
            -3.3703455924987793,
            0.9537574648857117,
            0.8406169414520264,
            -0.3215109407901764,
            3.7537310123443604,
            0.5603094696998596,
            -4.3939127922058105,
            2.2403409481048584,
            1.6296931505203247,
            -0.6251517534255981,
            -1.0408223867416382,
            3.528318166732788,
            -0.6760530471801758,
            0.35241666436195374,
            -0.39881613850593567,
            3.7409417629241943,
            1.9582897424697876,
            0.13958261907100677,
            1.981269359588623,
            0.4872693419456482,
            -0.09672460705041885,
            -1.1692142486572266,
            1.6079747676849365,
            -1.189781665802002,
            2.3292996883392334,
            1.7907828092575073,
            -2.9792885780334473,
            -1.387442708015442,
            1.4481778144836426,
            2.600586414337158,
            -0.22989080846309662,
            -1.3508856296539307,
            3.5931458473205566,
            2.6726372241973877,
            2.5656769275665283,
            -0.6243190765380859,
            0.09347537904977798,
            -4.465236186981201,
            1.1800135374069214,
            1.3850069046020508,
            -2.148282527923584,
            -2.1790096759796143,
            1.9036922454833984,
            2.4230194091796875,
            -4.098331451416016,
            0.7291699647903442,
            -2.318453788757324,
            -0.8307939767837524,
            -2.673807144165039,
            0.10325773805379868,
            1.373871088027954,
            -2.4466896057128906,
            3.4657344818115234,
            2.183086395263672,
            3.084822177886963,
            1.05414879322052,
            1.4089605808258057,
            -0.9540472626686096,
            -0.5453073978424072,
            -0.21895277500152588,
            1.6240925788879395,
            3.1625607013702393,
            -2.399378776550293,
            0.9976258277893066,
            -1.2910997867584229,
            -1.0249015092849731,
            -4.764026641845703,
            3.2903785705566406,
            1.9294649362564087,
            -0.053450681269168854,
            -1.2159291505813599,
            3.3024957180023193,
            0.6316738128662109,
            -0.6941028237342834,
            2.298793315887451,
            1.2420192956924438,
            -0.8243820071220398,
            3.9282054901123047,
            1.4468153715133667,
            0.3535480797290802,
            -2.646815299987793,
            -2.3484251499176025,
            -0.011379572562873363,
            -1.8428634405136108,
            -1.006186604499817,
            1.633988618850708,
            -2.27695894241333,
            -3.1167078018188477,
            -0.7579417824745178,
            -1.3185089826583862,
            -1.1032094955444336,
            -1.0400669574737549,
            -4.394839286804199,
            -4.157634258270264,
            2.8464972972869873,
            -2.1239876747131348,
            4.411708354949951,
            -0.7291565537452698,
            2.453070878982544,
            -1.178945779800415,
            -1.5887898206710815,
            -1.5124306678771973,
            -4.394700527191162,
            -1.8512885570526123,
            2.565660238265991,
            -3.4570348262786865,
            -2.2568819522857666,
            -4.760204792022705,
            1.5166550874710083,
            1.8638184070587158,
            -1.3000845909118652,
            2.0778934955596924,
            0.7284978628158569,
            0.2990415692329407,
            -0.628828763961792,
            1.3539035320281982,
            4.247375965118408,
            2.2659642696380615,
            0.49610868096351624,
            -1.699459433555603,
            -0.9965487122535706,
            -2.8426647186279297,
            0.6972162127494812,
            1.8793212175369263,
            -3.0576887130737305,
            -3.9391379356384277,
            -6.520659923553467,
            -1.7588602304458618,
            -6.832474708557129,
            1.7404146194458008,
            1.4788058996200562,
            -2.715254068374634,
            2.0211598873138428,
            1.4725085496902466,
            4.5653300285339355,
            3.2760775089263916,
            -0.15412460267543793,
            -0.26848551630973816,
            -1.5578069686889648,
            0.9952773451805115,
            -0.7677673697471619,
            -0.34971603751182556,
            -1.0401910543441772,
            3.2710700035095215,
            -0.24708367884159088,
            -1.0910770893096924,
            -4.390867710113525,
            -2.8487958908081055,
            -1.0118331909179688,
            1.3061270713806152,
            -4.158013820648193,
            -2.1493446826934814,
            4.304370880126953,
            3.1272530555725098,
            -2.667813777923584,
            1.931061029434204,
            -0.3841160833835602,
            1.1263054609298706,
            3.737046957015991,
            3.8924825191497803,
            -1.0421688556671143,
            -0.5998448729515076,
            1.6627105474472046,
            3.2251064777374268,
            -0.553724467754364,
            0.013677000068128109,
            -4.867424964904785,
            2.179503917694092,
            -1.2934529781341553,
            -1.8862168788909912,
            1.3892384767532349,
            2.6552364826202393,
            0.9908818006515503,
            0.08924244344234467,
            0.6645627617835999,
            2.7205052375793457,
            2.4377048015594482,
            -3.3247878551483154,
            -3.83988881111145,
            2.776060104370117,
            7.691554546356201,
            2.8138015270233154,
            -0.5925236940383911,
            -6.739560127258301,
            13.449583053588867,
            1.4625346660614014,
            4.227169513702393,
            5.245242118835449,
            5.400323867797852,
            15.868778228759766,
            -16.23670768737793,
            0.6728870272636414,
            -12.452143669128418,
            -4.345149040222168,
            3.227766752243042,
            -3.736910581588745,
            0.6207680702209473,
            -7.793473720550537,
            -6.461475849151611,
            5.526646137237549,
            -10.200422286987305,
            4.359597682952881,
            -0.07065243273973465,
            8.067451477050781,
            -0.48955145478248596,
            -4.467003345489502,
            -2.266888380050659,
            12.28427791595459,
            -3.584650993347168,
            -9.821739196777344,
            2.7256219387054443,
            1.142871379852295,
            0.20875059068202972,
            1.1882010698318481,
            -1.3352457284927368,
            2.1224682331085205,
            3.2099075317382812,
            -2.374432325363159,
            0.7008500099182129,
            -4.0175042152404785,
            -1.9820587635040283,
            -4.446128845214844,
            -2.1268117427825928,
            -1.1209204196929932,
            -4.502286911010742,
            -1.6554360389709473,
            1.9706727266311646,
            4.151811599731445,
            -0.31634601950645447,
            -0.36801519989967346,
            4.5767364501953125,
            -1.3277459144592285,
            -2.2826015949249268,
            3.0912320613861084,
            -2.4615070819854736,
            -0.945578932762146,
            -12.14339828491211,
            1.0754868984222412,
            1.1350802183151245,
            2.630051374435425,
            4.556605815887451,
            5.2124104499816895,
            3.440408229827881,
            -0.05208902060985565,
            -0.4072570502758026,
            0.44742104411125183,
            -1.4484208822250366,
            -8.266661643981934,
            -1.7860207557678223,
            3.215768337249756,
            -4.545560836791992,
            -1.9104830026626587,
            2.917294502258301,
            2.3580188751220703,
            -4.55399227142334,
            2.653351306915283,
            1.448303461074829,
            -6.72516393661499,
            0.004302287939935923,
            1.2143337726593018,
            1.1708914041519165,
            -2.7284066677093506,
            3.5630195140838623,
            3.140268325805664,
            -5.2620015144348145,
            -1.1994595527648926,
            -1.7220100164413452,
            0.27581846714019775,
            -2.691202402114868,
            -3.4293832778930664,
            7.295230388641357,
            -5.2449541091918945,
            -8.768767356872559,
            -8.527084350585938,
            12.175256729125977,
            11.192286491394043,
            -5.771468162536621,
            8.677228927612305,
            2.23419451713562,
            -2.8460652828216553,
            7.0628767013549805,
            8.993653297424316,
            -5.851191520690918,
            -4.3913445472717285,
            9.124785423278809,
            1.0442578792572021,
            0.1835639923810959,
            1.3348469734191895,
            2.6397430896759033,
            4.377841472625732,
            -0.9036634564399719,
            5.307041645050049,
            -7.551628112792969,
            -1.0038164854049683,
            -10.342180252075195,
            -12.440286636352539,
            1.1110538244247437,
            4.304903984069824,
            9.314167976379395,
            3.245034694671631,
            0.10210686922073364,
            -4.202860355377197,
            -2.2838032245635986,
            1.1023828983306885,
            -0.4251879155635834,
            -4.738860607147217,
            -3.281801223754883,
            2.237640142440796,
            -3.8685057163238525,
            -8.671566009521484,
            5.307515621185303,
            2.5271854400634766,
            -4.069805145263672,
            -3.1288745403289795,
            2.1965203285217285,
            1.7229152917861938,
            1.7386213541030884,
            1.5995025634765625,
            1.2687417268753052,
            -0.28706005215644836,
            -3.8674325942993164,
            -0.1898287832736969,
            0.22389842569828033,
            -0.03346051648259163,
            -8.808918952941895,
            -3.2579681873321533,
            -3.841313362121582,
            -1.6006925106048584,
            0.7763761878013611,
            1.4325162172317505,
            10.093894004821777,
            -3.333000659942627,
            -3.6629228591918945,
            6.173642635345459,
            4.244383335113525,
            2.48160457611084,
            4.089926242828369,
            0.27284425497055054,
            -0.30961155891418457,
            -0.7575159072875977,
            -4.469537734985352,
            0.011801445856690407,
            0.2764260768890381,
            -2.2547948360443115,
            12.83039665222168,
            -0.8550160527229309,
            -15.30270767211914,
            3.0147705078125,
            -7.301601886749268,
            -4.421209812164307,
            -8.273795127868652,
            8.16301155090332,
            -4.815421104431152,
            3.1337125301361084,
            -7.463427543640137,
            7.529169082641602,
            -5.357029438018799,
            3.6921839714050293,
            -3.848846197128296,
            -7.748809337615967,
            0.9660754203796387,
            3.6473374366760254,
            2.8012523651123047,
            -0.9135903716087341,
            5.305564880371094,
            12.10671329498291,
            6.402048587799072,
            -5.277738094329834,
            -6.3108015060424805,
            -8.159928321838379,
            -2.1895575523376465,
            -5.91849422454834,
            10.502094268798828,
            -2.9584264755249023,
            5.683206558227539,
            2.018932342529297,
            17.839113235473633,
            12.61487865447998,
            4.138402938842773,
            -6.156898021697998,
            1.218896508216858,
            7.5151519775390625,
            -1.8581836223602295,
            11.20827865600586,
            7.430843353271484,
            -4.2752203941345215,
            -12.660476684570312,
            -0.044568855315446854,
            -3.150188446044922,
            -2.1879498958587646,
            5.665660381317139,
            -0.2488940954208374,
            6.422863006591797,
            0.6236072182655334,
            -0.763787031173706,
            -1.3596012592315674,
            -1.0540032386779785,
            2.716367483139038,
            5.403632164001465,
            9.436985969543457,
            -5.469913005828857,
            0.18685369193553925,
            -5.8837971687316895,
            6.458538055419922,
            7.492030620574951,
            -0.9654205441474915,
            -8.750486373901367,
            -2.084477663040161,
            3.8765764236450195,
            -8.61951732635498,
            -8.054015159606934,
            -3.304762601852417,
            6.7392072677612305,
            1.3895902633666992,
            -7.236415386199951,
            3.6399030685424805,
            10.131349563598633,
            10.619112968444824,
            -11.101615905761719,
            -2.119434356689453,
            2.8818252086639404,
            1.0917353630065918,
            0.08363105356693268,
            -5.441422462463379,
            10.212311744689941,
            4.620881080627441,
            2.8539633750915527,
            3.801950454711914,
            0.6024802327156067,
            1.1166809797286987,
            2.651036024093628,
            2.638777732849121,
            3.010343313217163,
            6.723259449005127,
            -0.5008346438407898,
            -5.686067581176758,
            -0.4818730652332306,
            1.4320149421691895,
            -4.895686149597168,
            7.750792503356934,
            -4.58563232421875,
            4.0162034034729,
            -2.735041856765747,
            3.221273422241211,
            -4.497256755828857,
            -6.556136608123779,
            0.5994884371757507,
            -1.803769826889038,
            -2.642123222351074,
            -2.4766862392425537,
            10.541441917419434,
            2.021627187728882,
            -8.016035079956055,
            2.9022483825683594,
            0.49304547905921936,
            -6.017472267150879,
            1.612199306488037,
            5.358144283294678,
            3.4614431858062744,
            -3.093672513961792,
            -3.9880118370056152,
            -3.1032350063323975,
            7.192830562591553,
            8.025877952575684,
            1.9515135288238525,
            -8.866376876831055,
            0.551508367061615,
            -2.437417984008789,
            -3.4754838943481445,
            -3.173713445663452,
            -0.26844164729118347,
            2.661123275756836,
            -5.82486629486084,
            -1.2499642372131348,
            -1.0555821657180786,
            -0.3055957555770874,
            -0.9667261242866516,
            -6.560837745666504,
            -9.011375427246094,
            1.746883511543274,
            6.5598554611206055,
            3.44246506690979,
            8.93239974975586,
            7.132457256317139,
            -6.759594917297363,
            -0.2749558091163635,
            1.0403740406036377,
            -1.5366730690002441,
            -1.2591185569763184,
            5.511310577392578,
            0.9623143076896667,
            -2.106440544128418,
            4.1618971824646,
            0.3354511559009552,
            0.1773916631937027,
            -8.311379432678223,
            -2.1478638648986816,
            9.772221565246582,
            0.377663254737854,
            -8.445242881774902,
            3.723886728286743,
            5.728487968444824,
            -0.3769112527370453,
            2.0185680389404297,
            6.3496880531311035,
            3.726494550704956,
            -0.43725907802581787,
            -2.831541061401367,
            -8.545926094055176,
            -3.674323081970215,
            -0.586182713508606,
            -7.495971202850342,
            -5.530534267425537,
            1.2962825298309326,
            3.9576823711395264,
            -5.799263954162598,
            -16.60809898376465,
            4.422293663024902,
            -6.184423923492432,
            -9.369343757629395,
            3.9831666946411133,
            7.788918495178223,
            -2.0016632080078125,
            -0.6017756462097168,
            4.9029035568237305,
            2.3694980144500732,
            0.9921221137046814,
            -2.1647684574127197,
            14.087451934814453,
            -3.150015354156494,
            0.44996675848960876,
            -3.690586805343628,
            -7.168971538543701,
            1.8590342998504639,
            -2.0519862174987793,
            10.535922050476074,
            7.149773120880127,
            -3.014575481414795,
            3.9233763217926025,
            12.092087745666504,
            8.992380142211914,
            0.9368473291397095,
            -2.6295857429504395,
            4.778048038482666,
            -10.37967586517334,
            2.0549256801605225,
            3.5937416553497314,
            -7.107950687408447,
            -0.8423301577568054,
            5.754678249359131,
            2.4863548278808594,
            -2.612492561340332,
            4.315453052520752,
            5.7374372482299805,
            -0.6383184194564819,
            -11.48726749420166,
            -4.267481327056885,
            4.980178356170654,
            -5.028433799743652,
            -2.564138412475586,
            -1.2409120798110962,
            -7.813243389129639,
            -3.2911531925201416,
            0.3130235970020294,
            3.7999558448791504,
            0.16083307564258575,
            2.6542298793792725,
            4.007182598114014,
            -3.5033740997314453,
            -0.33439257740974426,
            -10.255179405212402,
            -9.463018417358398,
            -10.689058303833008,
            -3.47343373298645,
            -8.51146125793457,
            1.625876784324646,
            0.33795350790023804,
            4.5540947914123535,
            0.10352370887994766,
            2.651942491531372,
            5.5715508460998535,
            9.194573402404785,
            -3.7733986377716064,
            -1.6221849918365479,
            11.065441131591797,
            6.727728366851807,
            -10.132156372070312,
            -7.758294582366943,
            10.59390926361084,
            -3.156940221786499,
            0.93202143907547,
            -7.967789649963379,
            7.055103302001953,
            -10.112964630126953,
            -4.704792022705078,
            -6.388649940490723,
            -3.6186981201171875,
            -11.797788619995117,
            13.828048706054688,
            5.7688307762146,
            4.90299129486084,
            2.441307783126831,
            1.8547898530960083,
            -3.349804639816284,
            1.3955658674240112,
            2.8836934566497803,
            9.04528522491455,
            0.1843671053647995,
            0.2843155860900879,
            2.5796520709991455,
            6.060899257659912,
            -2.8452253341674805,
            1.2493900060653687,
            2.680929660797119,
            -9.583401679992676,
            -1.1995620727539062,
            2.8663671016693115,
            2.8964602947235107,
            -5.522701740264893,
            5.873728275299072,
            -0.20191355049610138,
            5.398410320281982,
            -0.7610179781913757,
            4.075315475463867,
            1.901738166809082,
            -1.6596237421035767,
            0.5214917063713074,
            -9.21176528930664,
            -4.617214202880859,
            -2.132314682006836,
            1.1609770059585571,
            3.6904962062835693,
            -0.12032219022512436,
            -7.840551853179932,
            -7.0627288818359375,
            -6.442799091339111,
            1.0564064979553223,
            0.8908665180206299,
            0.09089820086956024,
            -5.189354419708252,
            2.122727870941162,
            -5.014659881591797,
            -5.218759536743164,
            1.0025333166122437,
            5.189058303833008,
            4.2526092529296875,
            0.11708712577819824,
            4.009679794311523,
            -1.8876104354858398,
            7.369726181030273,
            -2.916637420654297,
            -2.9971578121185303,
            -11.899140357971191,
            1.635218620300293,
            -7.743816375732422,
            2.795405149459839,
            1.4729902744293213,
            1.8941173553466797,
            1.5931339263916016,
            -0.6789430975914001,
            1.2460408210754395,
            -0.3265313506126404,
            -6.056828498840332,
            7.380223751068115,
            1.7419110536575317,
            -11.368033409118652,
            -12.322026252746582,
            7.188694953918457,
            -0.16655060648918152,
            3.3176634311676025,
            -12.099946975708008,
            2.4691762924194336,
            -2.485255718231201,
            -9.84557819366455,
            8.088964462280273,
            15.504650115966797,
            3.8499138355255127,
            -10.268049240112305,
            0.023086318746209145,
            -11.382048606872559,
            -6.230684280395508,
            1.9021271467208862,
            -5.106123924255371,
            -1.2239145040512085,
            -7.1468377113342285,
            2.374696969985962,
            2.561713218688965,
            8.719426155090332,
            -3.0569896697998047,
            8.179343223571777,
            -2.6527929306030273,
            2.9076638221740723,
            -6.670473098754883,
            7.372386932373047,
            -9.043220520019531,
            -1.9929940700531006,
            -6.510740756988525,
            4.5189008712768555,
            -7.090522766113281,
            -0.6988089084625244,
            0.13875649869441986,
            -5.514821529388428,
            3.5026650428771973,
            -4.039360046386719,
            -4.112061023712158,
            -5.703124046325684,
            2.667541265487671,
            -7.817113876342773,
            -1.93269944190979,
            -15.13447093963623,
            -9.444329261779785,
            0.4076559543609619,
            0.316040962934494,
            3.048327922821045,
            17.54979133605957,
            -1.606687307357788,
            4.85398530960083,
            6.015517234802246,
            -2.707538366317749,
            8.511698722839355,
            -0.09134223312139511,
            -0.18390466272830963,
            -4.334991455078125,
            2.117976188659668,
            -0.4776822030544281,
            -0.3558359146118164,
            -3.0227441787719727,
            2.9847095012664795,
            2.4516332149505615,
            1.5151606798171997,
            2.5513362884521484,
            2.286257028579712,
            2.9357059001922607,
            2.332376480102539,
            1.4982993602752686,
            0.6170858144760132,
            2.165330648422241,
            0.9576122760772705,
            -0.30434736609458923,
            0.36171287298202515,
            3.272754430770874,
            -4.608282566070557,
            -2.721281051635742,
            -1.487114429473877,
            -1.7063583135604858,
            2.258596897125244,
            1.326917290687561,
            1.067199468612671,
            -1.4296491146087646,
            4.027794361114502,
            0.6943942308425903,
            -2.3697421550750732,
            0.8437653183937073,
            3.584315776824951,
            -3.686319589614868,
            -2.142213821411133,
            -4.294224739074707,
            -0.979561984539032,
            -0.11427586525678635,
            -1.2360589504241943,
            1.4015752077102661,
            -1.367028832435608,
            1.281519889831543,
            -1.339155912399292,
            1.2899993658065796,
            1.4819042682647705,
            -0.6676720380783081,
            1.6703399419784546,
            0.917881429195404,
            -0.9966803193092346,
            -0.10028727352619171,
            0.6021561622619629,
            0.9539856910705566,
            -0.45294275879859924,
            0.5817285776138306,
            1.9853951930999756,
            1.2931809425354004,
            -3.275947332382202,
            -2.07857608795166,
            2.7266387939453125,
            0.029350679367780685,
            0.007003661710768938,
            -0.0014982830034568906,
            -0.02929261326789856,
            0.022084901109337807,
            0.023204592987895012,
            0.024936910718679428,
            0.014631649479269981,
            0.023414572700858116,
            -0.029098492115736008,
            -0.016881166025996208,
            0.003400329500436783,
            0.007761870510876179,
            -0.017033427953720093,
            -0.014076988212764263,
            0.02381979674100876,
            -0.0023671146482229233,
            -0.02557394467294216,
            -0.004647128749638796,
            0.023924918845295906,
            -0.024316679686307907,
            -0.007242490537464619,
            -0.028451167047023773,
            -0.026577962562441826,
            -0.027884339913725853,
            0.004120764788240194,
            -0.029035750776529312,
            -0.006903467699885368,
            -0.007138357497751713,
            0.019558614119887352
        ]
    },
    "hiddenLayers": [
        {
            "inputMatrix": {
                "rows": 20,
                "columns": 30,
                "weights": [
                    -2.050581455230713,
                    0.9850749373435974,
                    1.6071113348007202,
                    -1.8656083345413208,
                    1.8388818502426147,
                    0.36050739884376526,
                    0.46058759093284607,
                    1.553990125656128,
                    -0.20671123266220093,
                    -0.9042302370071411,
                    -0.7864587903022766,
                    2.7069895267486572,
                    -2.900160074234009,
                    0.27371686697006226,
                    4.973544597625732,
                    0.08248519897460938,
                    -0.7565904259681702,
                    0.4573880732059479,
                    0.8537688851356506,
                    0.7771980166435242,
                    -4.459433078765869,
                    -0.7358554601669312,
                    -0.43351760506629944,
                    -1.6590923070907593,
                    -0.29406121373176575,
                    -1.5663012266159058,
                    0.5405449271202087,
                    -0.5678079724311829,
                    3.031313419342041,
                    -0.6601094603538513,
                    1.5207290649414062,
                    0.5470777750015259,
                    -0.8027783036231995,
                    -1.7400367259979248,
                    -0.5242649912834167,
                    -1.072121024131775,
                    1.0516594648361206,
                    0.26047319173812866,
                    1.6626843214035034,
                    0.29637017846107483,
                    -1.511048674583435,
                    -1.1274797916412354,
                    1.8042937517166138,
                    1.1870657205581665,
                    4.195013523101807,
                    0.8932640552520752,
                    -0.4146258234977722,
                    -1.0565764904022217,
                    -0.4743296205997467,
                    1.7056677341461182,
                    -0.41752690076828003,
                    0.24215862154960632,
                    -1.2950485944747925,
                    -2.3288683891296387,
                    -0.7038239240646362,
                    -0.8637793660163879,
                    -0.3439173996448517,
                    0.5908156633377075,
                    -0.7726794481277466,
                    -0.7213504314422607,
                    -1.4864808320999146,
                    0.8185231685638428,
                    0.1698300540447235,
                    2.076681137084961,
                    -3.6626241207122803,
                    -2.3418309688568115,
                    -2.3660733699798584,
                    -0.8697084188461304,
                    -1.548102855682373,
                    0.2758512794971466,
                    2.7287750244140625,
                    -2.147631883621216,
                    -0.5891516804695129,
                    1.9961563348770142,
                    1.4528776407241821,
                    1.2768007516860962,
                    1.3579620122909546,
                    -1.0053428411483765,
                    2.2298309803009033,
                    -1.5529093742370605,
                    0.18666647374629974,
                    -4.060854911804199,
                    -1.0625810623168945,
                    0.547309935092926,
                    0.08748150616884232,
                    0.22963981330394745,
                    1.7274528741836548,
                    0.10629994422197342,
                    -0.6225629448890686,
                    0.7257477641105652,
                    1.2782095670700073,
                    -0.49990734457969666,
                    -2.067859411239624,
                    -0.810007631778717,
                    0.16263552010059357,
                    1.207276701927185,
                    2.2245287895202637,
                    -0.426981121301651,
                    0.5545641779899597,
                    -1.3148969411849976,
                    -1.5821744203567505,
                    -0.6821681261062622,
                    1.2541656494140625,
                    -0.7047245502471924,
                    -3.0032529830932617,
                    -1.6029773950576782,
                    -1.2950751781463623,
                    1.0787339210510254,
                    -2.758281707763672,
                    -2.5519204139709473,
                    -1.3858588933944702,
                    -1.631491780281067,
                    -1.4232399463653564,
                    1.9854381084442139,
                    2.0979514122009277,
                    -0.3470151424407959,
                    -5.381872177124023,
                    0.24482761323451996,
                    -1.8264124393463135,
                    -1.8239130973815918,
                    0.42891281843185425,
                    0.4452635645866394,
                    0.4292718768119812,
                    1.3549730777740479,
                    -3.3645174503326416,
                    -5.5552520751953125,
                    -2.4769983291625977,
                    0.4457327425479889,
                    -0.9681264162063599,
                    0.8890135288238525,
                    -0.2660455107688904,
                    1.253657341003418,
                    0.38976818323135376,
                    1.9317535161972046,
                    0.4531014561653137,
                    2.7580060958862305,
                    -1.6146504878997803,
                    -0.8879600763320923,
                    -1.4145225286483765,
                    -1.061169147491455,
                    0.2351522296667099,
                    -1.9000104665756226,
                    1.019823670387268,
                    0.03317505493760109,
                    0.2046624720096588,
                    0.4715326428413391,
                    2.6770730018615723,
                    -1.4576396942138672,
                    -1.8291010856628418,
                    1.6006646156311035,
                    1.221208930015564,
                    -0.2542189955711365,
                    -1.060446858406067,
                    -0.6167377233505249,
                    -0.8922497034072876,
                    -0.2802051901817322,
                    2.629991292953491,
                    -1.1408214569091797,
                    5.132274150848389,
                    0.9200555086135864,
                    1.217030644416809,
                    -1.1976574659347534,
                    -0.8286313414573669,
                    0.19232414662837982,
                    -0.2226894050836563,
                    -3.8329334259033203,
                    -1.5369935035705566,
                    -0.3094930648803711,
                    -1.819492220878601,
                    1.4886324405670166,
                    1.6332602500915527,
                    -1.0428060293197632,
                    -1.3696876764297485,
                    0.17487733066082,
                    -1.2318298816680908,
                    -0.9765219688415527,
                    2.055511713027954,
                    2.6513829231262207,
                    0.7622726559638977,
                    1.9735019207000732,
                    0.7962492108345032,
                    -0.30953797698020935,
                    -2.903839111328125,
                    0.7542553544044495,
                    -0.785876452922821,
                    -2.3869757652282715,
                    -1.0781376361846924,
                    0.2132183462381363,
                    2.4061405658721924,
                    -0.1726682186126709,
                    0.5343915820121765,
                    -0.5170086622238159,
                    0.3472541570663452,
                    1.842448115348816,
                    4.5971598625183105,
                    -1.0155221223831177,
                    -2.565709352493286,
                    0.21021459996700287,
                    -0.27286195755004883,
                    2.8692405223846436,
                    -2.0994653701782227,
                    3.643763542175293,
                    -2.9549574851989746,
                    0.027480874210596085,
                    -0.13074463605880737,
                    -0.6320235729217529,
                    1.4492113590240479,
                    -0.11928337067365646,
                    1.242510199546814,
                    1.4778863191604614,
                    1.6276640892028809,
                    1.955327033996582,
                    -2.421419143676758,
                    -1.0126793384552002,
                    0.21303509175777435,
                    0.4560772180557251,
                    1.4893323183059692,
                    -0.01391326542943716,
                    1.6790317296981812,
                    0.4305456876754761,
                    0.8520846366882324,
                    -0.5170506238937378,
                    0.4049939513206482,
                    -0.2313937097787857,
                    -0.6264978051185608,
                    -1.7139872312545776,
                    2.107067584991455,
                    -0.355024129152298,
                    -0.1464841663837433,
                    0.36670535802841187,
                    -1.8215750455856323,
                    -0.7853107452392578,
                    -3.8814306259155273,
                    -1.0608854293823242,
                    -3.600670576095581,
                    -0.6245698928833008,
                    -2.1890509128570557,
                    1.8735032081604004,
                    -2.5566341876983643,
                    -1.3003791570663452,
                    1.1523507833480835,
                    0.007982884533703327,
                    1.9282351732254028,
                    1.1627846956253052,
                    0.676426887512207,
                    0.5196061730384827,
                    -1.0783857107162476,
                    -0.79741370677948,
                    1.6088453531265259,
                    1.5240159034729004,
                    1.6459804773330688,
                    -0.8990412950515747,
                    2.165123224258423,
                    4.185678005218506,
                    -1.0972061157226562,
                    -0.6188316345214844,
                    -0.6809108257293701,
                    2.476034641265869,
                    -2.845461845397949,
                    1.6923515796661377,
                    1.829339623451233,
                    -1.9101171493530273,
                    -0.2762790620326996,
                    0.2562743127346039,
                    0.9334812164306641,
                    -0.1528431624174118,
                    -0.21916987001895905,
                    -1.4900100231170654,
                    -0.04273676127195358,
                    0.805276095867157,
                    0.981505811214447,
                    1.8956624269485474,
                    -1.8893563747406006,
                    0.8733969926834106,
                    -0.9320019483566284,
                    0.22272874414920807,
                    -1.501044511795044,
                    0.5197193622589111,
                    0.2325257658958435,
                    1.5149835348129272,
                    0.28978025913238525,
                    2.891695261001587,
                    -1.1006101369857788,
                    -0.9543904662132263,
                    0.1574675440788269,
                    -1.895260214805603,
                    -0.9359570145606995,
                    2.3952629566192627,
                    1.6708804368972778,
                    -0.9412962198257446,
                    -1.2830733060836792,
                    0.054712411016225815,
                    0.7710735201835632,
                    -1.1079219579696655,
                    0.2404792457818985,
                    4.366958141326904,
                    0.7286391258239746,
                    -0.32826778292655945,
                    -0.9453786611557007,
                    3.2729883193969727,
                    0.7893457412719727,
                    -2.825357437133789,
                    1.845393180847168,
                    -1.0494403839111328,
                    -0.7426557540893555,
                    -0.7324016094207764,
                    0.008443668484687805,
                    3.229888916015625,
                    0.6399382948875427,
                    -0.8638002872467041,
                    -0.18051257729530334,
                    1.7088549137115479,
                    3.105292558670044,
                    -1.352820634841919,
                    2.0417563915252686,
                    1.1628868579864502,
                    -0.38408443331718445,
                    1.8378000259399414,
                    -0.42416298389434814,
                    -0.987458348274231,
                    -2.2569093704223633,
                    -0.21568408608436584,
                    0.5523772239685059,
                    -0.22780396044254303,
                    -2.5328381061553955,
                    -0.07576727122068405,
                    -0.15932181477546692,
                    -2.0745816230773926,
                    -1.8422174453735352,
                    1.6088674068450928,
                    2.7045223712921143,
                    0.4346626102924347,
                    -2.2406580448150635,
                    -2.8724639415740967,
                    2.5712311267852783,
                    0.5036382675170898,
                    1.965528130531311,
                    0.3552479147911072,
                    1.054028868675232,
                    -2.386817693710327,
                    0.11385338753461838,
                    0.7097318768501282,
                    0.1733483374118805,
                    -2.660062789916992,
                    1.8412314653396606,
                    -1.0204671621322632,
                    0.9487367272377014,
                    1.0263475179672241,
                    -2.0536458492279053,
                    1.5915517807006836,
                    -4.051313877105713,
                    1.7153676748275757,
                    -2.0665359497070312,
                    -0.09883499890565872,
                    -0.03446654602885246,
                    -0.7599102854728699,
                    -1.4878687858581543,
                    -1.543151617050171,
                    1.5943584442138672,
                    -0.3846991956233978,
                    1.217763900756836,
                    1.1377671957015991,
                    0.9384186863899231,
                    -0.6443304419517517,
                    2.012131690979004,
                    0.24088086187839508,
                    2.0843217372894287,
                    1.3549141883850098,
                    1.265690803527832,
                    1.5111255645751953,
                    -0.5920552015304565,
                    0.8331394791603088,
                    0.9332939982414246,
                    -0.3880218267440796,
                    0.9585804343223572,
                    -1.3354884386062622,
                    -3.1244661808013916,
                    -0.3416683077812195,
                    -1.127876877784729,
                    -1.8581151962280273,
                    -0.14609543979167938,
                    0.9146137237548828,
                    3.2565784454345703,
                    -0.9471081495285034,
                    0.32022199034690857,
                    1.9572434425354004,
                    0.18015921115875244,
                    -2.346919298171997,
                    -3.0721445083618164,
                    -2.9583327770233154,
                    -4.3731231689453125,
                    -2.9126737117767334,
                    3.5656626224517822,
                    -0.5586862564086914,
                    0.7088282704353333,
                    -0.7260108590126038,
                    -2.380596876144409,
                    0.5175071954727173,
                    -2.6267871856689453,
                    -0.833448052406311,
                    -0.04177587479352951,
                    -1.1404249668121338,
                    0.6627405881881714,
                    -0.5706626176834106,
                    2.2614829540252686,
                    2.316472053527832,
                    1.5918976068496704,
                    0.23752056062221527,
                    -0.420039564371109,
                    -1.5422933101654053,
                    -0.5749220252037048,
                    3.2196123600006104,
                    0.5892008543014526,
                    1.5782766342163086,
                    2.875485897064209,
                    -1.3763524293899536,
                    -0.2591259181499481,
                    -0.6996980905532837,
                    -0.7878844141960144,
                    0.23802438378334045,
                    -0.15581361949443817,
                    -2.530825138092041,
                    -1.702367901802063,
                    0.4585059583187103,
                    0.5993223786354065,
                    -0.7135970592498779,
                    -1.2493557929992676,
                    4.999816417694092,
                    -1.0477044582366943,
                    2.073737621307373,
                    -2.392794609069824,
                    2.318366765975952,
                    1.8878763914108276,
                    1.2172523736953735,
                    0.9127742052078247,
                    0.877602756023407,
                    -0.9563606977462769,
                    1.4440151453018188,
                    -1.3951994180679321,
                    0.24497024714946747,
                    -2.21264910697937,
                    -0.6750969290733337,
                    0.693476140499115,
                    -2.131319284439087,
                    0.025006527081131935,
                    1.929456353187561,
                    0.10405613481998444,
                    0.2586665153503418,
                    -0.7616798877716064,
                    3.8788912296295166,
                    -1.2180105447769165,
                    -0.006458883639425039,
                    -1.0206298828125,
                    -1.0335568189620972,
                    1.2809257507324219,
                    1.5600042343139648,
                    0.19816815853118896,
                    2.474393129348755,
                    2.2680470943450928,
                    -0.2686762511730194,
                    0.12101849168539047,
                    2.3599939346313477,
                    -0.5034291744232178,
                    -0.6378121972084045,
                    0.4350571036338806,
                    -1.517735242843628,
                    -2.27357816696167,
                    0.48249027132987976,
                    0.0687311589717865,
                    0.015797771513462067,
                    -1.7321656942367554,
                    3.425529956817627,
                    3.8433899879455566,
                    -0.6380281448364258,
                    -0.300544798374176,
                    -0.1329440027475357,
                    -0.6464570164680481,
                    -2.6283702850341797,
                    -0.3175935447216034,
                    -1.2511183023452759,
                    0.33087214827537537,
                    0.41490957140922546,
                    0.6501574516296387,
                    -1.7894545793533325,
                    2.7325031757354736,
                    0.7413206100463867,
                    3.7474257946014404,
                    -1.396162986755371,
                    2.6153948307037354,
                    -0.911371111869812,
                    -1.8729593753814697,
                    -0.25707581639289856,
                    -0.07050818204879761,
                    1.3625057935714722,
                    -2.33835768699646,
                    -1.3114054203033447,
                    -1.0444953441619873,
                    -1.4849636554718018,
                    -1.37226140499115,
                    -2.6640219688415527,
                    -0.16483443975448608,
                    3.6628382205963135,
                    2.963623523712158,
                    0.7430287003517151,
                    -0.2199212908744812,
                    -0.8947190046310425,
                    -1.5652360916137695,
                    0.49861255288124084,
                    -2.8275809288024902,
                    -2.553218126296997,
                    1.5407394170761108,
                    -0.762700617313385,
                    -0.5555415749549866,
                    -0.45285049080848694,
                    -0.4021512567996979,
                    -2.6282358169555664,
                    0.3094871938228607,
                    0.16783548891544342,
                    -1.539025068283081,
                    1.1257803440093994,
                    0.6217868328094482,
                    -0.20441332459449768,
                    1.6559624671936035,
                    -0.2692759931087494,
                    1.031001329421997,
                    -1.3754962682724,
                    2.2477357387542725,
                    -2.1358039379119873,
                    -2.3217039108276367,
                    -3.1534087657928467,
                    -1.9931237697601318,
                    0.9995930194854736,
                    -3.6944050788879395,
                    1.3956470489501953,
                    -0.7880041599273682,
                    -3.1445889472961426,
                    -4.604151725769043,
                    0.7362474799156189,
                    1.2391360998153687,
                    -0.8355866074562073,
                    -3.0007686614990234,
                    2.678560733795166,
                    1.8012415170669556,
                    -1.4231281280517578,
                    1.4801290035247803,
                    2.082850456237793,
                    -1.5966767072677612,
                    5.439509391784668,
                    0.9951283931732178,
                    1.6538567543029785,
                    0.5075936913490295,
                    5.034700393676758,
                    1.5275356769561768,
                    0.6406515836715698,
                    -0.5480499267578125,
                    2.0659048557281494,
                    0.39661937952041626,
                    1.6103023290634155,
                    0.6934383511543274,
                    1.330104947090149,
                    -0.9646165370941162,
                    1.7361493110656738,
                    0.24116814136505127,
                    -0.35478389263153076,
                    0.6503344774246216,
                    0.363606721162796,
                    -0.3257460296154022,
                    -0.6795606017112732,
                    1.3058863878250122,
                    -1.1310847997665405,
                    -0.6059359908103943,
                    -1.653509259223938,
                    -3.542708158493042,
                    -0.14967787265777588,
                    -1.8341968059539795,
                    -2.749389886856079,
                    -2.8734307289123535,
                    0.16634945571422577,
                    -0.7176494002342224,
                    0.822907567024231,
                    1.4292267560958862,
                    0.8526926636695862,
                    -0.7056687474250793,
                    0.18811243772506714,
                    1.7701387405395508,
                    1.1259206533432007,
                    -1.153347134590149,
                    0.9213573932647705,
                    2.3623573780059814,
                    1.9881858825683594,
                    -1.111149549484253,
                    -2.7365405559539795,
                    -0.2939023971557617,
                    -2.121135711669922,
                    0.040045350790023804,
                    2.406442880630493,
                    1.1855201721191406,
                    0.7323782444000244,
                    0.9376809000968933,
                    1.4487147331237793
                ]
            },
            "inputHidden": {
                "rows": 20,
                "columns": 20,
                "weights": [
                    -3.9716315269470215,
                    -0.7694817781448364,
                    2.832930326461792,
                    1.0329675674438477,
                    -0.05889086425304413,
                    -0.1108383983373642,
                    -0.06701640784740448,
                    -1.0816320180892944,
                    0.0011066388105973601,
                    -2.3296260833740234,
                    1.9362322092056274,
                    -0.6694238781929016,
                    0.7173737287521362,
                    -0.8805133700370789,
                    -2.6728971004486084,
                    0.6901121139526367,
                    -1.5475934743881226,
                    -0.18409839272499084,
                    0.1831003576517105,
                    -1.2345958948135376,
                    0.20629628002643585,
                    -0.7318500876426697,
                    0.9935623407363892,
                    0.27486100792884827,
                    -3.4714131355285645,
                    -2.382512092590332,
                    1.6423715353012085,
                    0.020978566259145737,
                    -0.20621199905872345,
                    -0.6805774569511414,
                    -0.19953490793704987,
                    -1.2807412147521973,
                    -2.68996524810791,
                    0.9650876522064209,
                    1.6165556907653809,
                    -3.3296048641204834,
                    -0.09060311317443848,
                    2.9052841663360596,
                    0.22953738272190094,
                    -0.3250989019870758,
                    0.954716145992279,
                    -2.262500762939453,
                    -0.5899829864501953,
                    1.7714471817016602,
                    -2.480437994003296,
                    0.005256703123450279,
                    -0.34859150648117065,
                    0.7127844095230103,
                    1.694685459136963,
                    -1.8017280101776123,
                    1.2906467914581299,
                    1.0786302089691162,
                    0.9779657125473022,
                    0.3569340407848358,
                    -0.011888152919709682,
                    -0.5179803371429443,
                    -1.4405810832977295,
                    -0.41865941882133484,
                    2.484246015548706,
                    -0.3940220773220062,
                    -0.9922036528587341,
                    -0.12043002247810364,
                    -0.9088154435157776,
                    1.4881889820098877,
                    0.14754851162433624,
                    0.2523123621940613,
                    -1.4206916093826294,
                    1.2470455169677734,
                    0.45185166597366333,
                    -1.3962149620056152,
                    -1.417961835861206,
                    -0.6965078115463257,
                    -2.085653066635132,
                    -1.1399481296539307,
                    -2.3518009185791016,
                    1.748050570487976,
                    -0.35327374935150146,
                    -2.0309395790100098,
                    -1.2697418928146362,
                    3.722268581390381,
                    -1.4523186683654785,
                    2.2245965003967285,
                    -2.209770917892456,
                    -2.737098455429077,
                    0.2224324345588684,
                    2.99143385887146,
                    0.8265557289123535,
                    -0.6404953598976135,
                    2.67964243888855,
                    4.905130386352539,
                    -0.3364660143852234,
                    2.469430446624756,
                    3.648177146911621,
                    2.6396002769470215,
                    1.3782541751861572,
                    -1.586539387702942,
                    2.2030303478240967,
                    2.4093968868255615,
                    2.2998969554901123,
                    0.2509480118751526,
                    -0.1674114614725113,
                    3.486873149871826,
                    -2.846038579940796,
                    0.6044822335243225,
                    2.953941822052002,
                    -0.8943443894386292,
                    -0.3470078706741333,
                    -2.4861457347869873,
                    -1.6116081476211548,
                    -0.18075942993164062,
                    0.8181077241897583,
                    0.8098222017288208,
                    -5.071396350860596,
                    -3.680490255355835,
                    -0.29938963055610657,
                    0.7273417711257935,
                    -2.849135398864746,
                    0.12006248533725739,
                    -3.8116214275360107,
                    -4.256911277770996,
                    0.7594793438911438,
                    -1.2102587223052979,
                    -1.3844095468521118,
                    -0.8925755023956299,
                    0.9464726448059082,
                    2.858917474746704,
                    -1.1938849687576294,
                    1.108231544494629,
                    -0.02043265663087368,
                    2.4579122066497803,
                    -0.5440241098403931,
                    0.8508298397064209,
                    1.763339877128601,
                    2.9007468223571777,
                    -1.6423296928405762,
                    -1.949648141860962,
                    0.8870128989219666,
                    -1.4232356548309326,
                    2.479964017868042,
                    0.2451288402080536,
                    0.9724213480949402,
                    -0.8049023747444153,
                    -1.0331509113311768,
                    -0.42495015263557434,
                    1.344298243522644,
                    0.38945141434669495,
                    -0.7562798261642456,
                    1.1490941047668457,
                    0.8625282049179077,
                    -1.1255301237106323,
                    -0.9730471968650818,
                    1.9896249771118164,
                    -1.923040509223938,
                    -2.112924575805664,
                    0.9045438766479492,
                    -2.2994046211242676,
                    -0.8031221032142639,
                    0.01604136824607849,
                    3.5217621326446533,
                    3.076084613800049,
                    -0.10269548743963242,
                    -2.7757034301757812,
                    4.255115032196045,
                    1.658952236175537,
                    -1.3930126428604126,
                    0.11552033573389053,
                    -1.531083345413208,
                    1.786573886871338,
                    -0.777610182762146,
                    -1.662958025932312,
                    -0.22356897592544556,
                    -1.705620527267456,
                    -0.48742473125457764,
                    -0.9153833389282227,
                    1.036929965019226,
                    -0.5891069173812866,
                    -1.8022112846374512,
                    1.0573807954788208,
                    -0.6692323088645935,
                    -2.178122043609619,
                    0.9865138530731201,
                    0.061538226902484894,
                    1.8140208721160889,
                    -1.8621101379394531,
                    1.1409744024276733,
                    -1.3003772497177124,
                    0.31058159470558167,
                    3.51187801361084,
                    -0.12610206007957458,
                    1.1281440258026123,
                    -2.284787893295288,
                    -1.1718484163284302,
                    1.5945645570755005,
                    -1.2909724712371826,
                    -0.30139729380607605,
                    -1.349945306777954,
                    1.5449233055114746,
                    -1.9045850038528442,
                    0.2727139890193939,
                    -0.49572110176086426,
                    0.07442661374807358,
                    2.34185528755188,
                    -1.440231442451477,
                    0.6594133377075195,
                    -0.9250504374504089,
                    2.1848394870758057,
                    0.4003211557865143,
                    -2.7221999168395996,
                    4.2905707359313965,
                    3.1022870540618896,
                    1.2888660430908203,
                    2.531259298324585,
                    2.3650407791137695,
                    5.684614181518555,
                    2.869757652282715,
                    -1.964003086090088,
                    0.2502691149711609,
                    2.690502643585205,
                    1.9436219930648804,
                    -0.9426800608634949,
                    -1.507493495941162,
                    0.6066785454750061,
                    0.5586078763008118,
                    -0.73987877368927,
                    -0.4426666796207428,
                    1.2917925119400024,
                    -0.4199576675891876,
                    -0.13005498051643372,
                    -0.08785140514373779,
                    -1.576802134513855,
                    -0.8931066393852234,
                    -1.0978248119354248,
                    1.4410444498062134,
                    -1.6658841371536255,
                    -2.542341709136963,
                    1.2792158126831055,
                    0.8666227459907532,
                    -0.45500868558883667,
                    -0.690687358379364,
                    -1.844287395477295,
                    2.829192638397217,
                    3.11271333694458,
                    -0.4047340750694275,
                    -1.6722749471664429,
                    0.3013911545276642,
                    2.2781105041503906,
                    1.3199234008789062,
                    -2.903257131576538,
                    1.5315622091293335,
                    0.7984354496002197,
                    -1.0002497434616089,
                    1.4842160940170288,
                    -2.3933029174804688,
                    1.0015552043914795,
                    1.9529728889465332,
                    -3.817798137664795,
                    1.0571619272232056,
                    0.36090975999832153,
                    -0.3508428931236267,
                    -0.7757971882820129,
                    0.49868443608283997,
                    0.027861101552844048,
                    1.1755414009094238,
                    -2.648327589035034,
                    0.10896775126457214,
                    3.2530155181884766,
                    1.597113847732544,
                    -0.12201515585184097,
                    0.49657416343688965,
                    0.26621901988983154,
                    0.4942668080329895,
                    -1.5503536462783813,
                    -2.5766844749450684,
                    -0.14468449354171753,
                    1.6333483457565308,
                    -0.47417348623275757,
                    5.846667766571045,
                    0.13562583923339844,
                    -0.472970187664032,
                    -0.6171919107437134,
                    0.2060793787240982,
                    -0.3143559694290161,
                    1.816794991493225,
                    -1.793847680091858,
                    0.8396432995796204,
                    0.793042778968811,
                    3.1807963848114014,
                    -0.25768595933914185,
                    -0.2823139727115631,
                    0.046071216464042664,
                    -0.6567180156707764,
                    -0.6505874991416931,
                    0.8842393159866333,
                    1.02138090133667,
                    -2.4337270259857178,
                    1.367967963218689,
                    4.267080783843994,
                    2.1728038787841797,
                    -0.24977624416351318,
                    0.23039071261882782,
                    0.6693149209022522,
                    0.26237037777900696,
                    0.23548638820648193,
                    -2.6906306743621826,
                    0.34939998388290405,
                    1.9632960557937622,
                    2.34553599357605,
                    0.37809374928474426,
                    1.0881448984146118,
                    -2.4147799015045166,
                    0.07935649156570435,
                    -0.03675170615315437,
                    4.053496360778809,
                    0.5199192762374878,
                    1.4406980276107788,
                    1.1205166578292847,
                    7.489007472991943,
                    -0.23602335155010223,
                    -0.17403526604175568,
                    -1.287297010421753,
                    1.0172091722488403,
                    1.035384178161621,
                    1.0765303373336792,
                    -2.0452842712402344,
                    0.5537365674972534,
                    -1.9190716743469238,
                    2.615922689437866,
                    -0.11951275914907455,
                    0.7796556353569031,
                    -0.4040158689022064,
                    0.8658449649810791,
                    4.0795063972473145,
                    -0.34711143374443054,
                    1.1971592903137207,
                    2.6854755878448486,
                    -2.202160120010376,
                    3.8003177642822266,
                    -0.9213868975639343,
                    1.1555697917938232,
                    0.7488283514976501,
                    6.590701103210449,
                    -3.705808401107788,
                    1.6346768140792847,
                    0.60987389087677,
                    0.5634384751319885,
                    -0.34619131684303284,
                    -5.962202548980713,
                    -3.339743137359619,
                    -4.15090799331665,
                    -4.278961181640625,
                    -1.4085278511047363,
                    4.351081371307373,
                    -5.932698726654053,
                    -5.198829174041748,
                    -4.594098091125488,
                    -0.7807055711746216,
                    2.3487765789031982,
                    4.09479284286499,
                    -0.37391725182533264,
                    -0.8292667865753174,
                    -2.0664005279541016,
                    0.9058113098144531,
                    0.8036172389984131,
                    -1.392187237739563,
                    0.8185189962387085,
                    1.4150617122650146,
                    0.8757585883140564,
                    -0.6561431884765625,
                    1.3784542083740234,
                    -3.20512318611145,
                    3.280836820602417,
                    0.3366418182849884,
                    -1.2572660446166992,
                    0.27546626329421997,
                    2.041121244430542,
                    -1.4370876550674438,
                    -0.5266355276107788,
                    -0.63637775182724,
                    0.93242347240448,
                    -0.31617429852485657,
                    0.4055929481983185,
                    0.03304373472929001,
                    -1.3077455759048462,
                    1.6715530157089233,
                    -2.135442018508911,
                    1.3907753229141235,
                    -0.45894983410835266,
                    0.09327816963195801,
                    2.6921911239624023,
                    2.6774137020111084,
                    -3.9863667488098145,
                    0.19570119678974152,
                    2.255805253982544,
                    0.5628436803817749,
                    -1.6485170125961304,
                    -0.5939806699752808,
                    1.177337408065796,
                    -1.5754908323287964,
                    1.028672218322754,
                    -1.9848006963729858
                ]
            },
            "inputBias": {
                "rows": 20,
                "columns": 1,
                "weights": [
                    -0.6123300790786743,
                    0.11618155986070633,
                    0.04647229611873627,
                    -0.022851957008242607,
                    -1.1055530309677124,
                    -1.0099908113479614,
                    -0.4881795048713684,
                    0.2023516148328781,
                    -0.5957334041595459,
                    -0.9899417161941528,
                    -0.9200998544692993,
                    1.2330197095870972,
                    -0.11209723353385925,
                    -0.4620431363582611,
                    -0.46942591667175293,
                    0.0876116007566452,
                    -0.032382577657699585,
                    -0.5835211277008057,
                    -0.5461865663528442,
                    -0.19353756308555603
                ]
            },
            "forgetMatrix": {
                "rows": 20,
                "columns": 30,
                "weights": [
                    0.3669831454753876,
                    0.987954318523407,
                    -0.45278313755989075,
                    1.934490442276001,
                    1.2006394863128662,
                    1.6370551586151123,
                    -1.697952151298523,
                    0.22783523797988892,
                    0.11454860866069794,
                    2.07547926902771,
                    -1.8165390491485596,
                    1.795116662979126,
                    0.4549776315689087,
                    0.24314604699611664,
                    -0.3155938982963562,
                    -0.09029016643762589,
                    1.3873831033706665,
                    0.7203731536865234,
                    0.17653575539588928,
                    0.6137853860855103,
                    0.679458498954773,
                    -0.09563659131526947,
                    -0.2642729580402374,
                    0.9877974390983582,
                    -0.5431311726570129,
                    1.6957588195800781,
                    -1.7609150409698486,
                    2.6603331565856934,
                    -2.0779542922973633,
                    -0.09286586940288544,
                    -1.0595802068710327,
                    -2.860621452331543,
                    2.431879997253418,
                    0.8480482697486877,
                    -0.16224153339862823,
                    0.19978512823581696,
                    -2.932310104370117,
                    0.5714044570922852,
                    0.06856101006269455,
                    -0.38651221990585327,
                    0.2801494598388672,
                    -0.652732789516449,
                    1.1493558883666992,
                    2.134364366531372,
                    0.8932977914810181,
                    1.2280045747756958,
                    0.11033346503973007,
                    -1.180197834968567,
                    -1.26728355884552,
                    -0.28377458453178406,
                    -1.0774372816085815,
                    -0.547940731048584,
                    -0.8870270848274231,
                    -0.05602620542049408,
                    -0.9021196961402893,
                    -1.3940707445144653,
                    0.1777082085609436,
                    0.026649916544556618,
                    -1.7901184558868408,
                    -0.2143971472978592,
                    0.38144469261169434,
                    0.7031686902046204,
                    -1.0590732097625732,
                    0.41932085156440735,
                    1.1800503730773926,
                    0.4288521707057953,
                    0.19414101541042328,
                    1.5272663831710815,
                    0.3991145193576813,
                    -1.4882177114486694,
                    2.741595506668091,
                    0.5286140441894531,
                    -0.402765154838562,
                    -1.2973999977111816,
                    -0.5170472264289856,
                    0.035267237573862076,
                    2.0601067543029785,
                    0.4774852693080902,
                    0.4714738726615906,
                    1.0015802383422852,
                    0.8910779356956482,
                    -2.6481375694274902,
                    -0.9608019590377808,
                    -0.052813149988651276,
                    -0.8722122311592102,
                    0.6084611415863037,
                    -0.5655012726783752,
                    -0.42709851264953613,
                    -0.25875523686408997,
                    0.43598657846450806,
                    0.5029343366622925,
                    1.2681180238723755,
                    -1.2971848249435425,
                    -1.538849115371704,
                    0.7413663268089294,
                    0.13138440251350403,
                    1.2404311895370483,
                    0.6400837898254395,
                    0.5217416286468506,
                    0.3072211444377899,
                    -0.8249486684799194,
                    1.4354990720748901,
                    -0.8450248837471008,
                    -0.12700121104717255,
                    0.9505638480186462,
                    -0.7766536474227905,
                    -2.795689344406128,
                    -0.7060207724571228,
                    0.268815815448761,
                    1.1657918691635132,
                    -1.784468412399292,
                    0.23764020204544067,
                    1.5171453952789307,
                    0.9021915197372437,
                    -1.02037513256073,
                    -0.6250759959220886,
                    -0.9750193357467651,
                    -0.5308287143707275,
                    0.43996015191078186,
                    -0.6077944040298462,
                    -0.4112587869167328,
                    2.743696451187134,
                    -1.2230252027511597,
                    -2.315305471420288,
                    1.9907000064849854,
                    -0.6058130860328674,
                    -0.643219530582428,
                    1.0918468236923218,
                    -0.08669109642505646,
                    -0.28214579820632935,
                    -0.11756102740764618,
                    1.061952829360962,
                    -1.1938401460647583,
                    -2.449484348297119,
                    2.404233694076538,
                    -0.5171084403991699,
                    0.9869540929794312,
                    0.48995161056518555,
                    -1.0162122249603271,
                    2.391345739364624,
                    -0.6047459244728088,
                    0.3519171178340912,
                    -2.4021689891815186,
                    0.5301200151443481,
                    0.12426748871803284,
                    1.4278281927108765,
                    0.3982407748699188,
                    2.7570371627807617,
                    1.2612625360488892,
                    0.3045772314071655,
                    0.16849899291992188,
                    0.0611991286277771,
                    1.246738314628601,
                    -0.3306114673614502,
                    0.5090093016624451,
                    1.548403263092041,
                    0.872953474521637,
                    -2.3194222450256348,
                    -0.6098008751869202,
                    1.740417242050171,
                    -0.30232834815979004,
                    0.39356401562690735,
                    0.2553539276123047,
                    1.7185205221176147,
                    -0.2845368981361389,
                    -1.25276517868042,
                    -0.4475157856941223,
                    0.760279655456543,
                    -0.6151115298271179,
                    0.48435014486312866,
                    1.8864575624465942,
                    0.25214406847953796,
                    0.13725723326206207,
                    0.3141768276691437,
                    1.100876808166504,
                    -1.256929636001587,
                    -1.236946940422058,
                    0.5400452613830566,
                    1.1038320064544678,
                    -0.36977720260620117,
                    0.44530385732650757,
                    -0.8860080242156982,
                    0.3463028371334076,
                    2.474365472793579,
                    -0.8736945986747742,
                    -0.3943726718425751,
                    -2.0843212604522705,
                    -0.9901938438415527,
                    0.3058535158634186,
                    0.47979018092155457,
                    -0.8179872632026672,
                    -0.8412623405456543,
                    1.9571901559829712,
                    1.2253997325897217,
                    -0.1768173724412918,
                    0.45913076400756836,
                    -1.5320813655853271,
                    1.330748200416565,
                    1.7283517122268677,
                    0.25254273414611816,
                    1.3899500370025635,
                    -2.127272367477417,
                    0.6920090913772583,
                    -0.49684029817581177,
                    -0.18858455121517181,
                    0.22905349731445312,
                    -1.1105353832244873,
                    -2.2249090671539307,
                    0.9695927500724792,
                    -0.4116173982620239,
                    -0.5193683505058289,
                    0.6184759140014648,
                    -1.1982394456863403,
                    -2.738576650619507,
                    2.256147623062134,
                    -0.033769186586141586,
                    0.4693151116371155,
                    0.1395845115184784,
                    -1.286149024963379,
                    -0.7986688613891602,
                    1.5930001735687256,
                    0.7076014876365662,
                    -0.8385117053985596,
                    -1.5672380924224854,
                    -0.9877665638923645,
                    0.7752310633659363,
                    1.3907641172409058,
                    -0.9346469640731812,
                    0.8110594749450684,
                    0.5055881142616272,
                    -0.958187997341156,
                    1.4115976095199585,
                    1.2318856716156006,
                    0.4756879508495331,
                    1.975645899772644,
                    -0.09773650765419006,
                    0.4038292169570923,
                    -0.4029253423213959,
                    -0.28654757142066956,
                    1.0472259521484375,
                    1.3569083213806152,
                    -0.10939124971628189,
                    -2.2998640537261963,
                    0.8470339775085449,
                    1.8288905620574951,
                    0.4370700716972351,
                    -0.2840346097946167,
                    0.3902711272239685,
                    0.8653541207313538,
                    0.28232628107070923,
                    -0.7501296997070312,
                    1.3530702590942383,
                    0.37877196073532104,
                    -1.0080933570861816,
                    0.6427311897277832,
                    -0.8799334168434143,
                    2.0722086429595947,
                    0.14897450804710388,
                    1.9932011365890503,
                    1.9824897050857544,
                    -0.729948103427887,
                    1.5849952697753906,
                    0.35914185643196106,
                    -1.2302628755569458,
                    0.31334206461906433,
                    0.39558765292167664,
                    -0.8523073196411133,
                    1.7844706773757935,
                    1.1715216636657715,
                    1.041346549987793,
                    1.064550518989563,
                    3.904825448989868,
                    0.06737720221281052,
                    0.1534552127122879,
                    0.9112824201583862,
                    4.3972625732421875,
                    0.749843955039978,
                    0.5846797823905945,
                    0.8508313894271851,
                    1.7191846370697021,
                    -1.0657981634140015,
                    1.9270802736282349,
                    -0.43652042746543884,
                    2.4734585285186768,
                    -2.0020174980163574,
                    -0.6201866865158081,
                    0.030424095690250397,
                    2.0179522037506104,
                    1.2455353736877441,
                    -0.39682379364967346,
                    2.9591269493103027,
                    0.6958543658256531,
                    0.5938467979431152,
                    -0.25853922963142395,
                    0.11652255803346634,
                    1.0743227005004883,
                    -0.9658960700035095,
                    -0.9149001240730286,
                    -1.9980995655059814,
                    -0.8277791738510132,
                    0.17993523180484772,
                    -0.49813705682754517,
                    1.291136384010315,
                    -1.2508516311645508,
                    0.12898129224777222,
                    -0.8556833863258362,
                    -0.8325337767601013,
                    -0.30904215574264526,
                    0.39313754439353943,
                    -2.0141921043395996,
                    0.14925597608089447,
                    0.631367564201355,
                    -0.38781464099884033,
                    -3.042085886001587,
                    2.8765008449554443,
                    2.2415082454681396,
                    -1.4564454555511475,
                    0.09443391859531403,
                    0.9154089689254761,
                    -0.026002880185842514,
                    -2.2766754627227783,
                    1.3378379344940186,
                    0.9705175757408142,
                    -0.3045435845851898,
                    -0.3970550298690796,
                    -0.9842026233673096,
                    -0.8623577356338501,
                    -0.7700693607330322,
                    1.4716260433197021,
                    0.3623429238796234,
                    1.2242627143859863,
                    1.848772644996643,
                    0.005790892988443375,
                    0.5672972798347473,
                    1.5240265130996704,
                    0.5525238513946533,
                    -0.7819836735725403,
                    -1.4815021753311157,
                    1.394809603691101,
                    1.2589311599731445,
                    2.3256192207336426,
                    0.8728048801422119,
                    -1.3667705059051514,
                    -0.9104045629501343,
                    3.5140554904937744,
                    -2.188045024871826,
                    -0.531108021736145,
                    0.5338773131370544,
                    -0.45925769209861755,
                    1.2345588207244873,
                    0.8583049178123474,
                    -0.45980921387672424,
                    -2.762519121170044,
                    -0.746378481388092,
                    -1.3930083513259888,
                    0.4134064018726349,
                    0.8317782282829285,
                    1.890735387802124,
                    2.036059856414795,
                    1.3714948892593384,
                    0.2995542585849762,
                    1.2418557405471802,
                    1.153025507926941,
                    -0.21443989872932434,
                    -0.31040269136428833,
                    0.8573773503303528,
                    0.6667855381965637,
                    -1.9940446615219116,
                    -1.3635632991790771,
                    -0.7201682329177856,
                    -1.408039927482605,
                    -2.702989339828491,
                    0.2934655249118805,
                    -0.12819159030914307,
                    -1.7237889766693115,
                    0.9035516977310181,
                    0.5292598605155945,
                    0.7977573275566101,
                    0.8829580545425415,
                    1.845834493637085,
                    1.1097593307495117,
                    0.019388407468795776,
                    -0.13398800790309906,
                    -0.6881300806999207,
                    1.3123915195465088,
                    0.8961096405982971,
                    -0.9885908961296082,
                    0.3383997678756714,
                    1.8288344144821167,
                    0.012420671992003918,
                    -1.360573649406433,
                    -0.6352511644363403,
                    -0.27397188544273376,
                    0.2553975284099579,
                    -0.6623320579528809,
                    1.0437144041061401,
                    -0.725549042224884,
                    0.44254347681999207,
                    -1.988128662109375,
                    -1.5415993928909302,
                    1.2154484987258911,
                    -0.48572713136672974,
                    -1.866378903388977,
                    -1.5212078094482422,
                    -0.5452821850776672,
                    1.3273977041244507,
                    3.0938003063201904,
                    0.5894423723220825,
                    1.0200432538986206,
                    -0.4539760649204254,
                    1.019260048866272,
                    0.6141979098320007,
                    -1.3551381826400757,
                    0.17256101965904236,
                    -1.0205283164978027,
                    0.48636555671691895,
                    -0.6454647183418274,
                    0.2754686176776886,
                    1.4297153949737549,
                    3.3585402965545654,
                    -2.5217983722686768,
                    -2.4346203804016113,
                    2.4635119438171387,
                    0.34188827872276306,
                    -2.3895668983459473,
                    1.1710307598114014,
                    -1.6046888828277588,
                    -0.20376789569854736,
                    -0.5545637011528015,
                    -0.3152041435241699,
                    -0.9385404586791992,
                    -0.030901070684194565,
                    1.4140790700912476,
                    0.3947724401950836,
                    0.14450712502002716,
                    1.4276955127716064,
                    -2.8668594360351562,
                    -0.520534873008728,
                    0.7151119112968445,
                    0.3269251585006714,
                    -0.07537467032670975,
                    1.229122519493103,
                    1.3188765048980713,
                    -0.2581949234008789,
                    1.6946814060211182,
                    0.052511755377054214,
                    -0.1542547047138214,
                    -2.277017831802368,
                    -0.18232350051403046,
                    0.9708663821220398,
                    -0.6873291730880737,
                    -0.14875677227973938,
                    0.6059712767601013,
                    0.11526262015104294,
                    -1.4351173639297485,
                    0.7725645899772644,
                    0.18649822473526,
                    -3.1324820518493652,
                    -0.01290232315659523,
                    0.41645851731300354,
                    1.5943392515182495,
                    -1.1081286668777466,
                    -1.012030839920044,
                    1.031690001487732,
                    -1.1020313501358032,
                    0.2554015815258026,
                    -0.08628009259700775,
                    -0.08852805942296982,
                    -0.6584349274635315,
                    -0.6097432971000671,
                    1.8050259351730347,
                    -1.9253159761428833,
                    -0.8349430561065674,
                    -0.7861695289611816,
                    0.4025759696960449,
                    -2.558392286300659,
                    -1.680962085723877,
                    -1.0148286819458008,
                    0.7426270246505737,
                    -0.44553354382514954,
                    1.2226406335830688,
                    0.6750248670578003,
                    -1.594443440437317,
                    0.6970945596694946,
                    0.9992687702178955,
                    1.5232994556427002,
                    1.8054128885269165,
                    0.5793124437332153,
                    0.2580200433731079,
                    -0.9719141721725464,
                    1.6851035356521606,
                    1.54115891456604,
                    -0.31363943219184875,
                    0.22066311538219452,
                    0.8414650559425354,
                    0.5549991130828857,
                    1.9688115119934082,
                    2.337839126586914,
                    -2.0666024684906006,
                    0.5490610599517822,
                    0.44256335496902466,
                    -0.41060057282447815,
                    -2.1886708736419678,
                    0.668989896774292,
                    -0.13679112493991852,
                    0.4594360291957855,
                    -1.2568265199661255,
                    0.8582485914230347,
                    -0.8801252841949463,
                    -0.03314005210995674,
                    1.7101114988327026,
                    -0.5485902428627014,
                    -0.64985591173172,
                    0.5517487525939941,
                    -3.6663265228271484,
                    1.3239705562591553,
                    0.3523949682712555,
                    1.3831350803375244,
                    0.06028865650296211,
                    -0.984924852848053,
                    -0.2709718942642212,
                    -1.4768707752227783,
                    1.3671706914901733,
                    0.13927921652793884,
                    -0.203505739569664,
                    -2.5716781616210938,
                    0.006781433708965778,
                    1.7324423789978027,
                    0.23298755288124084,
                    -0.14331534504890442,
                    0.7456991076469421,
                    0.5885170102119446,
                    0.7376950979232788,
                    -2.162327766418457,
                    -0.5634381771087646,
                    0.08930258452892303,
                    -1.1034555435180664,
                    -0.544148862361908,
                    -1.2193423509597778,
                    0.32059940695762634,
                    -1.5056853294372559,
                    1.0460846424102783,
                    1.0319172143936157,
                    1.7919689416885376,
                    -4.149024963378906,
                    0.5588613152503967,
                    -0.993550717830658,
                    0.23140986263751984,
                    -1.807940125465393,
                    0.09667898714542389,
                    1.135884404182434,
                    -1.8743325471878052,
                    -2.136904001235962,
                    -0.3155572712421417,
                    0.4616621434688568,
                    -0.3494592010974884,
                    1.053270697593689,
                    1.9962973594665527,
                    0.5188608765602112,
                    1.2498607635498047,
                    1.5539569854736328,
                    0.8317843079566956,
                    -3.0111167430877686,
                    -0.4174763560295105,
                    0.33373263478279114,
                    0.9820299744606018,
                    1.0753345489501953,
                    0.6165447235107422,
                    0.4170939326286316,
                    2.960814952850342,
                    -1.7395707368850708,
                    -2.2707700729370117,
                    -0.8796414732933044,
                    0.1505473554134369,
                    0.4612952172756195,
                    0.9857562780380249,
                    -0.08582325279712677,
                    0.3716636002063751,
                    -0.08032321184873581,
                    0.25887662172317505,
                    -1.8390623331069946,
                    0.5484052896499634,
                    0.9927477836608887,
                    -3.2865140438079834,
                    -2.5778987407684326,
                    -0.14724397659301758,
                    0.34609565138816833,
                    -1.0401642322540283,
                    -0.8614903092384338,
