{
    "type": "NeuralNetwork",
    "sizes": [
        18,
        8,
        8,
        8,
        8,
        8,
        8,
        8,
        8,
        3
    ],
    "layers": [
        {
            "weights": [],
            "biases": []
        },
        {
            "weights": [
                [
                    0.15135765075683594,
                    -0.13105079531669617,
                    -0.17665253579616547,
                    0.09643816202878952,
                    0.1483057737350464,
                    -0.19752071797847748,
                    0.19902944564819336,
                    -0.06992627680301666,
                    0.1607280820608139,
                    -0.03942585736513138,
                    -0.14253675937652588,
                    -0.06905722618103027,
                    -0.1713232398033142,
                    -0.17593148350715637,
                    -0.06382191926240921,
                    -0.15617579221725464,
                    0.07881426811218262,
                    -0.10241653770208359
                ],
                [
                    0.06167922914028168,
                    0.11740853637456894,
                    0.10489537566900253,
                    0.07659217715263367,
                    -0.05908121168613434,
                    -0.18046851456165314,
                    -0.11614301800727844,
                    -0.010548382997512817,
                    -0.0010411093244329095,
                    -0.049513209611177444,
                    0.006753654219210148,
                    0.08819866925477982,
                    -0.10220237076282501,
                    -0.10336347669363022,
                    -0.0871012955904007,
                    -0.17302268743515015,
                    -0.08651059865951538,
                    -0.14408820867538452
                ],
                [
                    0.13981173932552338,
                    -0.1782841682434082,
                    -0.08047077059745789,
                    0.06441935896873474,
                    0.09486884623765945,
                    -0.05550044775009155,
                    0.19619542360305786,
                    0.12389294803142548,
                    -0.07677815109491348,
                    -0.16330750286579132,
                    0.12574617564678192,
                    0.058780115097761154,
                    -0.04381684958934784,
                    -0.06900746375322342,
                    -0.10455956310033798,
                    -0.19951407611370087,
                    -0.06990120559930801,
                    0.14895032346248627
                ],
                [
                    -0.105463407933712,
                    -0.08452014625072479,
                    -0.19095481932163239,
                    0.1702641248703003,
                    0.039981719106435776,
                    0.09893745183944702,
                    -0.13413619995117188,
                    0.11111265420913696,
                    0.10058251023292542,
                    0.03578682616353035,
                    0.019725607708096504,
                    0.10740844160318375,
                    -0.10042168945074081,
                    -0.19432052969932556,
                    -0.0830925703048706,
                    0.18112514913082123,
                    -0.15675093233585358,
                    0.13447028398513794
                ],
                [
                    0.12609878182411194,
                    -0.14339976012706757,
                    0.04290788620710373,
                    0.11656685918569565,
                    0.04780075326561928,
                    0.058929283171892166,
                    0.004352120216935873,
                    0.17359229922294617,
                    -0.09000257402658463,
                    -0.037430547177791595,
                    0.03198249265551567,
                    0.11171376705169678,
                    -0.13665325939655304,
                    0.07331067323684692,
                    0.06975746899843216,
                    0.1998635232448578,
                    -0.1673707813024521,
                    0.17859198153018951
                ],
                [
                    0.014524588361382484,
                    -0.13098248839378357,
                    0.046757232397794724,
                    0.1508001983165741,
                    -0.07462666183710098,
                    0.04932786151766777,
                    0.15879741311073303,
                    0.08252710103988647,
                    -0.028841007500886917,
                    -0.198754221200943,
                    0.08260493725538254,
                    0.15876400470733643,
                    0.09618773311376572,
                    0.18500827252864838,
                    -0.0075539820827543736,
                    -0.15348851680755615,
                    0.19612987339496613,
                    -0.15799717605113983
                ],
                [
                    0.15715470910072327,
                    -0.08287712186574936,
                    0.17590558528900146,
                    0.010064142756164074,
                    0.18003948032855988,
                    0.17649976909160614,
                    -0.15245084464550018,
                    -0.04993070662021637,
                    -0.023258253931999207,
                    -0.016934288665652275,
                    -0.13334530591964722,
                    0.18329033255577087,
                    -0.1505393087863922,
                    -0.08612267673015594,
                    -0.15487788617610931,
                    -0.16515979170799255,
                    -0.0060562388971447945,
                    0.07785464078187943
                ],
                [
                    -0.160325825214386,
                    0.1606079787015915,
                    0.07396971434354782,
                    -0.06309837847948074,
                    -0.18140926957130432,
                    0.07636585086584091,
                    -0.05958400294184685,
                    0.17889967560768127,
                    0.14692537486553192,
                    -0.09956434369087219,
                    0.19665147364139557,
                    0.1530478596687317,
                    -0.0895797535777092,
                    -0.1395295411348343,
                    -0.08103298395872116,
                    -0.1093398928642273,
                    0.08730586618185043,
                    0.08899103105068207
                ]
            ],
            "biases": [
                0.026799209415912628,
                0.14996451139450073,
                -0.17548388242721558,
                0.00363432290032506,
                0.05492059886455536,
                -0.031238803640007973,
                0.08670622110366821,
                -0.09934140741825104
            ]
        },
        {
            "weights": [
                [
                    -0.1351541131734848,
                    -0.04636722803115845,
                    -0.0011128847254440188,
                    0.16921676695346832,
                    0.13470850884914398,
                    0.05751791596412659,
                    -0.18585696816444397,
                    -0.19764548540115356
                ],
                [
                    0.14847058057785034,
                    0.1994105875492096,
                    -0.12329892814159393,
                    -0.17346397042274475,
                    -0.12368568778038025,
                    0.18595990538597107,
                    0.03517080843448639,
                    0.15525643527507782
                ],
                [
                    0.09006289392709732,
                    -0.07862795144319534,
                    -0.1470431387424469,
                    0.12178676575422287,
                    -0.04602226987481117,
                    0.12241765856742859,
                    0.17542307078838348,
                    0.06049010530114174
                ],
                [
                    -0.1776108592748642,
                    -0.17951533198356628,
                    0.07361915707588196,
                    0.14666450023651123,
                    -0.07615293562412262,
                    -0.0004454647714737803,
                    0.04989262670278549,
                    -0.19131799042224884
                ],
                [
                    -0.12580206990242004,
                    0.16384078562259674,
                    0.14663100242614746,
                    0.10197339206933975,
                    0.1755778193473816,
                    -0.0965789258480072,
                    0.01787901297211647,
                    0.07554857432842255
                ],
                [
                    -0.06030641123652458,
                    0.03741804137825966,
                    -0.18106785416603088,
                    -0.19731935858726501,
                    0.04328027740120888,
                    -0.11233064532279968,
                    -0.14278918504714966,
                    -0.158158078789711
                ],
                [
                    0.04282615706324577,
                    -0.12688462436199188,
                    -0.059359077364206314,
                    -0.11724637448787689,
                    -0.030794190242886543,
                    0.18782442808151245,
                    -0.1422908455133438,
                    0.09772355109453201
                ],
                [
                    0.19010068476200104,
                    0.1429399847984314,
                    0.0974363163113594,
                    -0.198123961687088,
                    -0.13942009210586548,
                    -0.18153975903987885,
                    -0.08566044270992279,
                    -0.05151190981268883
                ]
            ],
            "biases": [
                0.10389310866594315,
                -0.09838823229074478,
                0.1233048364520073,
                -0.03335743397474289,
                0.16530615091323853,
                0.10061503946781158,
                -0.11117824912071228,
                0.10292010009288788
            ]
        },
        {
            "weights": [
                [
                    0.01738184131681919,
                    0.17017284035682678,
                    0.10950475186109543,
                    -0.06406400352716446,
                    0.12173851579427719,
                    0.18981453776359558,
                    -0.1526748538017273,
                    -0.06041579693555832
                ],
                [
                    -0.05049555003643036,
                    0.03544504940509796,
                    0.025123558938503265,
                    -0.17680038511753082,
                    0.1233321875333786,
                    0.15975022315979004,
                    0.1566626876592636,
                    -0.10424736887216568
                ],
                [
                    0.1320878118276596,
                    0.1464376002550125,
                    0.03246781602501869,
                    -0.17332576215267181,
                    -0.1368766725063324,
                    -0.13054868578910828,
                    -0.0794067308306694,
                    -0.08382275700569153
                ],
                [
                    -0.14842137694358826,
                    -0.07714246958494186,
                    0.16002511978149414,
                    0.1511872410774231,
                    -0.044839102774858475,
                    -0.05644281581044197,
                    0.03865573927760124,
                    0.08332034945487976
                ],
                [
                    0.10841257125139236,
                    -0.02327899821102619,
                    -0.05346248671412468,
                    0.14453129470348358,
                    0.08105174452066422,
                    0.1783452332019806,
                    0.08658880740404129,
                    -0.13291098177433014
                ],
                [
                    -0.04017586633563042,
                    0.03277343884110451,
                    0.1390322744846344,
                    0.13604557514190674,
                    0.020951056852936745,
                    -0.19622057676315308,
                    0.016417408362030983,
                    0.18356254696846008
                ],
                [
                    0.10620870441198349,
                    0.12366227805614471,
                    0.07395818829536438,
                    0.17484310269355774,
                    0.0900827944278717,
                    0.01929224655032158,
                    -0.07945392280817032,
                    -0.009421938098967075
                ],
                [
                    -0.018352173268795013,
                    -0.1768551766872406,
                    0.00018034606182482094,
                    -0.008707000873982906,
                    0.1651173233985901,
                    0.007887125015258789,
                    -0.17032353579998016,
                    0.1098187118768692
                ]
            ],
            "biases": [
                -0.04765715450048447,
                0.13495101034641266,
                0.07694093137979507,
                0.013873320072889328,
                0.11668659001588821,
                -0.1900259405374527,
                -0.0305317472666502,
                -0.04696159064769745
            ]
        },
        {
            "weights": [
                [
                    0.129547581076622,
                    0.007432951126247644,
                    -0.1563594937324524,
                    0.15795961022377014,
                    0.1579718291759491,
                    0.10540922731161118,
                    -0.13295431435108185,
                    -0.17796583473682404
                ],
                [
                    -0.04404830187559128,
                    -0.03775094076991081,
                    0.11984138190746307,
                    0.18909160792827606,
                    0.12732873857021332,
                    -0.01528366282582283,
                    -0.040086615830659866,
                    -0.1440514624118805
                ],
                [
                    0.1676001399755478,
                    0.16265524923801422,
                    -0.04717231169342995,
                    -0.05694688484072685,
                    -0.01885753683745861,
                    -0.08204735070466995,
                    -0.06793754547834396,
                    0.010273138992488384
                ],
                [
                    0.11298543214797974,
                    0.19212596118450165,
                    0.1953376829624176,
                    -0.09425655007362366,
                    -0.09875643253326416,
                    0.08646649122238159,
                    -0.1926545947790146,
                    -0.05513014271855354
                ],
                [
                    0.08087964355945587,
                    0.15857331454753876,
                    -0.02793959341943264,
                    -0.04179183021187782,
                    0.12289202958345413,
                    0.18095581233501434,
                    -0.1557624787092209,
                    0.1493215709924698
                ],
                [
                    -0.0861312597990036,
                    0.08395057171583176,
                    -0.10241910070180893,
                    0.029901890084147453,
                    -0.0224158838391304,
                    -0.16475720703601837,
                    0.04291171953082085,
                    -0.0649387463927269
                ],
                [
                    0.1325501948595047,
                    -0.01896178349852562,
                    -0.14323797821998596,
                    0.015780648216605186,
                    -0.08237309753894806,
                    0.12740297615528107,
                    -0.076802097260952,
                    -0.09574509412050247
                ],
                [
                    0.11965974420309067,
                    -0.14975577592849731,
                    -0.17771148681640625,
                    -0.01725676842033863,
                    0.16956613957881927,
                    -0.004607682581990957,
                    0.05623694509267807,
                    0.08267275989055634
                ]
            ],
            "biases": [
                0.10887163132429123,
                -0.021664274856448174,
                0.11626458913087845,
                0.1320524513721466,
                0.0023970725014805794,
                -0.18486355245113373,
                0.07075458019971848,
                -0.04849806800484657
            ]
        },
        {
            "weights": [
                [
                    -0.0846279188990593,
                    0.06428486108779907,
                    0.15230515599250793,
                    -0.10579884797334671,
                    0.10035815834999084,
                    0.026660557836294174,
                    -0.14132185280323029,
                    -0.010605034418404102
                ],
                [
                    0.10966695100069046,
                    -0.1591707468032837,
                    0.03421050310134888,
                    -0.08628464490175247,
                    0.024719873443245888,
                    -0.12842555344104767,
                    -0.1503780484199524,
                    0.11987686157226562
                ],
                [
                    -0.16571956872940063,
                    -0.16959649324417114,
                    0.17640145123004913,
                    0.18493929505348206,
                    -0.10034751147031784,
                    -0.13537493348121643,
                    -0.058749113231897354,
                    0.06056470051407814
                ],
                [
                    -0.09202271699905396,
                    0.038222525268793106,
                    -0.142798513174057,
                    0.11809790134429932,
                    0.03755390644073486,
                    -0.1963292956352234,
                    0.03973884508013725,
                    -0.18476589024066925
                ],
                [
                    0.19951388239860535,
                    -0.14788217842578888,
                    0.054837916046381,
                    -0.19006328284740448,
                    0.13802781701087952,
                    0.08867751806974411,
                    0.02852412685751915,
                    0.10323638468980789
                ],
                [
                    -0.08790411800146103,
                    -0.026885323226451874,
                    -0.014951402321457863,
                    -0.10134133696556091,
                    0.0490538515150547,
                    -0.10170304030179977,
                    0.04187036678195,
                    -0.14776284992694855
                ],
                [
                    0.17542320489883423,
                    0.030530942603945732,
                    -0.008933015167713165,
                    -0.002225990639999509,
                    0.07514365762472153,
                    -0.07263600081205368,
                    0.01612088270485401,
                    -0.09811975806951523
                ],
                [
                    0.06338801980018616,
                    -0.15857210755348206,
                    0.16018906235694885,
                    -0.19972772896289825,
                    -0.01843872480094433,
                    0.02227759175002575,
                    0.13905861973762512,
                    0.027780331671237946
                ]
            ],
            "biases": [
                0.18718385696411133,
                -0.16739486157894135,
                0.029551798477768898,
                -0.04687801003456116,
                0.12791064381599426,
                -0.15868966281414032,
                -0.09503438323736191,
                0.12795346975326538
            ]
        },
        {
            "weights": [
                [
                    0.020015094429254532,
                    -0.19832243025302887,
                    -0.0010756994597613811,
                    0.049531787633895874,
                    -0.0751420184969902,
                    -0.09493687003850937,
                    0.09354604035615921,
                    -0.1458875685930252
                ],
                [
                    -0.19057348370552063,
                    -0.08094299584627151,
                    -0.06419116258621216,
                    0.0649762973189354,
                    0.19700656831264496,
                    0.0911983922123909,
                    -0.11518767476081848,
                    0.05436653271317482
                ],
                [
                    0.03670443966984749,
                    -0.08413203060626984,
                    -0.05831541121006012,
                    -0.04600861296057701,
                    0.19783523678779602,
                    -0.05613156408071518,
                    0.18422362208366394,
                    0.13230402767658234
                ],
                [
                    -0.04760225862264633,
                    -0.1300687938928604,
                    0.1176677942276001,
                    0.07035938650369644,
                    0.09167403727769852,
                    -0.1141667291522026,
                    0.1853269785642624,
                    0.11281728744506836
                ],
                [
                    0.038600191473960876,
                    0.10854495316743851,
                    -0.03096894361078739,
                    0.17513161897659302,
                    -0.11510030180215836,
                    0.13754664361476898,
                    0.137071430683136,
                    0.030956821516156197
                ],
                [
                    -0.08740296959877014,
                    0.04209338501095772,
                    -0.03863068297505379,
                    0.10688291490077972,
                    0.08680516481399536,
                    -0.004505965393036604,
                    0.023600542917847633,
                    0.06598037481307983
                ],
                [
                    0.15426217019557953,
                    0.10556652396917343,
                    -0.1715693324804306,
                    0.008206430822610855,
                    0.1355602741241455,
                    -0.10470259189605713,
                    -0.1493423581123352,
                    0.0596846304833889
                ],
                [
                    0.06244077533483505,
                    -0.06651037186384201,
                    0.05661126971244812,
                    0.07279378920793533,
                    0.08957794308662415,
                    -0.1717950403690338,
                    0.06158986687660217,
                    -0.03645498305559158
                ]
            ],
            "biases": [
                -0.010951128788292408,
                0.1823805719614029,
                0.16492819786071777,
                -0.19467633962631226,
                -0.0837714821100235,
                0.0818069577217102,
                0.18559256196022034,
                0.0417521670460701
            ]
        },
        {
            "weights": [
                [
                    -0.0815507173538208,
                    -0.107258141040802,
                    -0.08458041399717331,
                    0.07520660012960434,
                    -0.07998549193143845,
                    0.12058234959840775,
                    -0.12292167544364929,
                    -0.1357928365468979
                ],
                [
                    -0.08952286839485168,
                    0.07597893476486206,
                    0.19095809757709503,
                    -0.08347277343273163,
                    -0.05050211399793625,
                    -0.02082524262368679,
                    -0.19761613011360168,
                    0.0993393212556839
                ],
                [
                    0.09750352054834366,
                    -0.10127488523721695,
                    0.1890595406293869,
                    -0.08372688293457031,
                    0.1597283035516739,
                    -0.1193886324763298,
                    0.11513448506593704,
                    -0.1727324277162552
                ],
                [
                    -0.16052700579166412,
                    0.12037250399589539,
                    0.013172709383070469,
                    0.08163757622241974,
                    0.10594896972179413,
                    0.024332262575626373,
                    -0.012484263628721237,
                    0.011945441365242004
                ],
                [
                    0.17442508041858673,
                    0.05949289724230766,
                    -0.02408290095627308,
                    0.06433569639921188,
                    -0.19132453203201294,
                    -0.17279468476772308,
                    -0.127308189868927,
                    -0.12401644140481949
                ],
                [
                    -0.0490373857319355,
                    0.05658693611621857,
                    0.10286619514226913,
                    -0.08227171003818512,
                    0.08983570337295532,
                    -0.03858298063278198,
                    0.10054397583007812,
                    -0.15062643587589264
                ],
                [
                    0.0034753866493701935,
                    -0.20003019273281097,
                    -0.1917412132024765,
                    0.01843445561826229,
                    -0.1311613768339157,
                    0.09757082164287567,
                    0.13219892978668213,
                    -0.041531868278980255
                ],
                [
                    0.07995720207691193,
                    0.006355250254273415,
                    -0.008304000832140446,
                    -0.14379841089248657,
                    -0.11521771550178528,
                    -0.14745816588401794,
                    -0.17856813967227936,
                    0.042696986347436905
                ]
            ],
            "biases": [
                -0.1879933923482895,
                0.10809442400932312,
                0.031297799199819565,
                0.030979687348008156,
                0.11370120197534561,
                0.11337429285049438,
                0.17475463449954987,
                0.13555176556110382
            ]
        },
        {
            "weights": [
                [
                    0.04146223142743111,
                    0.08558081090450287,
                    -0.17675094306468964,
                    -0.13181693851947784,
                    -0.09550926834344864,
                    0.056088294833898544,
                    -0.1624710112810135,
                    0.13274209201335907
                ],
                [
                    0.04863206669688225,
                    0.07135771960020065,
                    -0.0603812001645565,
                    0.17727789282798767,
                    0.04998265206813812,
                    -0.024650854989886284,
                    -0.11783242970705032,
                    -0.07639088481664658
                ],
                [
                    0.06330441683530807,
                    0.17027688026428223,
                    -0.1628854125738144,
                    -0.07944770902395248,
                    -0.08664169162511826,
                    -0.0967848151922226,
                    -0.1545366793870926,
                    -0.09442000091075897
                ],
                [
                    -0.07838582992553711,
                    -0.16892440617084503,
                    -0.19239452481269836,
                    0.20329070091247559,
                    0.09161996096372604,
                    -0.06947307288646698,
                    -0.029933974146842957,
                    0.09206874668598175
                ],
                [
                    0.11584444344043732,
                    0.1899106800556183,
                    0.13954810798168182,
                    -0.06537990272045135,
                    -0.18175867199897766,
                    0.208511084318161,
                    -0.03708091750741005,
                    -0.03521815314888954
                ],
                [
                    0.05941231921315193,
                    -0.09405787289142609,
                    0.026154015213251114,
                    -0.19922752678394318,
                    0.04186416044831276,
                    -0.14988099038600922,
                    0.17766276001930237,
                    0.09317586570978165
                ],
                [
                    0.17822155356407166,
                    -0.0959954634308815,
                    0.07701180130243301,
                    0.07420378178358078,
                    -0.16931523382663727,
                    -0.02004937082529068,
                    -0.002843207912519574,
                    -0.1316191405057907
                ],
                [
                    0.03368507698178291,
                    0.06268864125013351,
                    -0.1342843472957611,
                    0.08540540933609009,
                    -0.09075065702199936,
                    -0.08957988023757935,
                    -0.05314501002430916,
                    0.02036021091043949
                ]
            ],
            "biases": [
                -0.035727500915527344,
                -0.16576552391052246,
                -0.15501511096954346,
                0.16703781485557556,
                0.17397701740264893,
                -0.03334574028849602,
                0.09243722259998322,
                0.020443392917513847
            ]
        },
        {
            "weights": [
                [
                    0.1067381426692009,
                    0.17449155449867249,
                    0.03411363437771797,
                    0.20392300188541412,
                    0.24013474583625793,
                    -0.19911907613277435,
                    -0.1226847842335701,
                    -0.08742593228816986
                ],
                [
                    0.09752301871776581,
                    0.09065219759941101,
                    -0.057686738669872284,
                    0.06212852895259857,
                    -0.13096734881401062,
                    -0.1429387778043747,
                    0.014320063404738903,
                    -0.1682942509651184
                ],
                [
                    0.1391565501689911,
                    0.10626091808080673,
                    0.013942460529506207,
                    -0.13055270910263062,
                    -0.15967455506324768,
                    0.1982475221157074,
                    -0.10477257519960403,
                    -0.09172742068767548
                ]
            ],
            "biases": [
                0.5252593755722046,
                0.21856403350830078,
                -0.17350514233112335
            ]
        }
    ],
    "inputLookup": null,
    "inputLookupLength": 0,
    "outputLookup": null,
    "outputLookupLength": 0,
    "options": {
        "inputSize": 18,
        "outputSize": 3,
        "binaryThresh": 0.5,
        "activation": "relu",
        "learningRate": 0.001,
        "hiddenLayers": [
            8,
            8,
            8,
            8,
            8,
            8,
            8,
            8
        ]
    },
    "trainOpts": {
        "activation": "relu",
        "iterations": 20000,
        "errorThresh": 0.005,
        "log": true,
        "logPeriod": 10,
        "leakyReluAlpha": 0.01,
        "learningRate": 0.001,
        "momentum": 0.1,
        "callbackPeriod": 10,
        "timeout": "Infinity",
        "beta1": 0.9,
        "beta2": 0.999,
        "epsilon": 1e-8
    }
}