{
    "type": "LSTM",
    "options": {
        "inputSize": 25,
        "inputRange": 25,
        "hiddenLayers": [
            20,
            20
        ],
        "outputSize": 25,
        "decayRate": 0.999,
        "smoothEps": 1e-8,
        "regc": 0.000001,
        "clipval": 5,
        "maxPredictionLength": 100,
        "dataFormatter": {
            "indexTable": {
                "I": 0,
                " ": 1,
                "f": 2,
                "e": 3,
                "l": 4,
                "g": 5,
                "r": 6,
                "a": 7,
                "t": 8,
                "b": 9,
                "o": 10,
                "u": 11,
                "h": 12,
                "w": 13,
                "d": 14,
                "!": 15,
                "p": 16,
                "y": 17,
                "T": 18,
                "i": 19,
                "s": 20,
                "c": 21,
                "stop-input": 22,
                "start-output": 23,
                "unrecognized": 24
            },
            "characterTable": {
                "0": "I",
                "1": " ",
                "2": "f",
                "3": "e",
                "4": "l",
                "5": "g",
                "6": "r",
                "7": "a",
                "8": "t",
                "9": "b",
                "10": "o",
                "11": "u",
                "12": "h",
                "13": "w",
                "14": "d",
                "15": "!",
                "16": "p",
                "17": "y",
                "18": "T",
                "19": "i",
                "20": "s",
                "21": "c",
                "22": null,
                "23": null,
                "24": null
            },
            "values": [
                {
                    "input": "I feel great about the world!",
                    "output": "happy"
                },
                {
                    "input": "The world is a terrible place!",
                    "output": "sad"
                }
            ],
            "characters": [
                "I",
                " ",
                "f",
                "e",
                "l",
                "g",
                "r",
                "a",
                "t",
                "b",
                "o",
                "u",
                "h",
                "w",
                "d",
                "!",
                "p",
                "y",
                "T",
                "i",
                "s",
                "c",
                "stop-input",
                "start-output",
                "unrecognized"
            ],
            "specialIndexes": [
                22,
                23,
                24
            ]
        }
    },
    "trainOpts": {
        "iterations": 20000,
        "errorThresh": 0.005,
        "log": false,
        "logPeriod": 10,
        "learningRate": 0.01,
        "callbackPeriod": 10,
        "timeout": "Infinity"
    },
    "input": {
        "rows": 26,
        "columns": 25,
        "weights": [
            -0.18958498537540436,
            -0.007314250338822603,
            -1.1649733781814575,
            0.9975569844245911,
            0.054060135036706924,
            -0.44834333658218384,
            -1.3773045539855957,
            -0.27196839451789856,
            0.41547316312789917,
            0.6090666055679321,
            0.7259487509727478,
            0.27843669056892395,
            0.7822128534317017,
            0.33630427718162537,
            0.3393373489379883,
            0.0014304817887023091,
            -0.7804604768753052,
            -0.36609143018722534,
            0.3045627176761627,
            0.4494023621082306,
            -0.5988888144493103,
            -0.3258945941925049,
            -0.2338930368423462,
            -0.2283332198858261,
            -0.6107993721961975,
            -0.3198220431804657,
            1.0338364839553833,
            -0.9751868844032288,
            0.4205702841281891,
            1.3351962566375732,
            -0.6660519242286682,
            0.7818304896354675,
            -0.3223994970321655,
            0.4334540367126465,
            0.8240832686424255,
            0.49648380279541016,
            0.9450306296348572,
            1.7121444940567017,
            -1.176816701889038,
            1.4428099393844604,
            0.16171228885650635,
            0.7118667364120483,
            0.8859578371047974,
            -2.032775640487671,
            -1.1249289512634277,
            2.425485372543335,
            0.10256336629390717,
            -0.9586000442504883,
            -0.0467488169670105,
            0.42058065533638,
            -1.336114764213562,
            0.7760746479034424,
            0.5573944449424744,
            0.7334187030792236,
            1.0574605464935303,
            0.5241455435752869,
            1.0247660875320435,
            1.5349727869033813,
            -0.05685962364077568,
            0.5669376254081726,
            -0.09965275973081589,
            0.6497737169265747,
            0.7732627391815186,
            -1.1675373315811157,
            0.09783980250358582,
            -0.9382946491241455,
            0.49030575156211853,
            1.1348693370819092,
            -0.3731980323791504,
            -0.5270072817802429,
            0.8674275279045105,
            0.6044397354125977,
            -0.7023958563804626,
            0.6653448939323425,
            0.6368355751037598,
            -2.2882590293884277,
            0.09982740134000778,
            -0.8541150689125061,
            0.12428147345781326,
            1.0588122606277466,
            1.799273133277893,
            -2.022239923477173,
            1.8410369157791138,
            -2.5026605129241943,
            0.01056121289730072,
            -1.9062036275863647,
            -0.3237020969390869,
            -0.6079262495040894,
            -0.09255963563919067,
            -0.30539563298225403,
            -2.3553106784820557,
            0.7511042952537537,
            -0.5519043207168579,
            -1.3111876249313354,
            -0.7814270257949829,
            -0.24150298535823822,
            1.8803638219833374,
            -0.3840195834636688,
            1.402837872505188,
            0.8516600131988525,
            0.4406082332134247,
            -0.8040789365768433,
            0.24693280458450317,
            -0.38866719603538513,
            -0.5634177327156067,
            0.05656315013766289,
            -0.7988157272338867,
            -0.8735440373420715,
            -0.36658501625061035,
            -0.830797553062439,
            0.11189465969800949,
            -0.5770876407623291,
            -0.10186725109815598,
            0.17900070548057556,
            -0.7650671601295471,
            0.21461330354213715,
            0.26908770203590393,
            -0.3120935559272766,
            0.42769545316696167,
            0.23034080862998962,
            -0.21535639464855194,
            -0.8836255073547363,
            -0.10472171008586884,
            -1.3463935852050781,
            0.014782549813389778,
            2.0923819541931152,
            -1.1104927062988281,
            0.45822256803512573,
            -0.2875189185142517,
            0.4599512815475464,
            -0.7113058567047119,
            0.9855934381484985,
            -0.22301191091537476,
            1.3279764652252197,
            0.9707634449005127,
            1.3234626054763794,
            -0.35531705617904663,
            1.6442219018936157,
            -0.6130971312522888,
            -0.7018924355506897,
            -0.6150376200675964,
            -0.7426669001579285,
            1.190326452255249,
            0.18073919415473938,
            0.6561447381973267,
            1.3324816226959229,
            -1.526092290878296,
            1.0870193243026733,
            -1.2419768571853638,
            -0.5995740294456482,
            1.535934567451477,
            -0.8524810075759888,
            -0.8053368330001831,
            2.329265832901001,
            0.8186087608337402,
            -0.43724456429481506,
            1.2604156732559204,
            -0.6822302937507629,
            -0.6837944388389587,
            0.6916002035140991,
            0.7062248587608337,
            0.42572036385536194,
            0.5245468020439148,
            -2.0972230434417725,
            -0.35364940762519836,
            -0.07805471122264862,
            -0.3303437829017639,
            -0.35608136653900146,
            -1.385031819343567,
            0.4895818531513214,
            0.9033347964286804,
            -2.0683600902557373,
            -0.6138650178909302,
            -2.5440564155578613,
            3.431375026702881,
            -1.3048816919326782,
            2.9399096965789795,
            -0.14550618827342987,
            1.6282453536987305,
            0.877682089805603,
            -0.6473119258880615,
            -0.059716783463954926,
            -0.870158314704895,
            0.12977057695388794,
            -0.09071985632181168,
            0.33569636940956116,
            3.261918306350708,
            -0.23943470418453217,
            -0.9896845817565918,
            1.457236409187317,
            0.4846188724040985,
            -0.006163041573017836,
            -0.08402413874864578,
            0.566650927066803,
            -0.9320154190063477,
            -0.3171094059944153,
            0.2779242694377899,
            -2.455404281616211,
            0.1388382762670517,
            0.9011257886886597,
            1.935150384902954,
            -0.27710312604904175,
            -0.6505774855613708,
            0.3415716588497162,
            -0.04129888117313385,
            -0.2216510772705078,
            -0.354839026927948,
            -0.835111141204834,
            -0.020490847527980804,
            -0.5478354692459106,
            1.172197937965393,
            -1.0202685594558716,
            -0.5589685440063477,
            0.14335596561431885,
            -0.14110060036182404,
            0.4267685115337372,
            0.7152414917945862,
            -0.17974388599395752,
            -0.5805283784866333,
            -0.5081235766410828,
            0.0012815699446946383,
            -1.1982501745224,
            -0.26067015528678894,
            -1.123075008392334,
            0.6054555177688599,
            -0.2759935259819031,
            0.08238998055458069,
            -0.6039778590202332,
            -0.1123766228556633,
            -0.8749989867210388,
            0.01964566856622696,
            -2.049708604812622,
            -0.921461820602417,
            -0.1403968334197998,
            -0.8493016362190247,
            -0.007390775717794895,
            -0.2062223106622696,
            -0.3891807496547699,
            0.9732823967933655,
            -0.28194350004196167,
            0.6028114557266235,
            -0.3288358747959137,
            -0.717133641242981,
            -0.049046847969293594,
            -0.14391113817691803,
            -0.965919554233551,
            -0.2108970284461975,
            -0.1872597336769104,
            -0.5168971419334412,
            -0.3829612135887146,
            -1.1493721008300781,
            2.9589710235595703,
            -0.04573451727628708,
            0.9720374345779419,
            0.24243368208408356,
            0.1281164288520813,
            0.5922403931617737,
            0.8416893482208252,
            0.894715428352356,
            2.043750762939453,
            0.4475131034851074,
            1.495232343673706,
            2.095216989517212,
            -1.4801191091537476,
            0.9705896377563477,
            -0.18200041353702545,
            1.8548719882965088,
            2.2995710372924805,
            -1.0256626605987549,
            -2.1117172241210938,
            1.5837785005569458,
            0.08647022396326065,
            -2.244878053665161,
            0.20237119495868683,
            2.556279182434082,
            -0.12903447449207306,
            1.1130160093307495,
            0.2942412495613098,
            0.5974242687225342,
            0.6519246697425842,
            -0.2408115714788437,
            0.9993088841438293,
            1.1257350444793701,
            0.6503806114196777,
            0.5936097502708435,
            0.7034809589385986,
            0.7670628428459167,
            1.673458456993103,
            -1.838590145111084,
            -0.19259808957576752,
            -0.23775294423103333,
            1.5424108505249023,
            1.7619835138320923,
            0.4831829369068146,
            -1.344724416732788,
            2.155599355697632,
            0.8312634229660034,
            0.04900103434920311,
            0.9890523552894592,
            1.4077975749969482,
            -0.17095904052257538,
            0.40757712721824646,
            0.4352300465106964,
            -0.0008047086885198951,
            -0.3162701725959778,
            0.7796886563301086,
            2.898188591003418,
            0.1352427750825882,
            -0.5572996735572815,
            -0.12953051924705505,
            -0.5316162705421448,
            -0.0029354498255997896,
            0.3712536692619324,
            -1.272728681564331,
            -0.6549678444862366,
            -0.7407180070877075,
            0.26060622930526733,
            1.1038106679916382,
            -0.8883838057518005,
            -0.8097128868103027,
            0.8521649241447449,
            0.4999944567680359,
            -1.108234167098999,
            0.49678581953048706,
            0.4278152585029602,
            1.2555230855941772,
            -0.7156723737716675,
            -1.1307445764541626,
            -0.37344086170196533,
            -0.983467698097229,
            0.10276331752538681,
            -0.735905110836029,
            -1.1745960712432861,
            -0.4781935214996338,
            -0.4157252311706543,
            -0.28710561990737915,
            -1.6739503145217896,
            -0.44168999791145325,
            1.7531931400299072,
            -0.21989677846431732,
            1.01853346824646,
            0.7708825469017029,
            -0.3950697183609009,
            -1.6615630388259888,
            -1.2022960186004639,
            -0.01039411872625351,
            -0.24151872098445892,
            0.14526645839214325,
            -0.7712492942810059,
            -0.06519719213247299,
            1.2601336240768433,
            -0.4018303155899048,
            1.5075958967208862,
            0.22198277711868286,
            0.6569755673408508,
            -0.35311660170555115,
            0.3911789059638977,
            -0.4418869912624359,
            0.8381853699684143,
            -0.6550297737121582,
            0.5308786034584045,
            0.1149195209145546,
            0.059763409197330475,
            0.3897985517978668,
            0.16111423075199127,
            -0.9132344722747803,
            -0.6312227249145508,
            -0.2592228353023529,
            0.4582459628582001,
            0.975986897945404,
            -0.3549319803714752,
            -0.2262379676103592,
            0.40276193618774414,
            0.270454466342926,
            -0.37429824471473694,
            0.6617562174797058,
            -0.21575233340263367,
            0.21953903138637543,
            -0.068473681807518,
            -0.441790908575058,
            -0.5697861909866333,
            -0.9088388085365295,
            -0.18477608263492584,
            0.7317918539047241,
            -0.14083467423915863,
            0.8181093335151672,
            -0.11926552653312683,
            0.8358994722366333,
            -0.31407588720321655,
            -0.7442230582237244,
            -1.079590916633606,
            -0.38016217947006226,
            0.9841504096984863,
            0.13248923420906067,
            0.23390479385852814,
            0.7561103105545044,
            -0.6911397576332092,
            0.29381728172302246,
            -0.14072667062282562,
            -0.12845724821090698,
            0.7407864928245544,
            -1.0027567148208618,
            0.9346858859062195,
            -0.5359743237495422,
            -0.6305737495422363,
            1.3076688051223755,
            1.8044248819351196,
            -0.5413172245025635,
            -0.2962774336338043,
            -0.9911360740661621,
            -0.3176024854183197,
            -0.3843623697757721,
            0.5937333106994629,
            -0.9128969311714172,
            -0.987069845199585,
            -1.3544262647628784,
            -1.0043951272964478,
            0.8050841093063354,
            0.7113629579544067,
            0.8031781315803528,
            0.5475239157676697,
            0.3370901942253113,
            0.8753116130828857,
            0.7709088325500488,
            -0.9004986882209778,
            1.5949534177780151,
            0.006169373635202646,
            0.5900832414627075,
            -0.04707051441073418,
            0.11560945957899094,
            0.462181955575943,
            1.8256950378417969,
            -1.187537670135498,
            0.06310129910707474,
            0.6082407236099243,
            -0.18017266690731049,
            -0.22484754025936127,
            0.6090809106826782,
            -0.7778129577636719,
            0.1877852827310562,
            -0.05165913701057434,
            -0.443985253572464,
            0.9061104655265808,
            0.3973161578178406,
            0.4132035970687866,
            0.9848626852035522,
            0.12601947784423828,
            0.4240739643573761,
            -0.07990915328264236,
            -0.3145516812801361,
            -1.2463133335113525,
            1.0376054048538208,
            0.13200120627880096,
            -0.5782807469367981,
            -1.1299629211425781,
            -0.1720113605260849,
            -1.1412827968597412,
            1.3597126007080078,
            -0.2410653829574585,
            -0.792080283164978,
            -0.1926412731409073,
            -0.4925387501716614,
            -0.14843827486038208,
            0.7594485878944397,
            -0.8141111731529236,
            -0.6755263209342957,
            -0.8148277997970581,
            -0.38943082094192505,
            0.9439018368721008,
            0.49437448382377625,
            -0.9031612277030945,
            0.4993337392807007,
            0.5211741924285889,
            0.8946738243103027,
            -0.7015778422355652,
            -0.1892673522233963,
            2.2509102821350098,
            0.6292703151702881,
            0.32727760076522827,
            -0.12906582653522491,
            0.4468150734901428,
            1.7437297105789185,
            -1.0741419792175293,
            -0.24971874058246613,
            -0.8148223757743835,
            -0.5938931703567505,
            1.1637228727340698,
            0.2303023487329483,
            -1.7839311361312866,
            -0.38536331057548523,
            -0.4780287742614746,
            1.310193657875061,
            0.6927013993263245,
            -0.7122832536697388,
            -0.6329404711723328,
            0.1056404784321785,
            1.1369191408157349,
            -0.17152759432792664,
            0.8126353621482849,
            0.14180104434490204,
            1.7726794481277466,
            -0.8268606662750244,
            0.016122814267873764,
            -0.48028701543807983,
            -0.3470522463321686,
            -1.253342628479004,
            -0.019938183948397636,
            -0.4661797881126404,
            1.1702572107315063,
            0.5656766891479492,
            0.8109681010246277,
            -0.3426123857498169,
            1.0595958232879639,
            0.46635255217552185,
            -0.8585025072097778,
            0.19470873475074768,
            -0.7192726135253906,
            0.4808194041252136,
            0.6630862355232239,
            0.7237734198570251,
            0.7309945225715637,
            -1.3981704711914062,
            0.7124502062797546,
            -1.5179474353790283,
            -0.7400614023208618,
            -0.3070431053638458,
            0.012086499482393265,
            -1.0183967351913452,
            -0.12423583120107651,
            -0.715846061706543,
            -2.0852138996124268,
            -1.8295022249221802,
            0.07906140387058258,
            0.2124926745891571,
            0.35861465334892273,
            0.21215973794460297,
            0.13859060406684875,
            0.19786176085472107,
            -0.14521647989749908,
            -0.6499760150909424,
            0.605812132358551,
            -0.18400351703166962,
            0.648746132850647,
            -0.3091023564338684,
            -0.40302249789237976,
            0.4069739580154419,
            0.29502999782562256,
            -0.15003825724124908,
            0.2692665159702301,
            -0.06499890983104706,
            -1.2485426664352417,
            0.15100093185901642,
            -1.3826854228973389,
            -0.8935243487358093,
            -1.0153690576553345,
            0.864188551902771,
            -1.1548304557800293,
            -1.6234362125396729,
            -1.18763267993927,
            -2.1280581951141357,
            -0.250185489654541,
            -0.6719436645507812,
            -1.564953088760376,
            1.1812375783920288,
            0.5978091955184937,
            1.7119187116622925,
            1.0798734426498413,
            -1.6031277179718018,
            -1.7913066148757935,
            -1.516485333442688,
            -1.5336982011795044,
            -0.6933667659759521,
            -1.8812856674194336,
            -0.9563130140304565,
            -1.0158864259719849,
            -1.5233993530273438,
            0.5026419758796692,
            0.7300006747245789,
            0.28532201051712036,
            -0.5620110630989075,
            0.8580409288406372,
            1.1677669286727905,
            0.7863438725471497,
            0.3133939802646637,
            -1.1767535209655762,
            -0.06414208561182022,
            0.5107536315917969,
            1.1015362739562988,
            -0.6047024726867676,
            -0.47506678104400635,
            -1.0861577987670898,
            -0.05969424918293953,
            1.3208779096603394,
            1.0663567781448364,
            0.022938165813684464,
            0.4362680912017822,
            0.551952064037323,
            -0.3069397509098053,
            0.9757615327835083,
            -0.012022766284644604,
            0.981406569480896,
            0.500261664390564,
            -0.5248271226882935,
            0.6494281888008118,
            1.0102542638778687,
            -0.8497251868247986,
            0.7361613512039185,
            -0.3479212820529938,
            1.6612552404403687,
            0.2809566557407379,
            1.8113173246383667,
            0.2069130390882492,
            1.6172361373901367,
            -0.7870235443115234,
            0.2238450050354004,
            0.09213288873434067,
            0.7630831599235535,
            1.2814463376998901,
            0.10259094089269638,
            -0.1651267111301422,
            0.7380498051643372,
            -0.6612725257873535,
            -0.1172700747847557,
            -0.5554273128509521,
            0.6618510484695435,
            0.0009545946959406137,
            -0.05672220140695572,
            -0.023864418268203735,
            -0.056822068989276886,
            -0.01720697432756424,
            -0.07101811468601227,
            0.049372244626283646,
            -0.05905914679169655,
            0.06504452228546143,
            -0.04317491874098778,
            0.032575108110904694,
            0.041279084980487823,
            -0.024967074394226074,
            -0.029792681336402893,
            -0.03484063968062401,
            0.014482471160590649,
            0.01048176921904087,
            -0.033298153430223465,
            -0.026387102901935577,
            -0.024805333465337753,
            0.05886241793632507,
            -0.06953319907188416,
            -0.06235545501112938,
            -0.022969024255871773,
            0.027891438454389572
        ]
    },
    "hiddenLayers": [
        {
            "inputMatrix": {
                "rows": 20,
                "columns": 25,
                "weights": [
                    0.9139856696128845,
                    0.053753748536109924,
                    -0.3136584758758545,
                    0.041020315140485764,
                    0.032380737364292145,
                    -0.3144240975379944,
                    1.0006215572357178,
                    -0.0676555335521698,
                    0.6060523390769958,
                    0.06705127656459808,
                    0.674063503742218,
                    -0.3264164924621582,
                    0.5945343971252441,
                    -0.46204516291618347,
                    -0.24720561504364014,
                    -0.026468459516763687,
                    0.13216707110404968,
                    1.0659083127975464,
                    -0.11469659209251404,
                    -0.2994205355644226,
                    1.1093847751617432,
                    -0.5301672220230103,
                    -0.11383039504289627,
                    0.17370425164699554,
                    0.08009356260299683,
                    0.5156444311141968,
                    0.5573376417160034,
                    0.7815465927124023,
                    0.1759406477212906,
                    0.5555977821350098,
                    -0.5737206339836121,
                    1.4923502206802368,
                    -0.05500958487391472,
                    0.5908674001693726,
                    0.2336307168006897,
                    0.5882536172866821,
                    0.5481148958206177,
                    0.3744056522846222,
                    -0.6227855086326599,
                    0.29641878604888916,
                    -0.5023736953735352,
                    -0.05346610024571419,
                    0.5981160998344421,
                    0.49069860577583313,
                    0.18149247765541077,
                    0.7143476605415344,
                    -0.045756105333566666,
                    -0.3072149157524109,
                    0.13677068054676056,
                    0.35602837800979614,
                    -0.36377695202827454,
                    -0.20260164141654968,
                    1.571236252784729,
                    -0.2655952572822571,
                    -0.4430878162384033,
                    0.9735471606254578,
                    0.383182555437088,
                    0.6311489343643188,
                    -0.012265009805560112,
                    -0.8267644643783569,
                    0.04250645264983177,
                    -0.2846447229385376,
                    0.42087075114250183,
                    -0.45293861627578735,
                    -0.810728132724762,
                    -1.6658753156661987,
                    0.25594308972358704,
                    0.7235358357429504,
                    0.06888780742883682,
                    0.01824626699090004,
                    0.5385716557502747,
                    -0.08118235319852829,
                    0.1676093339920044,
                    1.1930322647094727,
                    0.07577813416719437,
                    -0.4950512945652008,
                    0.8031789064407349,
                    0.828325092792511,
                    -0.06358884274959564,
                    0.42366552352905273,
                    1.0194103717803955,
                    0.7999935150146484,
                    0.2552708089351654,
                    0.6068912744522095,
                    -0.046488869935274124,
                    -0.6605913043022156,
                    0.3741626441478729,
                    -0.46118295192718506,
                    -0.0835421234369278,
                    0.9818621277809143,
                    -0.6660846471786499,
                    -0.6722763776779175,
                    -0.018915191292762756,
                    -0.03950246423482895,
                    -0.16719302535057068,
                    0.02699967287480831,
                    1.4618350267410278,
                    -0.25848591327667236,
                    1.5978502035140991,
                    -0.30214923620224,
                    0.06466951966285706,
                    0.17170314490795135,
                    -0.7653429508209229,
                    0.34933802485466003,
                    0.13004933297634125,
                    -0.7806049585342407,
                    -0.531910240650177,
                    -0.1182132437825203,
                    0.7765231132507324,
                    0.05481221526861191,
                    0.5570741891860962,
                    -0.027470478788018227,
                    0.4113723933696747,
                    -0.3487725555896759,
                    0.04820236563682556,
                    1.0305185317993164,
                    0.1924852728843689,
                    0.5210630297660828,
                    0.48005685210227966,
                    -0.6749422550201416,
                    0.29129689931869507,
                    -0.5247814655303955,
                    -0.4239634871482849,
                    -0.6308588981628418,
                    0.39407676458358765,
                    -1.228538155555725,
                    0.7648913264274597,
                    -0.2863715589046478,
                    0.3238982558250427,
                    0.10800209641456604,
                    -0.8553217053413391,
                    -0.4776248633861542,
                    0.7155114412307739,
                    0.29773274064064026,
                    0.31818848848342896,
                    0.31673693656921387,
                    0.9531387686729431,
                    0.6226481199264526,
                    -0.6193762421607971,
                    -0.1927955448627472,
                    -0.7424958944320679,
                    -0.44994428753852844,
                    0.9509910345077515,
                    0.20379075407981873,
                    -0.2794608175754547,
                    0.3812549412250519,
                    0.6930242776870728,
                    -0.3860172629356384,
                    1.0175904035568237,
                    0.1723947823047638,
                    0.19306649267673492,
                    0.1389922946691513,
                    0.07673720270395279,
                    0.07596005499362946,
                    -0.08385518938302994,
                    0.2222955822944641,
                    0.6120088696479797,
                    0.11793124675750732,
                    -0.5942761898040771,
                    -0.43121325969696045,
                    -0.34339144825935364,
                    -0.019702846184372902,
                    -0.601538896560669,
                    -0.15498170256614685,
                    0.25668835639953613,
                    -0.01686687581241131,
                    0.0417444109916687,
                    -0.40332716703414917,
                    -0.2164030224084854,
                    -0.4293781518936157,
                    -0.10237327963113785,
                    0.19511453807353973,
                    -0.16112394630908966,
                    -0.02074764482676983,
                    0.34970250725746155,
                    0.3786032795906067,
                    0.11354788392782211,
                    -0.8959498405456543,
                    0.015331226401031017,
                    0.021216729655861855,
                    -0.7609774470329285,
                    -0.48483362793922424,
                    -0.6588378548622131,
                    0.24973390996456146,
                    -0.08774111419916153,
                    0.20015668869018555,
                    -0.00008376938058063388,
                    -0.008360468782484531,
                    -0.029188193380832672,
                    0.227732852101326,
                    0.9788883924484253,
                    0.12920066714286804,
                    -0.014727015979588032,
                    -0.30942845344543457,
                    -0.4336184859275818,
                    0.15618668496608734,
                    -0.7797064781188965,
                    -0.17758281528949738,
                    -0.7637442946434021,
                    0.1664954274892807,
                    -1.7533516883850098,
                    0.04346070438623428,
                    0.8072961568832397,
                    0.2713693380355835,
                    0.43213585019111633,
                    0.9028581976890564,
                    0.9184157252311707,
                    0.9485718607902527,
                    -1.2864649295806885,
                    0.4540594220161438,
                    -1.095188021659851,
                    0.36606788635253906,
                    -0.053126975893974304,
                    -0.3638962209224701,
                    0.3699185848236084,
                    -0.9834786653518677,
                    -0.34957361221313477,
                    0.21316634118556976,
                    -0.9804527163505554,
                    -0.15046605467796326,
                    0.1020677462220192,
                    0.6463610529899597,
                    -0.3950953185558319,
                    0.7210113406181335,
                    -0.22411297261714935,
                    0.3594597578048706,
                    0.17797240614891052,
                    -0.05445481091737747,
                    0.18719060719013214,
                    0.2919034957885742,
                    1.525030493736267,
                    2.3176791667938232,
                    -0.5776475071907043,
                    -0.6319425702095032,
                    -0.4885532259941101,
                    -0.4572131037712097,
                    -0.1025966927409172,
                    -0.31418514251708984,
                    -1.0314751863479614,
                    0.46262288093566895,
                    0.06639450043439865,
                    0.7532650232315063,
                    0.8264051675796509,
                    -1.0916619300842285,
                    -0.6687752604484558,
                    0.9340196847915649,
                    0.4047669768333435,
                    -0.4287828505039215,
                    0.3757682144641876,
                    0.3724769353866577,
                    -0.24056817591190338,
                    0.3794891834259033,
                    -0.03344251960515976,
                    0.7504759430885315,
                    0.10989507287740707,
                    -0.6293111443519592,
                    0.028109639883041382,
                    -0.2607947289943695,
                    0.2736470401287079,
                    0.276300847530365,
                    -0.1478758454322815,
                    0.8263776302337646,
                    1.0866109132766724,
                    -0.6114258766174316,
                    -0.25141873955726624,
                    -0.5744173526763916,
                    -0.5164322853088379,
                    0.8349527716636658,
                    0.07195181399583817,
                    0.315295934677124,
                    0.3983832001686096,
                    0.6372105479240417,
                    0.1843348890542984,
                    0.3847116529941559,
                    0.0033952833618968725,
                    1.1657369136810303,
                    0.12611864507198334,
                    -0.20692092180252075,
                    0.057915858924388885,
                    0.10947082191705704,
                    -0.20180842280387878,
                    1.1475017070770264,
                    -0.2640707194805145,
                    0.41045162081718445,
                    0.30562832951545715,
                    0.6686524152755737,
                    -0.2153169810771942,
                    0.660592257976532,
                    -0.23240071535110474,
                    0.12413612753152847,
                    0.10559679567813873,
                    0.44880685210227966,
                    0.9658183455467224,
                    -0.07075973600149155,
                    -0.1593368500471115,
                    1.0469413995742798,
                    -0.38699716329574585,
                    0.10678815096616745,
                    -0.35503771901130676,
                    0.40753650665283203,
                    -0.8642082810401917,
                    -0.044480327516794205,
                    -1.0333659648895264,
                    0.38893774151802063,
                    0.03987292945384979,
                    0.32024237513542175,
                    -0.6015140414237976,
                    -0.20942270755767822,
                    -0.3032260835170746,
                    -0.15279093384742737,
                    -0.23633727431297302,
                    0.22029536962509155,
                    -0.3625897169113159,
                    0.35349273681640625,
                    0.5174911618232727,
                    -0.20384366810321808,
                    -0.5769932866096497,
                    -1.0025687217712402,
                    -1.2947721481323242,
                    0.0631151869893074,
                    -1.106034517288208,
                    0.23531050980091095,
                    -0.5873989462852478,
                    0.40156280994415283,
                    0.051752377301454544,
                    0.32901531457901,
                    1.1257505416870117,
                    0.02789093367755413,
                    1.368385910987854,
                    1.281090497970581,
                    0.09608607739210129,
                    1.228299617767334,
                    -0.6739016175270081,
                    -1.0070030689239502,
                    1.3572657108306885,
                    -0.6056199669837952,
                    1.3590755462646484,
                    0.5803704261779785,
                    -1.7451428174972534,
                    0.9703686833381653,
                    0.3470485508441925,
                    0.5456749200820923,
                    0.4034458100795746,
                    -0.8650782108306885,
                    -0.4239428639411926,
                    0.752248227596283,
                    1.1406515836715698,
                    -0.7340302467346191,
                    0.4659697711467743,
                    1.0645074844360352,
                    -0.27050119638442993,
                    0.13383571803569794,
                    0.7710391879081726,
                    0.4598408043384552,
                    0.1342780739068985,
                    1.06684410572052,
                    2.0611469745635986,
                    0.7295660376548767,
                    0.3633313477039337,
                    -0.019987497478723526,
                    0.28990864753723145,
                    -0.10008370876312256,
                    0.6277582049369812,
                    -0.7877758145332336,
                    -0.09685422480106354,
                    -1.1223715543746948,
                    0.3322203457355499,
                    0.8831493258476257,
                    -1.1797454357147217,
                    -0.12537716329097748,
                    0.42193034291267395,
                    0.8777382969856262,
                    -0.110019251704216,
                    1.2734278440475464,
                    0.21770280599594116,
                    0.3299293518066406,
                    -0.2175300419330597,
                    1.4870868921279907,
                    0.14633871614933014,
                    -0.041792433708906174,
                    1.3990211486816406,
                    1.5659397840499878,
                    0.46010822057724,
                    -0.40124237537384033,
                    0.10494208335876465,
                    -0.3656209707260132,
                    0.10515453666448593,
                    0.7680357694625854,
                    -0.4806238114833832,
                    -0.8339512944221497,
                    -1.281538486480713,
                    0.09520559757947922,
                    0.7723788022994995,
                    -0.1621990203857422,
                    0.2037617415189743,
                    0.8791572451591492,
                    1.0405523777008057,
                    0.23312771320343018,
                    1.1371710300445557,
                    0.10637983679771423,
                    -0.1441638171672821,
                    0.22529976069927216,
                    0.0014760518679395318,
                    -0.16561219096183777,
                    -0.562091588973999,
                    -0.12967708706855774,
                    -0.13641765713691711,
                    0.15116342902183533,
                    -0.11941780894994736,
                    0.7067529559135437,
                    -0.33271700143814087,
                    0.5294792056083679,
                    0.25012990832328796,
                    -0.9060290455818176,
                    -0.6595238447189331,
                    -0.4284486174583435,
                    -0.660599946975708,
                    1.2711976766586304,
                    0.13218344748020172,
                    0.04697975143790245,
                    0.7093057632446289,
                    0.9979731440544128,
                    0.1475072056055069,
                    1.2536581754684448,
                    -0.06881877779960632,
                    -0.08877604454755783,
                    0.3340041935443878,
                    0.5736055970191956,
                    0.12428563088178635,
                    -0.16743002831935883,
                    2.133681535720825,
                    0.4982655942440033,
                    -1.1317038536071777,
                    -0.8828899264335632,
                    -1.1951531171798706,
                    -1.22562575340271,
                    0.10701023787260056,
                    -1.3989425897598267,
                    0.5292600989341736,
                    0.7481144666671753,
                    -0.27769577503204346,
                    -0.5434213876724243,
                    -1.237544059753418,
                    -0.13342158496379852,
                    -0.03972584381699562,
                    -1.3751665353775024,
                    1.4343913793563843,
                    -0.28920796513557434,
                    1.109666347503662,
                    0.000026241606974508613,
                    0.7275513410568237,
                    0.21832269430160522,
                    0.3460918664932251,
                    0.674553632736206,
                    0.7700421214103699,
                    -0.04344945773482323,
                    0.49277374148368835,
                    0.8969894647598267,
                    1.2227270603179932,
                    1.2339391708374023,
                    0.9187778234481812,
                    0.3230021893978119,
                    1.2345387935638428,
                    -0.9120577573776245,
                    0.3799162805080414,
                    -0.41619110107421875,
                    -0.39107710123062134,
                    1.0408694744110107,
                    0.616375207901001,
                    0.43862321972846985,
                    0.7808536887168884,
                    -0.469139039516449,
                    0.19278210401535034,
                    -0.026389652863144875,
                    -0.053187113255262375,
                    1.7111434936523438,
                    -0.7385392189025879,
                    -0.7167506814002991,
                    -0.31376487016677856,
                    -0.25767782330513,
                    0.36673805117607117,
                    -0.6822333931922913,
                    0.1655966192483902,
                    0.4464535713195801,
                    0.1251775324344635,
                    0.5168272256851196,
                    -0.7617524266242981,
                    0.051557473838329315,
                    0.24617232382297516,
                    -0.03735075518488884,
                    0.9612753987312317,
                    -0.48571914434432983,
                    -0.03685395047068596,
                    0.23293256759643555,
                    0.47777634859085083,
                    0.21963021159172058,
                    -1.5752240419387817,
                    0.42465871572494507,
                    -1.3864610195159912,
                    -0.33550551533699036
                ]
            },
            "inputHidden": {
                "rows": 20,
                "columns": 20,
                "weights": [
                    1.0919272899627686,
                    1.2657750844955444,
                    0.3538082540035248,
                    0.7172272801399231,
                    -0.8141452074050903,
                    -0.2932586669921875,
                    -1.4881376028060913,
                    0.8263633251190186,
                    -0.3139248192310333,
                    -0.0830216109752655,
                    0.5553783774375916,
                    -0.8293284773826599,
                    -0.6314159631729126,
                    -0.6204930543899536,
                    0.4099186062812805,
                    0.5455372929573059,
                    -0.1182064488530159,
                    -0.5362288951873779,
                    -0.24648045003414154,
                    0.5747907161712646,
                    0.7366809248924255,
                    0.9551352262496948,
                    0.053665198385715485,
                    1.0028935670852661,
                    -0.7025027275085449,
                    0.044095173478126526,
                    -1.2248739004135132,
                    1.0724116563796997,
                    -0.6332975625991821,
                    0.31711044907569885,
                    0.490249365568161,
                    -0.7433154582977295,
                    -0.209694042801857,
                    0.35905444622039795,
                    -0.11519444733858109,
                    0.4176611602306366,
                    0.05000592768192291,
                    -0.29991257190704346,
                    -0.0957455039024353,
                    1.397447943687439,
                    -0.1788419783115387,
                    -0.6200295090675354,
                    0.4625665843486786,
                    0.690552830696106,
                    -0.37150198221206665,
                    -0.33981195092201233,
                    0.1676849126815796,
                    0.2916676700115204,
                    0.6782324910163879,
                    0.3413490056991577,
                    0.3618942201137543,
                    0.6093157529830933,
                    0.7658588290214539,
                    -0.9057247042655945,
                    -0.06994307786226273,
                    0.008274932391941547,
                    -0.44802072644233704,
                    1.6919620037078857,
                    -0.5808194279670715,
                    0.1734190285205841,
                    0.16026054322719574,
                    1.889623761177063,
                    -0.36956337094306946,
                    -0.48692649602890015,
                    0.10668086260557175,
                    1.3176352977752686,
                    -1.6317996978759766,
                    0.9932711124420166,
                    -1.4376941919326782,
                    -1.3825316429138184,
                    0.178754061460495,
                    -2.4928457736968994,
                    0.14380739629268646,
                    0.9873445630073547,
                    -0.08842947334051132,
                    -1.1944210529327393,
                    1.111772060394287,
                    1.5333360433578491,
                    -1.0192686319351196,
                    -0.5159458518028259,
                    1.8622797727584839,
                    0.9472347497940063,
                    -0.19038505852222443,
                    1.5664801597595215,
                    -0.12178970873355865,
                    0.29941269755363464,
                    -0.8153356313705444,
                    0.7954156398773193,
                    -0.707949697971344,
                    -0.4416973292827606,
                    0.5911348462104797,
                    -0.7291146516799927,
                    -0.17129413783550262,
                    -0.15009354054927826,
                    -0.5111546516418457,
                    -0.07796555757522583,
                    0.2870526611804962,
                    -0.9158216118812561,
                    0.010985772125422955,
                    0.30216673016548157,
                    -0.4018702805042267,
                    0.34953704476356506,
                    0.22470541298389435,
                    1.573469877243042,
                    -0.5018482208251953,
                    -0.336854487657547,
                    -0.12499289959669113,
                    0.529186487197876,
                    -0.3056071996688843,
                    0.9355567097663879,
                    0.9109535813331604,
                    -0.25572893023490906,
                    0.0752783790230751,
                    -0.6039196252822876,
                    0.5355085730552673,
                    -0.027960509061813354,
                    -0.7654352188110352,
                    1.8583223819732666,
                    0.41758063435554504,
                    0.22476696968078613,
                    -0.5688578486442566,
                    1.0238693952560425,
                    0.7222514748573303,
                    0.4441937804222107,
                    -3.419750690460205,
                    -0.3773941099643707,
                    -1.0580518245697021,
                    1.9324907064437866,
                    -2.0243215560913086,
                    -0.047595519572496414,
                    0.2722770571708679,
                    -1.901286005973816,
                    0.21219973266124725,
                    -0.20313522219657898,
                    -1.1818420886993408,
                    -0.08626993745565414,
                    -0.23047664761543274,
                    1.986226201057434,
                    -1.3554275035858154,
                    3.422861337661743,
                    0.8572587966918945,
                    0.6245113611221313,
                    -0.06904687732458115,
                    1.349143147468567,
                    0.01021976862102747,
                    0.1254206746816635,
                    -0.3979669511318207,
                    0.6720346212387085,
                    -0.31451165676116943,
                    -0.44240009784698486,
                    0.15337102115154266,
                    -0.2669699788093567,
                    0.048123106360435486,
                    -0.7256880402565002,
                    -0.32456323504447937,
                    0.15912343561649323,
                    0.06413394957780838,
                    -0.42728668451309204,
                    -0.23743905127048492,
                    0.1581670641899109,
                    -1.2149271965026855,
                    -0.49719566106796265,
                    -0.3649270236492157,
                    -1.0773323774337769,
                    1.144405484199524,
                    -0.29777348041534424,
                    0.9904083609580994,
                    -0.44125768542289734,
                    0.2499624341726303,
                    0.5683314800262451,
                    -0.8401620388031006,
                    1.0021941661834717,
                    0.4095645248889923,
                    -0.3429602384567261,
                    -0.03409551829099655,
                    -0.10295477509498596,
                    -0.08698245882987976,
                    -1.7351799011230469,
                    -0.3289352357387543,
                    -0.7799836993217468,
                    0.8486335277557373,
                    0.099538654088974,
                    1.2834833860397339,
                    1.1757341623306274,
                    -1.235363483428955,
                    -1.3010993003845215,
                    -0.038061484694480896,
                    0.4239273965358734,
                    0.5983220934867859,
                    -0.6258143782615662,
                    0.2599138915538788,
                    -0.42648524045944214,
                    -0.031935155391693115,
                    -1.3003445863723755,
                    0.20378877222537994,
                    -0.8547564148902893,
                    -1.1379600763320923,
                    0.09934137761592865,
                    -0.15684141218662262,
                    0.5884363651275635,
                    0.5750902891159058,
                    0.8003610372543335,
                    0.025867177173495293,
                    0.7468703389167786,
                    -0.6432517170906067,
                    -0.34111911058425903,
                    -1.5128477811813354,
                    0.7176902890205383,
                    -2.020589828491211,
                    0.06931398808956146,
                    1.5991013050079346,
                    -1.4180907011032104,
                    -1.8420178890228271,
                    0.6433750987052917,
                    -0.7995914816856384,
                    -0.4949532449245453,
                    0.0005541042773984373,
                    0.5871066451072693,
                    0.013793312013149261,
                    0.7982261180877686,
                    0.5528504848480225,
                    -0.23944827914237976,
                    -0.11116180568933487,
                    0.2533649802207947,
                    -1.2107572555541992,
                    -0.004774527624249458,
                    -0.9713166356086731,
                    1.0748213529586792,
                    -0.8481252193450928,
                    -0.9354013204574585,
                    1.256467342376709,
                    0.5781147480010986,
                    -0.3096177279949188,
                    0.8991869688034058,
                    -0.49958473443984985,
                    -0.022002199664711952,
                    0.009403257630765438,
                    0.14545086026191711,
                    -0.2722194492816925,
                    1.4334250688552856,
                    2.0001158714294434,
                    1.5165284872055054,
                    0.7988725900650024,
                    2.4789602756500244,
                    -1.1404138803482056,
                    -1.3488138914108276,
                    -2.435222864151001,
                    0.9117435812950134,
                    1.228576898574829,
                    1.5915296077728271,
                    0.8847938179969788,
                    -1.045791506767273,
                    0.9658781886100769,
                    0.41840657591819763,
                    1.483305811882019,
                    0.7983458638191223,
                    -1.0022114515304565,
                    -1.9208687543869019,
                    -0.7861594557762146,
                    1.292973518371582,
                    -0.586937427520752,
                    0.13843902945518494,
                    1.2992085218429565,
                    -0.5888102650642395,
                    0.09410398453474045,
                    -1.4796415567398071,
                    0.009445399045944214,
                    -0.03394691273570061,
                    0.5015687942504883,
                    2.0688259601593018,
                    0.04143090173602104,
                    0.10247061401605606,
                    -0.8658583164215088,
                    -1.3057186603546143,
                    1.7726075649261475,
                    1.495083212852478,
                    -0.7142418026924133,
                    1.2245930433273315,
                    1.0247483253479004,
                    -1.4311397075653076,
                    0.7363993525505066,
                    -0.008752251975238323,
                    0.03463751822710037,
                    0.022234240546822548,
                    0.4442622661590576,
                    -0.4990888833999634,
                    0.22024039924144745,
                    -0.26944875717163086,
                    -0.2652081549167633,
                    -0.8418604135513306,
                    0.035385530441999435,
                    0.46453362703323364,
                    -0.4246821999549866,
                    0.06834288686513901,
                    2.292510509490967,
                    -0.6684362888336182,
                    -1.3473232984542847,
                    0.761144757270813,
                    -0.24131502211093903,
                    -0.5541867613792419,
                    0.25306951999664307,
                    -0.09072896838188171,
                    -0.1391165405511856,
                    -0.5380937457084656,
                    0.7893908619880676,
                    0.0617062970995903,
                    0.5775212049484253,
                    -0.5072672367095947,
                    -0.11248236894607544,
                    0.15405511856079102,
                    0.11638201773166656,
                    0.03886286914348602,
                    -0.38297900557518005,
                    0.2780229449272156,
                    0.01378412451595068,
                    -0.24091511964797974,
                    -0.20804481208324432,
                    1.2914412021636963,
                    0.2041867971420288,
                    -0.4439684748649597,
                    -0.32511430978775024,
                    0.04013674706220627,
                    0.16119785606861115,
                    2.1895864009857178,
                    -0.9008194804191589,
                    -0.23839281499385834,
                    0.12159352749586105,
                    1.4654264450073242,
                    0.8160443902015686,
                    0.3234151005744934,
                    0.9145327806472778,
                    0.0643315538764,
                    0.36410385370254517,
                    -0.7976579070091248,
                    -0.6771471500396729,
                    -0.8467851877212524,
                    -0.6976922750473022,
                    2.431206703186035,
                    -0.1964685171842575,
                    0.3297203481197357,
                    -0.3726577162742615,
                    1.2724663019180298,
                    -0.4894636571407318,
                    -0.4847598671913147,
                    -0.4473188817501068,
                    -0.7054265737533569,
                    -1.0004390478134155,
                    0.3909703195095062,
                    -1.836207389831543,
                    -1.2832653522491455,
                    1.5741009712219238,
                    -1.0291447639465332,
                    -1.1728273630142212,
                    1.1957446336746216,
                    -2.230808734893799,
                    -0.6937037110328674,
                    -0.33031368255615234,
                    0.46175894141197205,
                    0.5797953009605408,
                    0.40358632802963257,
                    1.3865162134170532,
                    -0.7610452771186829,
                    0.29723647236824036,
                    1.5816259384155273,
                    -0.0636097714304924,
                    -0.4811588227748871,
                    0.21402020752429962,
                    -0.03696850314736366,
                    -0.5856561064720154,
                    0.008244790136814117,
                    -0.5488379001617432,
                    1.0666474103927612,
                    -1.4045727252960205,
                    -1.7118359804153442,
                    -0.9546654224395752,
                    0.04647243395447731,
                    -0.603215217590332,
                    -1.1704963445663452,
                    -1.7051424980163574,
                    0.26339131593704224,
                    0.856005072593689,
                    -0.13512985408306122,
                    -0.0699625164270401,
                    1.1137202978134155,
                    -0.45399340987205505,
                    0.011814970523118973,
                    0.2720310091972351,
                    0.0719267874956131,
                    -0.820909857749939,
                    -0.6443428993225098,
                    -0.4398123025894165,
                    0.2803690433502197,
                    -0.7800073623657227,
                    -0.1994890570640564,
                    -1.2057682275772095,
                    -0.3786187171936035,
                    -0.002226397395133972,
                    -0.7302924394607544,
                    -0.5168745517730713,
                    0.6889720559120178
                ]
            },
            "inputBias": {
                "rows": 20,
                "columns": 1,
                "weights": [
                    -0.29436567425727844,
                    -0.008409042842686176,
                    -0.144087016582489,
                    0.15535330772399902,
                    0.8101598024368286,
                    -0.22723184525966644,
                    -0.6841197609901428,
                    0.5049002766609192,
                    -0.6302477717399597,
                    -0.5163095593452454,
                    1.0704809427261353,
                    -0.018981408327817917,
                    0.006319218780845404,
                    -1.0191093683242798,
                    -0.8002902269363403,
                    -0.6643161773681641,
                    -0.45024698972702026,
                    -0.5481632351875305,
                    1.086725115776062,
                    1.2066664695739746
                ]
            },
            "forgetMatrix": {
                "rows": 20,
                "columns": 25,
                "weights": [
                    1.35750150680542,
                    -1.1762584447860718,
                    0.76500403881073,
                    -1.3599578142166138,
                    -1.0907385349273682,
                    1.269985318183899,
                    0.43627145886421204,
                    -1.1269680261611938,
                    0.11073562502861023,
                    -0.3024856746196747,
                    0.05671635642647743,
                    -1.9914287328720093,
                    -0.5491414666175842,
                    0.32206621766090393,
                    -0.307978093624115,
                    -0.04349526762962341,
                    -0.4725361466407776,
                    0.22480137646198273,
                    0.52205890417099,
                    0.630760669708252,
                    0.2851370573043823,
                    0.23895496129989624,
                    0.4035714864730835,
                    0.2957732081413269,
                    -0.4657094180583954,
                    0.11299304664134979,
                    -0.7944756150245667,
                    0.37639227509498596,
                    -0.1757807433605194,
                    -0.36060744524002075,
                    0.5883730053901672,
                    0.3014034926891327,
                    -0.9022285342216492,
                    -0.4616946876049042,
                    -0.160239115357399,
                    -0.3386543095111847,
                    -0.37466076016426086,
                    -0.19997191429138184,
                    -0.04455861449241638,
                    -0.20509861409664154,
                    -0.6609102487564087,
                    -0.9723369479179382,
                    -0.4029814898967743,
                    0.791462242603302,
                    0.29160091280937195,
                    -0.2985256016254425,
                    -0.594756007194519,
                    -0.20867063105106354,
                    -0.7825138568878174,
                    -0.19128845632076263,
                    -1.0917373895645142,
                    0.1347743272781372,
                    0.41932037472724915,
                    0.2619636356830597,
                    -0.11036534607410431,
                    1.1197576522827148,
                    0.45537829399108887,
                    1.0917224884033203,
                    -0.556061327457428,
                    0.3271576464176178,
                    -0.3915577530860901,
                    0.22583839297294617,
                    0.123902827501297,
                    -0.21385930478572845,
                    -0.02304130233824253,
                    -0.8997122049331665,
                    0.31774306297302246,
                    0.2761192321777344,
                    0.28583580255508423,
                    -0.4269148111343384,
                    0.09176892787218094,
                    0.8451111912727356,
                    -0.261868953704834,
                    0.8282764554023743,
                    0.20879898965358734,
                    0.5115106105804443,
                    -1.6831884384155273,
                    0.3424941897392273,
                    -0.8981930017471313,
                    -0.4117604196071625,
                    0.529262125492096,
                    0.9252579212188721,
                    -0.10590798407793045,
                    -1.0765846967697144,
                    0.2291782647371292,
                    -0.7346639037132263,
                    -0.9896610379219055,
                    0.21445435285568237,
                    -0.8702880144119263,
                    -1.115639090538025,
                    -0.8701425194740295,
                    -0.5234963893890381,
                    0.3519742786884308,
                    0.09960565716028214,
                    0.732137143611908,
                    0.8319053053855896,
                    0.1744341254234314,
                    0.6711199879646301,
                    -0.32327350974082947,
                    -0.42580100893974304,
                    0.8549036383628845,
                    -0.6566326022148132,
                    0.04325618967413902,
                    -0.3873606026172638,
                    -0.09368552267551422,
                    -0.11703228950500488,
                    0.3879956305027008,
                    -0.297981321811676,
                    0.4614708125591278,
                    -0.29290643334388733,
                    0.39669328927993774,
                    -0.07551784813404083,
                    -0.0610419325530529,
                    -0.01348366029560566,
                    -0.5635293126106262,
                    -0.291521817445755,
                    0.026821982115507126,
                    0.08140401542186737,
                    0.5268867611885071,
                    0.14563991129398346,
                    0.22343505918979645,
                    -1.0932682752609253,
                    0.35909712314605713,
                    -1.1414086818695068,
                    -0.12735764682292938,
                    0.5495012998580933,
                    0.08122315257787704,
                    0.6044695377349854,
                    -0.054378435015678406,
                    -0.25265762209892273,
                    1.8290250301361084,
                    0.4683365225791931,
                    -0.1583826094865799,
                    -0.20934973657131195,
                    -0.7344816327095032,
                    0.32771483063697815,
                    -0.5368703603744507,
                    -0.1411847025156021,
                    -0.24802111089229584,
                    -0.5932222604751587,
                    -0.6089032888412476,
                    0.826873779296875,
                    0.5460593700408936,
                    -0.080938421189785,
                    -0.7959878444671631,
                    0.3145899474620819,
                    -0.06493952125310898,
                    -0.31294259428977966,
                    -0.19840356707572937,
                    0.42985135316848755,
                    0.3876543343067169,
                    -0.8950887322425842,
                    0.7196395993232727,
                    -0.021469367668032646,
                    -0.20326359570026398,
                    0.12107189744710922,
                    0.3830181956291199,
                    -0.19785228371620178,
                    -0.09836048632860184,
                    0.028168639168143272,
                    0.1872057318687439,
                    -0.42465290427207947,
                    0.33149319887161255,
                    -0.32718169689178467,
                    -1.3890492916107178,
                    -1.580939531326294,
                    -1.2798534631729126,
                    0.2708134949207306,
                    0.29479512572288513,
                    0.8221322894096375,
                    0.23614071309566498,
                    0.13385537266731262,
                    0.43804529309272766,
                    0.22424250841140747,
                    -0.19489409029483795,
                    0.1357567459344864,
                    -0.44577503204345703,
                    0.4869682788848877,
                    -0.09269310534000397,
                    -0.10086680203676224,
                    -0.014165188185870647,
                    0.24548490345478058,
                    -0.43246811628341675,
                    -0.5308434963226318,
                    -0.5311476588249207,
                    -0.4531419277191162,
                    0.3562398850917816,
                    -0.050502959638834,
                    -0.4748041331768036,
                    -0.577006459236145,
                    -0.1598600447177887,
                    -1.3344409465789795,
                    -0.21688814461231232,
                    0.873613178730011,
                    0.7384965419769287,
                    -0.5793496966362,
                    -0.1695462465286255,
                    0.3947758674621582,
                    -0.20601508021354675,
                    -0.7401341199874878,
                    -0.28386062383651733,
                    1.0186796188354492,
                    -0.09781328588724136,
                    0.7983486652374268,
                    0.6877926588058472,
                    -0.42187175154685974,
                    1.0082147121429443,
                    0.03648786619305611,
                    0.6758573055267334,
                    0.19967743754386902,
                    1.4083776473999023,
                    1.000024437904358,
                    0.21152804791927338,
                    -0.5147363543510437,
                    0.764424204826355,
                    0.28953817486763,
                    0.5647045373916626,
                    0.20800316333770752,
                    0.04994034022092819,
                    -0.6910912990570068,
                    -0.4047556221485138,
                    -0.05995761230587959,
                    -0.7859318256378174,
                    -0.021188076585531235,
                    0.8728063702583313,
                    -0.6337102055549622,
                    -0.25688207149505615,
                    -0.167964369058609,
                    -1.0055158138275146,
                    -0.37921255826950073,
                    0.8329578638076782,
                    0.005032106302678585,
                    0.038286883383989334,
                    -0.9966930747032166,
                    -0.7218514084815979,
                    -0.7698936462402344,
                    -0.5555699467658997,
                    -0.672366738319397,
                    0.2596895694732666,
                    0.34543392062187195,
                    -0.1479884535074234,
                    0.48375895619392395,
                    -0.3243104815483093,
                    -1.160589575767517,
                    -0.0030668764375150204,
                    -0.45642969012260437,
                    0.3032309412956238,
                    -0.11801618337631226,
                    0.536178469657898,
                    -0.645702600479126,
                    -0.45983099937438965,
                    -0.9891297221183777,
                    -0.9338923692703247,
                    -0.9870334267616272,
                    -0.8209245800971985,
                    -0.42267489433288574,
                    -1.082101821899414,
                    0.45619451999664307,
                    0.016409603878855705,
                    0.8041078448295593,
                    -0.561134397983551,
                    -0.21899473667144775,
                    0.05413033068180084,
                    1.3316258192062378,
                    -0.06130959466099739,
                    1.0753469467163086,
                    -1.994025707244873,
                    -1.2720270156860352,
                    0.18830007314682007,
                    1.0338267087936401,
                    -1.2157173156738281,
                    -0.7444597482681274,
                    0.6242744326591492,
                    -1.0958491563796997,
                    -1.4106109142303467,
                    0.8776914477348328,
                    -0.755719006061554,
                    0.25620952248573303,
                    -0.14514398574829102,
                    -0.3164651393890381,
                    0.08588770776987076,
                    0.5055975914001465,
                    0.9127030968666077,
                    0.3920222222805023,
                    0.9586672782897949,
                    0.45088526606559753,
                    -0.7369179725646973,
                    0.40692612528800964,
                    0.054416630417108536,
                    -1.3116315603256226,
                    -0.3270677328109741,
                    -0.42777758836746216,
                    0.5481942892074585,
                    0.24452288448810577,
                    0.14324644207954407,
                    0.6694031953811646,
                    -0.46280136704444885,
                    0.5592647194862366,
                    -0.6314923167228699,
                    -0.21339808404445648,
                    -0.36365535855293274,
                    -0.06477917730808258,
                    -0.215890571475029,
                    -0.3502871096134186,
                    -0.27018672227859497,
                    -1.2987854480743408,
                    -0.38702791929244995,
                    1.0739936828613281,
                    0.959447979927063,
                    0.5822540521621704,
                    1.228725552558899,
                    -0.030147960409522057,
                    0.9093021750450134,
                    -0.06103851646184921,
                    -0.20206822454929352,
                    0.4486408829689026,
                    -1.2937089204788208,
                    -0.06524301320314407,
                    0.9585681557655334,
                    1.389925479888916,
                    0.009326236322522163,
                    -1.3381118774414062,
                    0.2339520901441574,
                    -0.9373654723167419,
                    0.2129329890012741,
                    0.06607146561145782,
                    -0.4766583740711212,
                    -0.7579866051673889,
                    -0.917485237121582,
                    -1.1594570875167847,
                    -0.8626179099082947,
                    -0.6307443976402283,
                    -0.1172170415520668,
                    1.0230768918991089,
                    0.31138670444488525,
                    0.5941029787063599,
                    -0.7597671747207642,
                    0.23530597984790802,
                    0.6282711625099182,
                    -1.3147386312484741,
                    1.306200385093689,
                    0.1187281459569931,
                    0.6206018328666687,
                    0.27240505814552307,
                    -0.05602879822254181,
                    0.18821550905704498,
                    -0.9013692736625671,
                    0.7597449421882629,
                    -0.6365854740142822,
                    -0.9233771562576294,
                    0.11605758965015411,
                    0.06331969797611237,
                    -0.6242557168006897,
                    0.19009973108768463,
                    -0.11137857288122177,
                    -1.47006094455719,
                    -1.3684659004211426,
                    0.5396802425384521,
                    0.3114757239818573,
                    0.4791557192802429,
                    0.6835465431213379,
                    0.36829453706741333,
                    1.0019723176956177,
                    -0.15458886325359344,
                    -0.055116042494773865,
                    -0.4417928159236908,
                    -0.22422733902931213,
                    0.957359254360199,
                    -0.6263495683670044,
                    -0.06738785654306412,
                    0.7530067563056946,
                    -0.5059683918952942,
                    -0.31448763608932495,
                    -0.15291061997413635,
                    0.2604992389678955,
                    -1.3161112070083618,
                    0.867203950881958,
                    -0.0552179329097271,
                    -0.13953299820423126,
                    -0.36604395508766174,
                    0.6958194971084595,
                    0.3480225205421448,
                    0.9843915104866028,
                    -0.8189964294433594,
                    -0.5939326882362366,
                    -0.6435154676437378,
                    0.29565271735191345,
                    0.23058409988880157,
                    -0.5927798748016357,
                    -0.16685496270656586,
                    -0.7902347445487976,
                    0.7834237217903137,
                    0.4297245144844055,
                    -0.03731309249997139,
                    -0.8258514404296875,
                    0.248748779296875,
                    1.1545190811157227,
                    -0.7634080052375793,
                    0.8846645355224609,
                    0.659911572933197,
                    -0.45822781324386597,
                    -0.6950086355209351,
                    0.568781316280365,
                    -0.24470216035842896,
                    0.14054818451404572,
                    1.870326042175293,
                    0.5249070525169373,
                    0.7520048022270203,
                    -1.2194263935089111,
                    0.2338055819272995,
                    -0.9130384922027588,
                    -0.4601452946662903,
                    0.4214159846305847,
                    -0.7130721807479858,
                    -0.642711341381073,
                    -1.220155119895935,
                    0.29617270827293396,
                    0.19951385259628296,
                    -0.1347687989473343,
                    0.12791649997234344,
                    0.23880743980407715,
                    0.7609307765960693,
                    0.4872424304485321,
                    0.618499219417572,
                    -0.13468939065933228,
                    0.06433837860822678,
                    -0.6096357703208923,
                    0.5179662704467773,
                    0.2851332426071167,
                    0.2579450309276581,
                    -1.7251546382904053,
                    -0.6807236671447754,
                    0.4881473481655121,
                    0.3717651665210724,
                    0.2200614959001541,
                    0.5373601317405701,
                    0.5680010914802551,
                    0.8935146927833557,
                    0.18762989342212677,
                    -0.6493440866470337,
                    -0.22427159547805786,
                    -0.1165480762720108,
                    -0.4220227897167206,
                    0.8330665230751038,
                    0.4147399663925171,
                    -0.1969418078660965,
                    -0.22925947606563568,
                    0.4892565608024597,
                    -0.4074615240097046,
                    0.6045761704444885,
                    0.07396405935287476,
                    0.7793467044830322,
                    -1.460661768913269,
                    -0.18305662274360657,
                    -0.4244300127029419,
                    -0.48804640769958496,
                    -1.5492368936538696,
                    -0.7044966220855713,
                    0.21173807978630066,
                    0.9444789886474609,
                    0.6085383296012878,
                    0.23827216029167175,
                    -0.11059512943029404,
                    0.9460055232048035,
                    0.4800100326538086,
                    1.4883257150650024,
                    1.0333130359649658,
                    -1.1857537031173706,
                    -0.5096395015716553,
                    -0.930901288986206,
                    -1.6141366958618164,
                    -0.3893376588821411,
                    -0.8017666339874268,
                    -0.6856970191001892,
                    0.17058299481868744,
                    -0.07425153255462646,
                    -0.2258959859609604,
                    0.9522923827171326,
                    0.42169252038002014,
                    0.5555548071861267,
                    0.29233232140541077,
                    0.04778287559747696,
                    0.8136410117149353,
                    0.0739142969250679,
                    0.09805937111377716,
                    0.1580754965543747,
                    0.5960538387298584,
                    0.13676004111766815,
                    -0.915461540222168,
                    -0.30242544412612915,
                    -0.5838544964790344,
                    -0.6870135068893433,
                    0.38272061944007874,
                    1.2180253267288208,
                    0.5280940532684326,
                    0.26882484555244446,
                    -0.567376971244812,
                    0.0379563644528389,
                    -0.49735569953918457,
                    0.23056042194366455
                ]
            },
            "forgetHidden": {
                "rows": 20,
                "columns": 20,
                "weights": [
                    -0.32003605365753174,
                    -0.33910682797431946,
                    -1.1144541501998901,
                    -1.0136750936508179,
                    0.07224522531032562,
                    1.5350534915924072,
                    0.07085010409355164,
                    0.43696144223213196,
                    -0.4178365170955658,
                    -0.07551062852144241,
                    0.5162105560302734,
                    0.7959520816802979,
                    0.30702486634254456,
                    0.4147815704345703,
                    -0.8583775162696838,
                    -1.2167457342147827,
                    1.0585986375808716,
                    -0.2556919753551483,
                    0.4879883825778961,
                    -0.017169438302516937,
                    -0.708310067653656,
                    0.17755289375782013,
                    -0.9522588849067688,
                    -1.031441330909729,
                    0.31712913513183594,
                    1.1765003204345703,
                    -0.5136922001838684,
                    -0.34346911311149597,
                    -1.1273963451385498,
                    0.015427706763148308,
                    1.1193517446517944,
                    -0.6411183476448059,
                    -0.8215188384056091,
                    2.1816604137420654,
                    -0.7827654480934143,
                    -0.1492849737405777,
                    0.9863757491111755,
                    -1.0974446535110474,
                    0.978064775466919,
                    -0.7994548082351685,
                    -0.5556676387786865,
                    -0.28540322184562683,
                    -0.13018222153186798,
                    -0.7028406858444214,
                    -0.09012313932180405,
                    0.02305392362177372,
                    0.1372346132993698,
                    0.3094029426574707,
                    0.5026594996452332,
                    0.3606175184249878,
                    -0.005128702614456415,
                    0.3763462007045746,
                    0.3308081328868866,
                    -0.7284064292907715,
                    0.8707102537155151,
                    0.04099102318286896,
                    0.08825109899044037,
                    0.9238439798355103,
                    0.07689836621284485,
                    0.06772869825363159,
                    -1.2536859512329102,
                    -1.1290276050567627,
                    -0.874944806098938,
                    0.06510356813669205,
                    1.0104832649230957,
                    1.3242963552474976,
                    1.0699187517166138,
                    -0.6846041083335876,
                    0.6975338459014893,
                    -0.09997229278087616,
                    -0.050401121377944946,
                    1.8911678791046143,
                    0.09504800289869308,
                    -0.7271778583526611,
                    -0.0776076391339302,
                    -0.3530171513557434,
                    0.544689953327179,
                    -1.9983876943588257,
                    0.9012563824653625,
                    -1.1515449285507202,
                    1.1506768465042114,
                    0.3950137794017792,
                    0.041798852384090424,
                    0.5839172005653381,
                    -0.6067333221435547,
                    -0.06995784491300583,
                    -0.4235350787639618,
                    0.254128634929657,
                    -1.413809061050415,
                    -0.46481794118881226,
                    0.30513912439346313,
                    -0.4964049458503723,
                    -1.8658310174942017,
                    0.49391621351242065,
                    -0.20189066231250763,
                    0.07304446399211884,
                    0.008852717466652393,
                    -1.2495110034942627,
                    -1.3068534135818481,
                    0.7074034214019775,
                    1.2197705507278442,
                    -0.15535913407802582,
                    -0.25884512066841125,
                    -0.24781620502471924,
                    -1.569921851158142,
                    0.05952541157603264,
                    -1.0016125440597534,
                    1.4359664916992188,
                    0.972817063331604,
                    0.86011803150177,
                    1.4578405618667603,
                    -0.10897146910429001,
                    1.3871991634368896,
                    -1.2795363664627075,
                    0.04976606369018555,
                    -0.5793573260307312,
                    -0.10023621469736099,
                    0.04357834905385971,
                    -1.64826500415802,
                    1.0798331499099731,
                    -0.6274633407592773,
                    0.20489996671676636,
                    -1.0925748348236084,
                    -2.378922462463379,
                    -0.7544165849685669,
                    0.8819374442100525,
                    -1.109287977218628,
                    0.316011518239975,
                    -0.652240514755249,
                    -0.6975208520889282,
                    0.3022284507751465,
                    0.360903263092041,
                    -0.7961472272872925,
                    1.6293556690216064,
                    -0.6986035108566284,
                    -0.897320568561554,
                    0.8927626013755798,
                    -2.762458324432373,
                    -0.4422456920146942,
                    0.40664657950401306,
                    1.1566351652145386,
                    0.4051097631454468,
                    0.2883727252483368,
                    0.1688852608203888,
                    -0.7486913800239563,
                    0.4845099449157715,
                    -0.3822977840900421,
                    0.8595688939094543,
                    -0.12249056994915009,
                    -0.342002809047699,
                    0.31147128343582153,
                    -0.43002083897590637,
                    -0.3827393651008606,
                    1.6530476808547974,
                    -0.8763331770896912,
                    -0.0904923751950264,
                    -0.197882279753685,
                    -0.6619510650634766,
                    -1.1895325183868408,
                    1.2651017904281616,
                    -0.49106115102767944,
                    0.052141223102808,
                    0.5280768275260925,
                    -0.6615896224975586,
                    0.38334742188453674,
                    -0.6642962098121643,
                    -0.17555557191371918,
                    -0.261594295501709,
                    -0.0628240704536438,
                    0.27368485927581787,
                    -0.5110960006713867,
                    -0.07023871690034866,
                    0.28205427527427673,
                    -0.03897238150238991,
                    0.25252050161361694,
                    0.26424041390419006,
                    -0.5621969699859619,
                    0.035660892724990845,
                    0.43078234791755676,
                    -0.038627251982688904,
                    -1.1878718137741089,
                    -1.2584280967712402,
                    1.0095508098602295,
                    -0.18773646652698517,
                    0.8371598124504089,
                    -0.9932445883750916,
                    1.5423362255096436,
                    -1.0174838304519653,
                    0.6621662378311157,
                    0.1332150101661682,
                    -1.407693862915039,
                    1.0843144655227661,
                    -0.5353538990020752,
                    -1.1676234006881714,
                    0.26377490162849426,
                    0.18709199130535126,
                    -1.0774898529052734,
                    1.2583822011947632,
                    1.5740036964416504,
                    -1.0123564004898071,
                    0.46217238903045654,
                    0.3336627781391144,
                    0.10692369192838669,
                    0.13146038353443146,
                    -1.0394012928009033,
                    -2.184659481048584,
                    -0.3715333938598633,
                    0.43824303150177,
                    0.38304799795150757,
                    0.40584006905555725,
                    0.33440688252449036,
                    0.10771278291940689,
                    -0.19742439687252045,
                    -0.7337232828140259,
                    0.017365314066410065,
                    0.7860669493675232,
                    -0.5761956572532654,
                    -0.17796552181243896,
                    0.37252500653266907,
                    0.47751855850219727,
                    0.45368218421936035,
                    0.7688996195793152,
                    -0.13164223730564117,
                    0.5264278650283813,
                    -0.29260072112083435,
                    0.2833516597747803,
                    -0.7726048827171326,
                    0.39098042249679565,
                    -0.02808701992034912,
                    -0.3663307726383209,
                    0.738574206829071,
                    -0.6634355783462524,
                    0.09933628141880035,
                    0.7335398197174072,
                    -0.24784211814403534,
                    -0.1711873859167099,
                    0.19077864289283752,
                    0.35959383845329285,
                    0.0518467053771019,
                    0.46147358417510986,
                    -0.46908238530158997,
                    -0.5607826709747314,
                    0.39694932103157043,
                    1.2192165851593018,
                    1.9987823963165283,
                    -0.09604785591363907,
                    -0.6540756821632385,
                    -2.561537504196167,
                    1.2970925569534302,
                    1.0488057136535645,
                    -0.9948877692222595,
                    0.3610292077064514,
                    0.1676771640777588,
                    -1.2095118761062622,
                    1.674485206604004,
                    0.31926292181015015,
                    1.369836688041687,
                    0.4011230170726776,
                    0.7348430156707764,
                    -1.1347519159317017,
                    -0.18074184656143188,
                    -0.30253395438194275,
                    1.123600959777832,
                    -0.4420602023601532,
                    -0.4395154118537903,
                    -1.2124478816986084,
                    0.6245530843734741,
                    -0.31388169527053833,
                    0.8656659126281738,
                    0.628510594367981,
                    -0.48768743872642517,
                    0.4613955318927765,
                    0.6740010380744934,
                    -0.8984702229499817,
                    -0.05667737126350403,
                    1.0906108617782593,
                    -1.2041484117507935,
                    1.1337398290634155,
                    0.34631529450416565,
                    0.14014646410942078,
                    -3.032989025115967,
                    0.33339619636535645,
                    0.4204959273338318,
                    -0.7328487038612366,
                    2.3730719089508057,
                    -0.2277970016002655,
                    1.3558673858642578,
                    1.2596971988677979,
                    0.17904482781887054,
                    -0.2944844663143158,
                    0.07979029417037964,
                    -0.0814947858452797,
                    0.5703843235969543,
                    0.049339428544044495,
                    -0.32369720935821533,
                    0.24860158562660217,
                    -0.6537431478500366,
                    0.5198079943656921,
                    0.8049838542938232,
                    -0.08397386223077774,
                    -0.9768970012664795,
                    -0.2711341381072998,
                    -0.07995136082172394,
                    -0.5352827906608582,
                    0.16504766047000885,
                    0.03411225974559784,
                    0.2637355327606201,
                    -0.10934537649154663,
                    -0.3019177317619324,
                    0.29132407903671265,
                    0.19112488627433777,
                    0.125919908285141,
                    0.33249905705451965,
                    -0.23781147599220276,
                    0.2213393747806549,
                    0.17316551506519318,
                    0.12347391992807388,
                    0.01423276960849762,
                    0.07241377979516983,
                    -0.20258741080760956,
                    0.3865903615951538,
                    -0.02330498769879341,
                    0.017009686678647995,
                    -0.7829474210739136,
                    0.13720883429050446,
                    0.07123483717441559,
                    0.3161657452583313,
                    -0.22376421093940735,
                    0.17627453804016113,
                    0.3656166195869446,
                    -0.41933533549308777,
                    0.09890437126159668,
                    -0.24189239740371704,
                    -0.7030500173568726,
                    0.5176437497138977,
                    -1.0153688192367554,
                    0.1764344424009323,
                    0.9362050294876099,
                    -0.586951732635498,
                    -0.12302403897047043,
                    -0.3048586845397949,
                    0.3735498785972595,
                    -0.23933106660842896,
                    0.23511183261871338,
                    -1.9647421836853027,
                    0.6228787302970886,
                    -0.38947418332099915,
                    1.8456746339797974,
                    1.541103720664978,
                    1.2878395318984985,
                    1.0876169204711914,
                    -0.565509021282196,
                    2.4454619884490967,
                    -1.1694649457931519,
                    0.7311431765556335,
                    -0.36410245299339294,
                    0.273685485124588,
                    0.35677027702331543,
                    -1.8679076433181763,
                    2.1554532051086426,
                    0.03670964762568474,
                    0.793313205242157,
                    0.5128888487815857,
                    -0.23747777938842773,
                    -1.2580196857452393,
                    -0.456579327583313,
                    -0.8331508636474609,
                    0.6651991009712219,
                    -0.10806030035018921,
                    -0.06299317628145218,
                    0.5420413613319397,
                    -0.8816354870796204,
                    -0.5525146126747131,
                    0.43073949217796326,
                    0.6827919483184814,
                    0.7577456831932068,
                    -0.1673116534948349,
                    -1.280712366104126,
                    -0.35310983657836914,
                    0.865680456161499,
                    0.9671419858932495,
                    0.8489132523536682,
                    0.43734487891197205,
                    1.2469662427902222,
                    -1.0007768869400024,
                    -0.6753236651420593,
                    -0.7621460556983948,
                    1.0444284677505493,
                    -0.449442058801651,
                    0.074013851583004,
                    0.8051092028617859,
                    -1.0974212884902954,
                    -0.7807096838951111,
                    0.35493937134742737,
                    0.0848752111196518,
                    0.5967557430267334,
                    -0.1665884256362915,
                    -0.769504964351654,
                    -1.0149496793746948,
                    1.2190583944320679
                ]
            },
            "forgetBias": {
                "rows": 20,
                "columns": 1,
                "weights": [
                    0,
                    0,
                    0,
                    0,
                    0,
                    0,
                    0,
                    0,
                    0,
                    0,
                    0,
                    0,
                    0,
                    0,
                    0,
                    0,
                    0,
                    0,
                    0,
                    0
                ]
            },
