{
    "type": "NeuralNetwork",
    "sizes": [
        56,
        8,
        8,
        10
    ],
    "layers": [
        {
            "weights": [],
            "biases": []
        },
        {
            "weights": [
                [
                    -1.224960207939148,
                    -0.7801769971847534,
                    -0.04096180945634842,
                    0.9101801514625549,
                    0.15681840479373932,
                    -1.393113613128662,
                    0.40174075961112976,
                    -0.7978721261024475,
                    -0.013925010338425636,
                    -0.3001682460308075,
                    0.20480096340179443,
                    -0.06649328768253326,
                    -0.014342037960886955,
                    0.09160061180591583,
                    -0.594216525554657,
                    0.26243066787719727,
                    1.0994285345077515,
                    0.3142622411251068,
                    0.29191577434539795,
                    -0.5461066961288452,
                    0.2794283628463745,
                    -0.3324190080165863,
                    0.4659729301929474,
                    -1.0311825275421143,
                    -0.25041142106056213,
                    0.4694107174873352,
                    0.19590312242507935,
                    -0.18594372272491455,
                    -0.4627814292907715,
                    -0.18052908778190613,
                    -0.07194773852825165,
                    -0.26833561062812805,
                    -1.4373986721038818,
                    0.12427569925785065,
                    0.17300297319889069,
                    -0.46550557017326355,
                    0.7712106704711914,
                    0.059868309646844864,
                    0.5190702676773071,
                    0.16658532619476318,
                    -0.8017867207527161,
                    -0.23921546339988708,
                    -1.1344592571258545,
                    -0.2104162722826004,
                    -0.6078359484672546,
                    1.522784948348999,
                    -0.022176695987582207,
                    0.836535632610321,
                    -0.5054558515548706,
                    0.482937753200531,
                    -0.3484104871749878,
                    1.1026372909545898,
                    0.6054014563560486,
                    0.06708705425262451,
                    0.3281497657299042,
                    0.06357304751873016
                ],
                [
                    1.6683149337768555,
                    0.9847044944763184,
                    0.0687345564365387,
                    0.06971476227045059,
                    -0.11615246534347534,
                    -0.4059547185897827,
                    -1.4104180335998535,
                    0.7047760486602783,
                    -0.018070969730615616,
                    -0.2468203455209732,
                    -0.6841578483581543,
                    -0.4577559232711792,
                    -0.143853098154068,
                    0.3309244215488434,
                    0.7102316617965698,
                    0.08563880622386932,
                    0.1272876262664795,
                    -0.061984602361917496,
                    -0.15408211946487427,
                    1.2869726419448853,
                    -0.027571363374590874,
                    0.14144864678382874,
                    0.2651887536048889,
                    0.6712163686752319,
                    -0.528512716293335,
                    0.14155490696430206,
                    0.6866487860679626,
                    0.6151605844497681,
                    0.5231823325157166,
                    0.13463054597377777,
                    -0.06539379060268402,
                    -0.7736020684242249,
                    -1.0964502096176147,
                    0.050275951623916626,
                    -1.5370144844055176,
                    0.37190622091293335,
                    -1.8854565620422363,
                    -0.058445800095796585,
                    0.011747833341360092,
                    0.039534248411655426,
                    0.6398881077766418,
                    -0.1016918420791626,
                    1.9619596004486084,
                    0.554262101650238,
                    0.6777276396751404,
                    -0.5723565816879272,
                    -0.24315471947193146,
                    -1.0460457801818848,
                    0.108629010617733,
                    -0.04903291538357735,
                    0.1381830871105194,
                    0.45880448818206787,
                    -0.7220517992973328,
                    -0.49940410256385803,
                    0.16563235223293304,
                    0.11955834180116653
                ],
                [
                    1.2875862121582031,
                    0.5762937068939209,
                    -0.7721306681632996,
                    -0.305709570646286,
                    0.10716121643781662,
                    0.9647774696350098,
                    -1.0146503448486328,
                    0.4880776107311249,
                    -0.384834885597229,
                    0.008650794625282288,
                    -0.5406588315963745,
                    -0.27825745940208435,
                    -0.3109607398509979,
                    -0.024401651695370674,
                    0.5068025588989258,
                    -1.297993540763855,
                    -0.2759736180305481,
                    -1.2111564874649048,
                    -1.2038429975509644,
                    1.0244711637496948,
                    -1.2716978788375854,
                    0.5417245626449585,
                    0.3404000997543335,
                    0.5321390628814697,
                    -0.35517698526382446,
                    -0.22766466438770294,
                    0.35898658633232117,
                    0.48285111784935,
                    0.3078150153160095,
                    0.7382469773292542,
                    -0.45083412528038025,
                    0.5176776051521301,
                    1.8780385255813599,
                    0.10832197219133377,
                    -1.0078364610671997,
                    0.27313798666000366,
                    -0.11193378269672394,
                    -0.060064103454351425,
                    -0.25197145342826843,
                    0.25304096937179565,
                    0.4764118790626526,
                    0.3966929316520691,
                    1.768527626991272,
                    0.47685888409614563,
                    0.7705150246620178,
                    0.7517235279083252,
                    -0.7193652391433716,
                    0.5007554292678833,
                    0.5041813254356384,
                    -0.035584401339292526,
                    0.2895280420780182,
                    0.5333085656166077,
                    0.07720008492469788,
                    -0.06654354184865952,
                    0.24985209107398987,
                    0.028617341071367264
                ],
                [
                    0.4717591404914856,
                    0.7326856255531311,
                    0.8209590911865234,
                    -0.9218453168869019,
                    -0.5383909940719604,
                    -1.8145009279251099,
                    0.57378751039505,
                    0.31673377752304077,
                    0.5196739435195923,
                    0.51340252161026,
                    0.3225570619106293,
                    0.1701788455247879,
                    0.44952458143234253,
                    0.114911288022995,
                    0.6070537567138672,
                    1.381030797958374,
                    -0.8828840255737305,
                    1.4661633968353271,
                    1.4183123111724854,
                    -0.8215681314468384,
                    1.5162066221237183,
                    0.12929004430770874,
                    0.16374458372592926,
                    1.2915257215499878,
                    0.3448217511177063,
                    -0.08516588807106018,
                    0.1496841013431549,
                    -0.9493732452392578,
                    0.28458887338638306,
                    0.5432797074317932,
                    0.5217016339302063,
                    -1.3122361898422241,
                    -1.3831465244293213,
                    -0.2243483066558838,
                    0.669675886631012,
                    -0.30653104186058044,
                    -0.34743714332580566,
                    -0.18714921176433563,
                    -0.12266083061695099,
                    -0.3119046092033386,
                    0.4462358057498932,
                    0.5694220662117004,
                    -1.633760929107666,
                    -0.7929690480232239,
                    -0.8023873567581177,
                    -1.6783838272094727,
                    0.6518510580062866,
                    -1.849261999130249,
                    0.08185438811779022,
                    -0.07652337849140167,
                    0.05952366068959236,
                    0.22617468237876892,
                    -0.12392400950193405,
                    -0.17808440327644348,
                    -0.2490120828151703,
                    -0.021386582404375076
                ],
                [
                    -0.6663672924041748,
                    -0.07228685915470123,
                    0.5255066752433777,
                    0.49322110414505005,
                    0.0083286352455616,
                    -1.2530120611190796,
                    0.5009253621101379,
                    -0.4312295615673065,
                    0.3665740489959717,
                    0.19981162250041962,
                    0.3375709652900696,
                    0.17420612275600433,
                    0.2296372503042221,
                    0.10640133917331696,
                    -0.2739524841308594,
                    1.0232030153274536,
                    0.19811341166496277,
                    0.9546114802360535,
                    0.9048907160758972,
                    -0.9283841848373413,
                    0.9767839908599854,
                    -0.4811473786830902,
                    0.15580998361110687,
                    0.497681200504303,
                    0.17528465390205383,
                    0.2047509253025055,
                    0.2409481406211853,
                    -0.29895198345184326,
                    -0.18886707723140717,
                    0.5043530464172363,
                    0.32053452730178833,
                    -0.9313877820968628,
                    -2.392343521118164,
                    0.05429196357727051,
                    0.5964347720146179,
                    -0.39328035712242126,
                    -0.05620792880654335,
                    -0.08749039471149445,
                    0.35535699129104614,
                    0.21105098724365234,
                    -0.19005274772644043,
                    0.4794064462184906,
                    -1.8689993619918823,
                    -0.6328451633453369,
                    -0.9648662805557251,
                    -0.10185064375400543,
                    0.5303621292114258,
                    -0.8668686151504517,
                    -0.39933931827545166,
                    0.15268361568450928,
                    -0.48147013783454895,
                    0.6040303111076355,
                    -0.020839175209403038,
                    -0.024113712832331657,
                    -0.060132257640361786,
                    0.055530376732349396
                ],
                [
                    0.6735912561416626,
                    0.5709007978439331,
                    -0.31560513377189636,
                    -0.3946654200553894,
                    0.17195890843868256,
                    0.6307043433189392,
                    1.313969373703003,
                    0.754496157169342,
                    -0.16007481515407562,
                    0.6531901955604553,
                    0.8714160323143005,
                    0.21305541694164276,
                    -0.46621108055114746,
                    -0.46187183260917664,
                    0.467615008354187,
                    -1.0922695398330688,
                    -0.4473629593849182,
                    -0.8390109539031982,
                    -0.9355021119117737,
                    -0.7356449961662292,
                    -0.9696407914161682,
                    0.5271779894828796,
                    -0.4608776867389679,
                    0.5750749707221985,
                    0.6405094861984253,
                    -0.1845242977142334,
                    0.6799957752227783,
                    -0.7501372694969177,
                    0.5805738568305969,
                    0.8994762301445007,
                    -0.40258267521858215,
                    1.2324808835983276,
                    2.9864590167999268,
                    -0.06689402461051941,
                    1.2748819589614868,
                    0.13492140173912048,
                    1.323055624961853,
                    -0.2734207212924957,
                    -0.4858608543872833,
                    0.48347368836402893,
                    0.5646926164627075,
                    0.48219865560531616,
                    -1.0462563037872314,
                    -0.5877556204795837,
                    -0.3904625475406647,
                    0.3469484746456146,
                    -0.5715363621711731,
                    -0.6787703633308411,
                    0.28977125883102417,
                    -0.34408310055732727,
                    0.447773814201355,
                    0.8183373212814331,
                    1.2451658248901367,
                    0.3655657172203064,
                    -0.1422652304172516,
                    -0.3558027446269989
                ],
                [
                    -0.7064807415008545,
                    -0.5020984411239624,
                    -0.25092989206314087,
                    0.5782561302185059,
                    0.22949951887130737,
                    -0.9887446761131287,
                    1.0151678323745728,
                    -0.518921971321106,
                    -0.16047272086143494,
                    0.28398364782333374,
                    0.41936951875686646,
                    0.3466046452522278,
                    -0.2349022477865219,
                    -0.02224932610988617,
                    -0.03332460671663284,
                    -0.47891682386398315,
                    0.5881461501121521,
                    -0.5478782653808594,
                    -0.4815691411495209,
                    -0.6164023876190186,
                    -0.42344608902931213,
                    -0.16163255274295807,
                    -0.3390604555606842,
                    -0.12915803492069244,
                    0.3137821555137634,
                    0.24371249973773956,
                    0.13500332832336426,
                    -0.4760335087776184,
                    -0.3976919651031494,
                    0.5881825089454651,
                    -0.1538158804178238,
                    0.4103437662124634,
                    0.2516378164291382,
                    -0.0799248069524765,
                    0.8081216216087341,
                    -0.4043004512786865,
                    1.8063793182373047,
                    0.22288541495800018,
                    0.41663578152656555,
                    0.42475205659866333,
                    -0.28750771284103394,
                    -0.019619833678007126,
                    -1.230093240737915,
                    -0.16559253633022308,
                    -0.3471195697784424,
                    0.9060842394828796,
                    -0.3937581479549408,
                    0.4093815088272095,
                    -0.33451154828071594,
                    0.17470408976078033,
                    -0.11556094884872437,
                    0.7325035333633423,
                    0.8925865292549133,
                    0.4571423828601837,
                    0.22365708649158478,
                    -0.36223822832107544
                ],
                [
                    -0.9225234985351562,
                    -0.508557140827179,
                    -0.48788198828697205,
                    1.2751295566558838,
                    -0.103192999958992,
                    2.708021640777588,
                    -0.8382546305656433,
                    -0.5834162831306458,
                    -0.4026190936565399,
                    -0.5329384803771973,
                    -0.5201353430747986,
                    -0.24669720232486725,
                    -0.30630138516426086,
                    -0.08616400510072708,
                    -0.2378719002008438,
                    -0.9557276368141174,
                    1.1792036294937134,
                    -1.203371286392212,
                    -1.1912485361099243,
                    0.9527178406715393,
                    -1.136595368385315,
                    0.19957730174064636,
                    -0.1812223345041275,
                    -0.8675771951675415,
                    -0.457468718290329,
                    0.4361783564090729,
                    -0.6121425628662109,
                    1.042810320854187,
                    -0.5099571347236633,
                    -0.7513555884361267,
                    -0.2882845997810364,
                    0.2896231412887573,
                    -0.14313018321990967,
                    0.14306949079036713,
                    -0.8882563710212708,
                    -0.07097765803337097,
                    -1.6445387601852417,
                    0.4623039960861206,
                    0.8391761183738708,
                    -0.37916457653045654,
                    -0.4111081659793854,
                    -0.5639514327049255,
                    1.500739574432373,
                    1.0336530208587646,
                    0.661632239818573,
                    0.6699848175048828,
                    -0.7042152285575867,
                    2.2252235412597656,
                    -0.0747867226600647,
                    0.31776073575019836,
                    -0.0062977634370327,
                    -1.5159142017364502,
                    -0.5403279066085815,
                    -0.32604750990867615,
                    0.5423020720481873,
                    0.09033126384019852
                ]
            ],
            "biases": [
                0.044970445334911346,
                1.0174837112426758,
                -0.5197494029998779,
                0.4046117663383484,
                0.9429590106010437,
                -1.683051586151123,
                -0.8448942303657532,
                -0.1432737112045288
            ]
        },
        {
            "weights": [
                [
                    -2.1848254203796387,
                    0.6115845441818237,
                    3.640707015991211,
                    -3.921182155609131,
                    -4.267273902893066,
                    1.7203340530395508,
                    -0.6553478837013245,
                    2.49236798286438
                ],
                [
                    0.19091324508190155,
                    3.2816736698150635,
                    -1.1431477069854736,
                    2.945071220397949,
                    2.050873041152954,
                    -5.026017665863037,
                    -1.7133371829986572,
                    -0.28420490026474
                ],
                [
                    -3.104706287384033,
                    -1.2808948755264282,
                    0.17647524178028107,
                    2.5077004432678223,
                    -1.0334254503250122,
                    4.033732891082764,
                    0.34046226739883423,
                    -2.5156376361846924
                ],
                [
                    -1.4270927906036377,
                    2.374265193939209,
                    1.4438939094543457,
                    1.986349105834961,
                    -0.11162871867418289,
                    0.6851385235786438,
                    -1.7375901937484741,
                    -1.8978124856948853
                ],
                [
                    0.2219056934118271,
                    -4.499657154083252,
                    -0.40486693382263184,
                    -2.1771557331085205,
                    -0.8447570204734802,
                    2.227700710296631,
                    1.777157187461853,
                    2.1106555461883545
                ],
                [
                    3.8825020790100098,
                    -3.2420835494995117,
                    -1.4398690462112427,
                    -1.4224843978881836,
                    1.8109387159347534,
                    0.5483195781707764,
                    2.848992347717285,
                    -0.9131228923797607
                ],
                [
                    0.8891001343727112,
                    -2.0097615718841553,
                    -4.883841514587402,
                    3.8829774856567383,
                    2.830700635910034,
                    -2.308830499649048,
                    -0.8258337378501892,
                    -3.1867966651916504
                ],
                [
                    -0.6642765402793884,
                    1.4105409383773804,
                    0.533574640750885,
                    -2.6709306240081787,
                    -1.0782792568206787,
                    -3.240147829055786,
                    -1.8397941589355469,
                    5.747609615325928
                ]
            ],
            "biases": [
                -0.12267753481864929,
                0.1561034917831421,
                -0.4720727801322937,
                -0.27702444791793823,
                0.09430460631847382,
                -0.5446166396141052,
                -0.34327957034111023,
                0.4971245527267456
            ]
        },
        {
            "weights": [
                [
                    -5.643855094909668,
                    2.1210439205169678,
                    -3.2041587829589844,
                    -0.8923463225364685,
                    -3.1291415691375732,
                    -2.2668936252593994,
                    5.901276111602783,
                    -2.4602091312408447
                ],
                [
                    -5.733528137207031,
                    3.6255390644073486,
                    -3.339494466781616,
                    -3.6004116535186768,
                    -2.3928210735321045,
                    0.2088102549314499,
                    -3.5479679107666016,
                    2.590709686279297
                ],
                [
                    2.376803159713745,
                    1.4384186267852783,
                    -4.240445137023926,
                    -0.3107593059539795,
                    -3.330627202987671,
                    -5.459458351135254,
                    -2.8478434085845947,
                    2.56131911277771
                ],
                [
                    -4.121554374694824,
                    3.022825002670288,
                    2.571837902069092,
                    0.8874586820602417,
                    -2.701465368270874,
                    -3.0973174571990967,
                    -3.5782501697540283,
                    -3.8530354499816895
                ],
                [
                    -3.85904598236084,
                    -1.116148829460144,
                    -2.514025926589966,
                    -0.49572980403900146,
                    -1.2906475067138672,
                    3.949035882949829,
                    -4.784250736236572,
                    -5.1142659187316895
                ],
                [
                    -0.18435436487197876,
                    -3.7256903648376465,
                    -4.801732540130615,
                    -3.887327194213867,
                    1.8580145835876465,
                    2.5205812454223633,
                    -2.1274774074554443,
                    2.0173227787017822
                ],
                [
                    3.590768814086914,
                    -4.198516845703125,
                    1.8135074377059937,
                    1.9563374519348145,
                    -4.5876264572143555,
                    -3.4026026725769043,
                    -2.689473867416382,
                    -2.3615570068359375
                ],
                [
                    2.5992965698242188,
                    -4.978484153747559,
                    0.8054677844047546,
                    -2.478576898574829,
                    2.0479469299316406,
                    1.8025490045547485,
                    -3.4813804626464844,
                    -4.9456562995910645
                ],
                [
                    1.8501410484313965,
                    -6.061400413513184,
                    -0.6913844347000122,
                    -0.8625501990318298,
                    2.3280680179595947,
                    -4.899069786071777,
                    -2.4165849685668945,
                    3.52533221244812
                ],
                [
                    -4.402746200561523,
                    -3.03765606880188,
                    2.102977752685547,
                    -2.426337718963623,
                    1.1191948652267456,
                    1.3348296880722046,
                    2.818800210952759,
                    -3.6276609897613525
                ]
            ],
            "biases": [
                -1.6449790000915527,
                -1.1028568744659424,
                -2.336958169937134,
                -2.2148876190185547,
                0.695392906665802,
                -1.767953634262085,
                -2.6618523597717285,
                -2.5771892070770264,
                -3.140040159225464,
                -2.298797845840454
            ]
        }
    ],
    "inputLookup": null,
    "inputLookupLength": 0,
    "outputLookup": null,
    "outputLookupLength": 0,
    "options": {
        "inputSize": 0,
        "outputSize": 0,
        "binaryThresh": 0.5,
        "activation": "sigmoid",
        "iterations": 20000,
        "errorThresh": 0.0005,
        "log": true,
        "logPeriod": 100,
        "hiddenLayers": [
            8,
            8
        ]
    },
    "trainOpts": {
        "activation": "sigmoid",
        "iterations": 20000,
        "errorThresh": 0.0005,
        "log": true,
        "logPeriod": 100,
        "leakyReluAlpha": 0.01,
        "learningRate": 0.3,
        "momentum": 0.1,
        "callbackPeriod": 10,
        "timeout": "Infinity",
        "beta1": 0.9,
        "beta2": 0.999,
        "epsilon": 1e-8
    }
}