{
    "type": "NeuralNetwork",
    "sizes": [
        61,
        8,
        8,
        11
    ],
    "layers": [
        {
            "weights": [],
            "biases": []
        },
        {
            "weights": [
                [
                    1.5983272790908813,
                    0.8512910604476929,
                    0.046913161873817444,
                    -0.49477407336235046,
                    -0.3482346534729004,
                    -0.26644960045814514,
                    -1.504223108291626,
                    -1.1259666681289673,
                    0.7112279534339905,
                    0.2798348367214203,
                    0.053234245628118515,
                    -0.7997854351997375,
                    -0.3472002446651459,
                    0.21203561127185822,
                    0.2815885841846466,
                    0.5621388554573059,
                    0.3562617897987366,
                    -0.46572837233543396,
                    0.31703776121139526,
                    0.3750368058681488,
                    0.8137142658233643,
                    0.2752626836299896,
                    0.41188356280326843,
                    0.6475151181221008,
                    0.5434934496879578,
                    -0.17778968811035156,
                    -0.000015957264622556977,
                    -0.6610084772109985,
                    -0.23391182720661163,
                    0.4132717251777649,
                    0.4378822147846222,
                    0.41618478298187256,
                    0.2679122984409332,
                    -1.8398382663726807,
                    -1.63249671459198,
                    0.21102575957775116,
                    -1.0367790460586548,
                    -0.388934850692749,
                    -0.25195854902267456,
                    -0.29847878217697144,
                    -0.9252154231071472,
                    0.1914188265800476,
                    -0.2568484842777252,
                    0.0719691589474678,
                    0.30850404500961304,
                    0.34051063656806946,
                    1.641316294670105,
                    0.3437827229499817,
                    0.6520351767539978,
                    -0.4363204836845398,
                    0.14150536060333252,
                    0.89666748046875,
                    0.0562099888920784,
                    0.02296273596584797,
                    -0.4073089063167572,
                    0.20777031779289246,
                    -1.2372040748596191,
                    -0.42699745297431946,
                    -0.28120294213294983,
                    -0.13661600649356842,
                    0.34289073944091797
                ],
                [
                    0.5106872916221619,
                    0.767363429069519,
                    0.04488271474838257,
                    1.1625629663467407,
                    -0.37155789136886597,
                    -0.5833670496940613,
                    -1.59488046169281,
                    0.6425675749778748,
                    1.1876652240753174,
                    -0.12586991488933563,
                    -0.4837995767593384,
                    0.03852076083421707,
                    0.24607621133327484,
                    0.00796088483184576,
                    0.15560591220855713,
                    -0.1483386754989624,
                    -0.22238582372665405,
                    1.3235450983047485,
                    -0.12755095958709717,
                    -0.37448957562446594,
                    0.6325021386146545,
                    -0.3522387444972992,
                    0.2555729150772095,
                    -0.7536346912384033,
                    -0.8077602982521057,
                    -0.5183774828910828,
                    0.5945252776145935,
                    -1.1875178813934326,
                    -0.05255541205406189,
                    0.5222230553627014,
                    0.8499763011932373,
                    -0.4941825866699219,
                    -0.05594296380877495,
                    -1.8499717712402344,
                    -0.9526742100715637,
                    -0.30221647024154663,
                    0.46841612458229065,
                    -0.4193459749221802,
                    -0.5422238707542419,
                    0.1472226232290268,
                    -1.6210323572158813,
                    -0.42443957924842834,
                    0.8582071661949158,
                    -0.23649819195270538,
                    0.08414018154144287,
                    -0.18452879786491394,
                    1.250870943069458,
                    0.4002096652984619,
                    0.5534813404083252,
                    -1.5074386596679688,
                    -0.10026054084300995,
                    -1.266606330871582,
                    -0.36234715580940247,
                    0.5871536731719971,
                    -0.8331599831581116,
                    0.31978121399879456,
                    -0.2606240510940552,
                    0.08804266154766083,
                    -0.39474380016326904,
                    0.4370183050632477,
                    0.23483484983444214
                ],
                [
                    -2.1207327842712402,
                    -1.565089225769043,
                    0.4108690917491913,
                    -0.06515387445688248,
                    0.003049422288313508,
                    0.6726491451263428,
                    -0.6266621947288513,
                    1.1019768714904785,
                    -1.1252758502960205,
                    0.3196853995323181,
                    0.2873677909374237,
                    0.5600897669792175,
                    0.4004391133785248,
                    0.3287647068500519,
                    0.04952296242117882,
                    -0.9324607253074646,
                    0.9600709676742554,
                    -0.02194881998002529,
                    0.9424974918365479,
                    0.7275968790054321,
                    -1.2702792882919312,
                    0.8435327410697937,
                    -0.4041265845298767,
                    -0.4409608244895935,
                    -0.7452228665351868,
                    0.2987457811832428,
                    -0.030558379366993904,
                    1.5031026601791382,
                    -0.03374961391091347,
                    -0.40389400720596313,
                    -0.9162003993988037,
                    -0.07324998080730438,
                    0.3035554587841034,
                    0.5429169535636902,
                    -0.2592761814594269,
                    -0.06457636505365372,
                    1.0172854661941528,
                    0.25547605752944946,
                    0.2971392273902893,
                    -1.3594003915786743,
                    2.687567949295044,
                    0.0058727264404296875,
                    -0.026944072917103767,
                    -0.028042254969477654,
                    -0.9835740923881531,
                    -0.16986943781375885,
                    -2.5188519954681396,
                    -0.6191394329071045,
                    -1.2337192296981812,
                    0.31546539068222046,
                    0.4421529471874237,
                    -0.472525954246521,
                    0.12107539176940918,
                    0.03792744129896164,
                    0.8519028425216675,
                    -0.6581851243972778,
                    0.6793692111968994,
                    0.09070207923650742,
                    0.7300809621810913,
                    -0.253900945186615,
                    -0.18707069754600525
                ],
                [
                    0.9939523339271545,
                    0.38891154527664185,
                    -0.6764856576919556,
                    0.05814480036497116,
                    0.08894946426153183,
                    -0.7056570649147034,
                    1.3986490964889526,
                    -0.11875016987323761,
                    0.57470703125,
                    -0.49010568857192993,
                    0.29182136058807373,
                    0.32519811391830444,
                    0.07295715808868408,
                    -0.179770827293396,
                    -0.4211261570453644,
                    0.3432009220123291,
                    -1.0205738544464111,
                    0.2623419761657715,
                    -1.0370762348175049,
                    -0.9195719957351685,
                    -0.8210351467132568,
                    -1.0487053394317627,
                    0.5356272459030151,
                    0.5412966012954712,
                    1.2205328941345215,
                    0.22397638857364655,
                    0.002761923475190997,
                    -0.9282272458076477,
                    0.34153422713279724,
                    -0.7311388254165649,
                    0.3074212670326233,
                    1.0195889472961426,
                    -0.31237930059432983,
                    0.5256425738334656,
                    2.6318178176879883,
                    0.10609368234872818,
                    -0.21247920393943787,
                    -0.24954845011234283,
                    -0.300854355096817,
                    0.4877024292945862,
                    0.7240439653396606,
                    0.03034559078514576,
                    0.26145896315574646,
                    0.4521600306034088,
                    0.5244752168655396,
                    0.7848519682884216,
                    -0.911596953868866,
                    -0.7569887042045593,
                    -0.210450679063797,
                    1.4276070594787598,
                    -0.6333009600639343,
                    0.5334268808364868,
                    -0.08813442289829254,
                    0.1861821860074997,
                    -0.4231349527835846,
                    0.5372867584228516,
                    1.1225594282150269,
                    0.8225628137588501,
                    0.13046684861183167,
                    -0.49087998270988464,
                    -0.4490295648574829
                ],
                [
                    -1.0587882995605469,
                    -0.7122493982315063,
                    0.43111854791641235,
                    -0.003749326104298234,
                    0.18008071184158325,
                    0.19140584766864777,
                    -1.108243465423584,
                    0.6610822081565857,
                    -1.1154507398605347,
                    0.05052651837468147,
                    0.5427272915840149,
                    0.5973806977272034,
                    0.24839428067207336,
                    0.2437402755022049,
                    0.09826894849538803,
                    -0.11084508150815964,
                    0.9248327016830444,
                    -0.03187175467610359,
                    0.749562680721283,
                    0.735916793346405,
                    -0.8358171582221985,
                    0.6198397874832153,
                    -0.49113136529922485,
                    0.16308115422725677,
                    0.44566816091537476,
                    0.21851840615272522,
                    0.062028996646404266,
                    0.5750944018363953,
                    0.27622026205062866,
                    -0.3097543716430664,
                    -0.6742711067199707,
                    0.5473194718360901,
                    0.26057007908821106,
                    -0.30010879039764404,
                    -1.9737522602081299,
                    -0.07298082113265991,
                    0.617038369178772,
                    0.3357442617416382,
                    0.17014726996421814,
                    -0.6738924980163574,
                    0.7227283120155334,
                    0.14028096199035645,
                    0.17938275635242462,
                    0.26134318113327026,
                    -0.3070719242095947,
                    0.5148499608039856,
                    -1.6698020696640015,
                    -0.10109918564558029,
                    -0.8297185301780701,
                    0.3560183644294739,
                    0.46116897463798523,
                    -0.17215868830680847,
                    -0.09270304441452026,
                    0.0035287265200167894,
                    0.43517547845840454,
                    -0.5426680445671082,
                    0.47772982716560364,
                    0.4168272614479065,
                    0.3144093155860901,
                    0.37693870067596436,
                    0.0054344069212675095
                ],
                [
                    -0.5881561636924744,
                    -0.5390169620513916,
                    -0.026360414922237396,
                    -1.178828239440918,
                    0.333690345287323,
                    0.3752509355545044,
                    0.6483514904975891,
                    0.1210707277059555,
                    -0.8143279552459717,
                    0.08329000324010849,
                    0.7951093912124634,
                    0.4377027750015259,
                    -0.0037753258366137743,
                    0.09402033686637878,
                    -0.20741978287696838,
                    0.06429976969957352,
                    0.2529602646827698,
                    -1.0263608694076538,
                    0.309740275144577,
                    0.3378610908985138,
                    -0.8222174644470215,
                    0.21121540665626526,
                    -0.3853592872619629,
                    0.7256203293800354,
                    1.174759030342102,
                    0.5984289050102234,
                    -0.5431810617446899,
                    0.7293646335601807,
                    0.1931973248720169,
                    -0.43208104372024536,
                    -0.6539358496665955,
                    1.085741639137268,
                    0.10444605350494385,
                    0.8881804943084717,
                    -0.4607659578323364,
                    0.3784085214138031,
                    0.12512613832950592,
                    0.07518233358860016,
                    0.22063185274600983,
                    -0.11194952577352524,
                    0.7130370736122131,
                    0.22853682935237885,
                    -1.0280340909957886,
                    0.15923748910427094,
                    0.264299601316452,
                    0.951038658618927,
                    -1.4146637916564941,
                    -0.3540484607219696,
                    -0.5671434998512268,
                    1.3511381149291992,
                    0.059794504195451736,
                    0.8164286017417908,
                    -0.06428563594818115,
                    -0.33108028769493103,
                    0.29906508326530457,
                    -0.14301593601703644,
                    0.2806544303894043,
                    0.7139874696731567,
                    0.31776946783065796,
                    -0.10401081293821335,
                    0.019000021740794182
                ],
                [
                    0.9249109029769897,
                    1.0447701215744019,
                    -0.6922551393508911,
                    1.570060133934021,
                    -0.4936886429786682,
                    -0.6891746520996094,
                    1.3218926191329956,
                    -0.3314052224159241,
                    0.7592718601226807,
                    -0.5314939022064209,
                    0.27990102767944336,
                    0.201514333486557,
                    0.0956268459558487,
                    -0.4590144753456116,
                    -0.05498173087835312,
                    0.7543327808380127,
                    -1.3419078588485718,
                    1.4777071475982666,
                    -1.227639079093933,
                    -1.2312806844711304,
                    0.03720054030418396,
                    -1.2990024089813232,
                    0.7124409675598145,
                    -0.18528716266155243,
                    0.8086919784545898,
                    0.11007244139909744,
                    0.7305213809013367,
                    -1.5874569416046143,
                    0.7449938058853149,
                    -0.30188804864883423,
                    0.5934746265411377,
                    0.5984846353530884,
                    -0.35804376006126404,
                    -0.8435760736465454,
                    1.3463988304138184,
                    -0.2437264770269394,
                    -0.08753176778554916,
                    -0.5480740666389465,
                    -0.49267578125,
                    0.42074090242385864,
                    -1.5685921907424927,
                    -0.31424838304519653,
                    1.2154200077056885,
                    0.35080400109291077,
                    0.6923699975013733,
                    0.4256145656108856,
                    0.08544875681400299,
                    -0.5629571080207825,
                    0.05422937870025635,
                    0.07674705237150192,
                    -0.6092664003372192,
                    -1.5236551761627197,
                    -0.2241857498884201,
                    0.7107479572296143,
                    -0.9627075791358948,
                    0.6152603626251221,
                    1.6999131441116333,
                    0.23048190772533417,
                    -0.4274798035621643,
                    0.030468687415122986,
                    -0.3304497301578522
                ],
                [
                    0.4766060411930084,
                    0.45583435893058777,
                    0.4119735360145569,
                    -1.1625990867614746,
                    -0.19672717154026031,
                    -0.16704195737838745,
                    -1.3337596654891968,
                    -1.0188095569610596,
                    0.008249705657362938,
                    0.396602600812912,
                    -0.28051498532295227,
                    -0.7367549538612366,
                    -0.15840980410575867,
                    0.482679545879364,
                    0.3717963695526123,
                    0.2822176516056061,
                    0.9032959938049316,
                    -1.1120580434799194,
                    0.7936686873435974,
                    0.8774409890174866,
                    0.8562546968460083,
                    0.8621984124183655,
                    -0.09896054863929749,
                    1.0931169986724854,
                    0.37440231442451477,
                    -0.030775096267461777,
                    -0.469514936208725,
                    -0.3241081237792969,
                    -0.082830049097538,
                    0.6092299222946167,
                    -0.08182334154844284,
                    0.46958258748054504,
                    0.3924454152584076,
                    -1.4656012058258057,
                    -2.7170028686523438,
                    0.2587338984012604,
                    -0.9422551989555359,
                    -0.02017861232161522,
                    -0.08794990181922913,
                    -0.4651494324207306,
                    -0.8932658433914185,
                    0.054257869720458984,
                    -0.7874707579612732,
                    -0.17050610482692719,
                    0.04498157277703285,
                    0.28418248891830444,
                    1.5760252475738525,
                    0.7973623275756836,
                    0.6116363406181335,
                    0.09234081953763962,
                    0.5293338298797607,
                    0.858453094959259,
                    -0.3885873854160309,
                    -0.3532503545284271,
                    -0.10920687019824982,
                    -0.014505756087601185,
                    -0.7670406103134155,
                    -0.4907558262348175,
                    -0.0965246856212616,
                    -0.2345947027206421,
                    0.4941946864128113
                ]
            ],
            "biases": [
                0.7854976654052734,
                0.9633864760398865,
                0.3945766091346741,
                -1.3903969526290894,
                0.5059594511985779,
                -0.38348206877708435,
                -0.30181369185447693,
                0.998928427696228
            ]
        },
        {
            "weights": [
                [
                    3.2302515506744385,
                    -2.4987123012542725,
                    -0.49855872988700867,
                    -3.339627504348755,
                    0.4767284095287323,
                    1.7717896699905396,
                    -5.7205352783203125,
                    4.486713886260986
                ],
                [
                    0.13908977806568146,
                    -3.2280073165893555,
                    -2.9327471256256104,
                    4.884703159332275,
                    -1.6560693979263306,
                    1.889385461807251,
                    3.10296368598938,
                    -1.1814442873001099
                ],
                [
                    -2.494098663330078,
                    -0.05134575441479683,
                    5.4028544425964355,
                    -1.7995352745056152,
                    2.9823801517486572,
                    0.2078167051076889,
                    -2.6660614013671875,
                    -1.5961699485778809
                ],
                [
                    1.4234181642532349,
                    3.045626401901245,
                    -4.156297206878662,
                    -0.7404893636703491,
                    -3.4964964389801025,
                    -3.6722819805145264,
                    1.2564330101013184,
                    0.24940745532512665
                ],
                [
                    1.0313289165496826,
                    2.325505018234253,
                    -2.0965240001678467,
                    -0.3803539276123047,
                    -0.5290697813034058,
                    -1.1809487342834473,
                    2.4802467823028564,
                    -0.6357706189155579
                ],
                [
                    3.1102163791656494,
                    3.2920339107513428,
                    -2.7891838550567627,
                    -2.899976968765259,
                    -0.8899806141853333,
                    -2.918825626373291,
                    0.7875708341598511,
                    2.759354829788208
                ],
                [
                    -1.91290283203125,
                    0.08000040054321289,
                    -0.9297855496406555,
                    2.535593032836914,
                    -2.926454544067383,
                    -1.1928030252456665,
                    1.4710458517074585,
                    -3.6119132041931152
                ],
                [
                    -3.5866520404815674,
                    -3.7223451137542725,
                    3.608724594116211,
                    0.601976752281189,
                    -0.17459869384765625,
                    0.8085421919822693,
                    -2.7545900344848633,
                    -3.988035202026367
                ]
            ],
            "biases": [
                -0.08060414344072342,
                -0.5232510566711426,
                0.27957677841186523,
                -0.6358742117881775,
                0.2880590260028839,
                -0.11135637760162354,
                0.854204535484314,
                0.24621224403381348
            ]
        },
        {
            "weights": [
                [
                    4.3272786140441895,
                    -5.909677028656006,
                    1.4145562648773193,
                    -4.3912763595581055,
                    -2.1451544761657715,
                    1.709845781326294,
                    -2.481806755065918,
                    -6.04547643661499
                ],
                [
                    -6.470873832702637,
                    -4.241702556610107,
                    -0.19457456469535828,
                    -1.9475029706954956,
                    1.9260832071304321,
                    4.071197509765625,
                    -1.6732096672058105,
                    -4.693705081939697
                ],
                [
                    1.3530787229537964,
                    -4.277565956115723,
                    -5.822967529296875,
                    2.7833383083343506,
                    -0.24784959852695465,
                    2.2689054012298584,
                    -2.768502712249756,
                    -2.5903191566467285
                ],
                [
                    -1.6010915040969849,
                    2.411381721496582,
                    -6.496950626373291,
                    -4.573108196258545,
                    1.6413145065307617,
                    1.412516713142395,
                    -4.111179828643799,
                    -4.1774001121521
                ],
                [
                    -5.162521839141846,
                    4.549588680267334,
                    1.1071979999542236,
                    -1.5635474920272827,
                    -1.8250190019607544,
                    -3.498896837234497,
                    -3.944457530975342,
                    -4.20355224609375
                ],
                [
                    5.242415428161621,
                    2.1674537658691406,
                    -2.318730115890503,
                    -1.5892244577407837,
                    -2.5235626697540283,
                    -3.673811197280884,
                    -2.353323221206665,
                    -4.012444496154785
                ],
                [
                    -4.679232120513916,
                    1.3343958854675293,
                    -4.966294765472412,
                    4.878505706787109,
                    -0.49465957283973694,
                    0.444335013628006,
                    1.1495639085769653,
                    -3.7916531562805176
                ],
                [
                    -5.884112358093262,
                    1.6899358034133911,
                    1.4934500455856323,
                    -1.8618650436401367,
                    -4.319164276123047,
                    -2.546027183532715,
                    0.605920135974884,
                    4.633138179779053
                ],
                [
                    -3.597932815551758,
                    2.226938486099243,
                    -5.060671806335449,
                    -2.9226925373077393,
                    -0.548090398311615,
                    -4.653768539428711,
                    4.116608142852783,
                    -1.9002691507339478
                ],
                [
                    -5.883459568023682,
                    -5.212855815887451,
                    4.590641498565674,
                    -1.8931666612625122,
                    -0.7443380951881409,
                    -4.233176231384277,
                    -1.8764442205429077,
                    -2.2727293968200684
                ],
                [
                    2.2603414058685303,
                    -4.713318824768066,
                    0.28236082196235657,
                    -2.9733753204345703,
                    -3.201198101043701,
                    -2.9081804752349854,
                    -2.5825657844543457,
                    4.985751628875732
                ]
            ],
            "biases": [
                -2.9495279788970947,
                -1.9802756309509277,
                -2.0282888412475586,
                -1.1800392866134644,
                -1.5986686944961548,
                -2.4596407413482666,
                -3.7724361419677734,
                -4.443175792694092,
                -1.5116065740585327,
                -0.5145909786224365,
                -2.9754157066345215
            ]
        }
    ],
    "inputLookup": null,
    "inputLookupLength": 0,
    "outputLookup": null,
    "outputLookupLength": 0,
    "options": {
        "inputSize": 0,
        "outputSize": 0,
        "binaryThresh": 0.5,
        "activation": "sigmoid",
        "iterations": 20000,
        "errorThresh": 0.0005,
        "log": true,
        "logPeriod": 100,
        "hiddenLayers": [
            8,
            8
        ]
    },
    "trainOpts": {
        "activation": "sigmoid",
        "iterations": 20000,
        "errorThresh": 0.0005,
        "log": true,
        "logPeriod": 100,
        "leakyReluAlpha": 0.01,
        "learningRate": 0.3,
        "momentum": 0.1,
        "callbackPeriod": 10,
        "timeout": "Infinity",
        "beta1": 0.9,
        "beta2": 0.999,
        "epsilon": 1e-8
    }
}