{"type":"NeuralNetwork","sizes":[68,8,8,10],"layers":[{"weights":[],"biases":[]},{"weights":[[0.8669264316558838,1.016585350036621,-0.6886879205703735,-0.41800257563591003,0.8914890885353088,0.633877694606781,0.01724819466471672,0.6913608312606812,0.8985595107078552,0.9016767740249634,-0.6397767663002014,-0.3446809649467468,-0.9060575366020203,-0.17350025475025177,-0.7621555328369141,0.38481053709983826,-0.7531968951225281,-0.6603208780288696,0.6756869554519653,-0.4770621061325073,-1.2267886400222778,-1.1404987573623657,0.47912833094596863,-1.2107820510864258,-1.0736223459243774,0.24038338661193848,-0.06792110204696655,-0.7084673643112183,0.3285897374153137,0.41765838861465454,-0.14750173687934875,0.26137465238571167,0.4421120584011078,1.0298196077346802,-0.6488175988197327,-0.03659258782863617,1.289293885231018,0.39116090536117554,0.7393358945846558,-0.5394505262374878,-0.12875577807426453,-0.12604841589927673,0.8793895244598389,0.8465350270271301,0.754378616809845,0.8046678304672241,0.1434849202632904,-0.4011205732822418,0.2688453495502472,-1.1381261348724365,-0.4221009314060211,0.4142012894153595,0.6026859283447266,0.8244621753692627,-0.5761062502861023,0.03075566329061985,0.5789774060249329,-0.09353383630514145,0.32809215784072876,-0.2362924963235855,-0.6220377683639526,-2.298037528991699,1.9429346323013306,-0.4398828446865082,-0.8915238380432129,-0.4835788905620575,0.7922311425209045,-0.22048361599445343],[0.8735477328300476,-0.6998689770698547,0.3507113754749298,-0.18159812688827515,-0.8920122385025024,0.6264345049858093,-0.6650182604789734,-0.6596368551254272,-0.8089434504508972,-0.6557974219322205,0.25076645612716675,0.25944983959198,0.6206637620925903,-1.2175688743591309,0.3963340222835541,0.3617314398288727,0.6938388347625732,0.47163113951683044,0.6188008785247803,-0.6752579212188721,0.7567861080169678,0.5001714825630188,-0.13570190966129303,0.6116244792938232,1.0348589420318604,-0.2142333686351776,0.32970714569091797,-1.1160608530044556,0.4673665761947632,0.9598064422607422,-0.680591881275177,0.8705621361732483,0.5660125017166138,-0.3770403563976288,0.5742373466491699,-0.3673781752586365,-0.9809549450874329,-0.07863373309373856,-0.24592578411102295,0.7491307258605957,-0.21701501309871674,-0.3010946810245514,-0.8105258941650391,-0.33956584334373474,-0.6984601020812988,-0.7972824573516846,0.9716913104057312,-0.003091949736699462,0.589817225933075,-0.6467270851135254,0.12536418437957764,-0.36560776829719543,0.6607527732849121,-0.5153011679649353,0.6852880120277405,0.040980879217386246,0.2554844915866852,-0.2490064650774002,0.11042443662881851,-1.1805988550186157,0.07060108333826065,-0.2953508198261261,-0.9388344883918762,-1.26797616481781,0.5642050504684448,-0.3226650059223175,-0.7276244759559631,-0.2496723085641861],[-0.8920086622238159,-1.1733781099319458,0.5642369389533997,0.6156232953071594,-0.9604138135910034,-1.2408210039138794,0.2521597743034363,-0.8049303293228149,-0.9079461097717285,-0.759103000164032,0.5521361827850342,0.4161163866519928,0.5997905135154724,-0.15770436823368073,0.470816433429718,-0.7592706680297852,0.3982037603855133,0.4852963089942932,-1.2348681688308716,0.7872759699821472,1.151732325553894,1.1690984964370728,0.2843077480792999,1.1996713876724243,0.9281567335128784,-0.40846094489097595,-0.25567471981048584,0.7493991255760193,-0.7818542718887329,-0.9456267356872559,0.1321449875831604,-0.9246296882629395,-0.5294015407562256,-1.0526864528656006,0.5102445483207703,0.6792765855789185,-1.234055757522583,-0.734209418296814,-0.06486571580171585,0.7650255560874939,-0.057581666857004166,0.01486952044069767,-0.8555303812026978,-0.1322593092918396,-0.7107676267623901,-0.9013442397117615,-0.2726207971572876,0.012841148301959038,-0.7287775278091431,1.2896496057510376,0.4208672046661377,-0.5572159290313721,-0.8901050090789795,-0.9241573810577393,0.6535698771476746,-0.29574379324913025,0.25121864676475525,0.6327687501907349,0.17821767926216125,-0.1068076640367508,0.7142553925514221,1.9926308393478394,-2.041294813156128,0.4044126272201538,0.6091848015785217,0.7255843281745911,-0.7860845327377319,-0.10131222009658813],[1.5219700336456299,0.31321981549263,-0.2536885738372803,-0.43526461720466614,0.09261751919984818,-0.6111356019973755,-0.4098590612411499,0.13168060779571533,-0.14933952689170837,0.08946298807859421,-0.4011373519897461,0.3637453615665436,0.26937106251716614,-0.06950273364782333,0.5755227208137512,0.9025817513465881,0.4502396285533905,-0.33886614441871643,-0.6855557560920715,-0.7927214503288269,-0.5438863039016724,-0.7118390798568726,1.072532296180725,-0.5960849523544312,0.13578501343727112,0.43225184082984924,-0.1537378579378128,-0.6308450698852539,0.7135167717933655,0.6794286370277405,-0.1993783861398697,0.6639417409896851,-0.23327939212322235,0.32975733280181885,0.24914655089378357,0.3445989489555359,0.06775633245706558,0.2863253951072693,-0.7011242508888245,0.4026130139827728,-0.26530367136001587,-0.3720666170120239,0.12870077788829803,-0.5748258829116821,0.0067373826168477535,0.10492876917123795,0.47261863946914673,-0.14948152005672455,-0.2516152858734131,-0.6494324803352356,0.19670532643795013,-0.0241552721709013,0.80801922082901,0.23726288974285126,0.5573011636734009,0.6389743685722351,2.2431414127349854,0.6014899611473083,1.0120103359222412,-1.427692174911499,-0.14987169206142426,-1.4833369255065918,0.12980948388576508,-1.089302659034729,0.14295868575572968,-0.6006780862808228,0.07848150283098221,-0.10121696442365646],[-0.5573607087135315,-0.18698805570602417,-0.48963800072669983,-0.4727150499820709,-0.10336834192276001,1.9083038568496704,0.0829690545797348,0.017575887963175774,0.030286958441138268,0.06795255839824677,-0.16401207447052002,0.5423448085784912,0.7228034734725952,-0.2943544089794159,0.6710667610168457,-0.6260448694229126,0.714844822883606,-0.254420667886734,1.8992936611175537,-0.1805037558078766,-0.28318822383880615,-0.2873408794403076,-0.9042971134185791,-0.2365940511226654,0.39581289887428284,0.27525120973587036,0.605293869972229,-0.44145193696022034,-0.21497978270053864,0.2843818962574005,-0.26095956563949585,0.21459753811359406,1.276019811630249,0.3400278389453888,0.7570148706436157,-0.7515769004821777,-0.034779008477926254,0.5204180479049683,-0.9551123976707458,0.5223896503448486,0.14052118360996246,-0.05030709505081177,-0.21407537162303925,-0.8836020827293396,-0.22522316873073578,-0.3130124807357788,-0.3150482773780823,0.46582671999931335,1.1509008407592773,-0.6394800543785095,0.4522792100906372,0.4090868830680847,-0.2565677762031555,-0.2534172534942627,0.8462691903114319,-0.05091794207692146,-1.7599486112594604,-0.754477858543396,-0.8884735107421875,2.001626968383789,-0.6241890788078308,1.1470413208007812,0.8549601435661316,-0.14951743185520172,0.7156654596328735,-0.3253854513168335,-0.2932167053222656,-0.058481838554143906],[-1.6013388633728027,0.7332034111022949,-0.38049963116645813,0.29473039507865906,0.8934853076934814,0.9505594968795776,0.6839508414268494,0.795216977596283,0.6558891534805298,0.5227237939834595,-0.054366640746593475,-0.5590124726295471,-0.6528509259223938,0.33478614687919617,-0.7071036100387573,-0.7536379098892212,-0.9440517425537109,-0.2937225103378296,0.8370104432106018,0.23387496173381805,-0.2530283033847809,-0.4050061106681824,-0.8174772262573242,-0.3232836127281189,-0.7981739640235901,0.03969082608819008,0.21769733726978302,0.6156858205795288,-0.43340548872947693,-0.7741476893424988,0.28209275007247925,-0.9303850531578064,0.20815874636173248,0.06921078264713287,-0.615333080291748,-0.17363587021827698,0.9429096579551697,-0.3547614514827728,1.2003952264785767,-0.8971197009086609,0.002516295062378049,0.5472862124443054,0.7581969499588013,1.0717030763626099,0.7583453059196472,0.6612467765808105,-0.15476496517658234,0.0989127978682518,0.3266771733760834,0.11614350974559784,-0.4451068341732025,0.5159148573875427,-0.7852029204368591,0.5503058433532715,-0.9317331314086914,-0.45611345767974854,-1.975822925567627,-0.4310275614261627,-0.9310544729232788,1.6135904788970947,-0.08577080816030502,0.4765931963920593,0.9431034922599792,1.0813190937042236,-0.8207792043685913,0.5090128779411316,0.8806570172309875,0.36687231063842773],[0.2383790761232376,-0.8514831066131592,0.5768289566040039,-0.227966770529747,-0.7022186517715454,0.8788115382194519,-0.27856186032295227,-0.5162310600280762,-0.805112361907959,-0.7835366129875183,0.5613332986831665,0.12268704921007156,0.6163198947906494,-1.3153589963912964,0.406066358089447,0.37226036190986633,0.5568907260894775,0.2454255372285843,0.8410804271697998,-0.6374552249908447,0.7748285531997681,0.7817345261573792,-0.248773992061615,0.7641189098358154,0.9553759098052979,-0.3385046720504761,0.43463391065597534,-0.9618349671363831,0.17345009744167328,0.7802472710609436,-0.6702972650527954,1.019251823425293,0.6237122416496277,-0.5719919204711914,0.4753299057483673,-0.820773720741272,-0.795062780380249,-0.009701801463961601,0.3702627122402191,0.6734692454338074,0.21626834571361542,-0.5047430992126465,-0.9642510414123535,0.20883415639400482,-0.8497165441513062,-0.6090629696846008,0.8376933336257935,0.17332209646701813,0.7175865769386292,-0.621400773525238,0.2784286439418793,-0.28809723258018494,0.3216038644313812,-0.476519912481308,0.6110802292823792,0.17770271003246307,-0.9894540309906006,-0.7605575323104858,-0.6106076836585999,-0.34981659054756165,0.010082914493978024,0.6696258783340454,-1.3803198337554932,-1.0169655084609985,0.4978044331073761,-0.29130131006240845,-0.7751579284667969,-0.2926769554615021],[-0.5962731838226318,0.3356850743293762,0.27231088280677795,0.5238113403320312,0.3347151577472687,-0.6015897989273071,0.08980627357959747,0.3079518973827362,0.26526468992233276,0.37868359684944153,0.009466630406677723,-0.528231680393219,-0.704609215259552,-0.2855309844017029,-0.9116281867027283,-0.1945239156484604,-0.7618404626846313,0.14640574157238007,-0.5516760349273682,0.10640787333250046,0.19669124484062195,0.13667774200439453,0.6068041324615479,0.20663242042064667,-0.860698401927948,-0.2695099115371704,-0.8116310834884644,0.3364398181438446,-0.1103697195649147,-0.9479102492332458,0.14129307866096497,-1.0740118026733398,-0.3467775881290436,0.0929713100194931,-0.8575600981712341,0.8038416504859924,0.4367821514606476,-1.2535922527313232,0.7719802260398865,-0.9701507091522217,-0.4109939634799957,0.3158804476261139,0.42134636640548706,0.7461459636688232,0.37968993186950684,0.5416567921638489,0.19976910948753357,-0.14997103810310364,-0.31420236825942993,0.4761020541191101,-0.31088775396347046,-0.05266089737415314,-0.24712081253528595,0.36889293789863586,-0.6568800210952759,-1.0639612674713135,1.112052321434021,0.747574508190155,0.6263133883476257,-1.714720606803894,0.6271060109138489,-1.1598702669143677,-0.48301973938941956,-0.23270559310913086,-0.7405353784561157,0.28240644931793213,0.3502078652381897,0.4365765154361725]],"biases":[0.03933151066303253,0.8846378922462463,0.7109386920928955,-0.41809749603271484,-0.5405515432357788,-0.03134921193122864,0.7764275074005127,0.9463706016540527]},{"weights":[[3.501993417739868,-0.9826452732086182,-2.414670467376709,3.8974668979644775,-3.1803834438323975,-1.0629314184188843,-2.1922099590301514,1.6855080127716064],[-0.2623208463191986,-4.776238918304443,-0.023315513506531715,-3.0199310779571533,2.124068260192871,4.592911720275879,-3.925567150115967,-0.8996402025222778],[-3.8797214031219482,2.6067323684692383,2.878848075866699,0.3154393434524536,0.26791808009147644,-3.4688620567321777,2.5956428050994873,-2.3412365913391113],[0.9873796105384827,-2.0258193016052246,1.658392310142517,1.0811947584152222,-4.103771686553955,0.6110342144966125,-2.719625949859619,3.297267436981201],[2.1072890758514404,1.630707025527954,-2.9857630729675293,2.4655845165252686,2.4735267162323,-1.901716709136963,0.3460609018802643,-1.7521934509277344],[-3.636993408203125,0.5836990475654602,5.224507808685303,-2.0720152854919434,0.1440291702747345,0.11854348331689835,1.043569803237915,1.0446127653121948],[-2.2446863651275635,0.672676682472229,0.9661834239959717,0.917002260684967,2.5304441452026367,-2.809943437576294,0.6392676830291748,-4.074171543121338],[2.459425687789917,-0.4862902760505676,-3.5069737434387207,-1.9498156309127808,2.56685471534729,3.430001735687256,0.8731132745742798,-1.265708088874817]],"biases":[-0.16000190377235413,0.16810698807239532,0.16673822700977325,0.39471492171287537,-0.17911645770072937,0.5022774934768677,-0.8582378625869751,-0.042325250804424286]},{"weights":[[-3.984964609146118,-3.158515453338623,4.290927886962891,-1.2662417888641357,-4.00468111038208,2.117786407470703,-5.48113489151001,-3.0427486896514893],[-3.278059482574463,-5.313909530639648,-2.5362942218780518,-4.121763706207275,1.6557718515396118,1.0011062622070312,-2.747518301010132,3.0510036945343018],[4.633705139160156,-4.4076828956604,-1.1496176719665527,3.037078380584717,-0.8672052621841431,-0.48720553517341614,-1.538452386856079,-5.697494029998779],[-2.0400235652923584,3.4599609375,-3.106506586074829,1.6578880548477173,-5.24103307723999,1.9560803174972534,-2.0527307987213135,-2.4421658515930176],[4.313656806945801,0.6651967167854309,-5.193264484405518,3.1574785709381104,-2.0083274841308594,-4.902044296264648,-2.8636255264282227,-0.0019641618710011244],[-3.345945358276367,-2.6999056339263916,0.5373802185058594,-3.7731363773345947,0.40782561898231506,0.21666006743907928,5.287449836730957,-2.765967607498169],[2.6711175441741943,-4.706254005432129,0.6503904461860657,-2.8377277851104736,2.5833749771118164,-5.429794788360596,-0.617508053779602,-0.5445981025695801],[0.16856831312179565,-5.158254623413086,-4.236746788024902,1.8291449546813965,-3.5115644931793213,1.2166417837142944,-1.4232556819915771,2.2822930812835693],[-3.2598912715911865,2.8299055099487305,-3.4192702770233154,-3.6117098331451416,1.2719823122024536,-4.459536552429199,-1.5307302474975586,2.273773193359375],[-5.635196208953857,3.4750072956085205,1.5748770236968994,-4.571418285369873,-3.452731132507324,1.0838991403579712,0.060343943536281586,1.868409276008606]],"biases":[-0.38794854283332825,-1.1255972385406494,-2.2357375621795654,-2.4799485206604004,-2.9887168407440186,-2.514197587966919,-1.017749309539795,-1.6738108396530151,-1.3871785402297974,-3.710393190383911]}],"inputLookup":null,"inputLookupLength":0,"outputLookup":null,"outputLookupLength":0,"options":{"inputSize":0,"outputSize":0,"binaryThresh":0.5,"activation":"sigmoid","iterations":20000,"errorThresh":0.0005,"log":true,"logPeriod":100,"hiddenLayers":[8,8]},"trainOpts":{"activation":"sigmoid","iterations":20000,"errorThresh":0.0005,"log":true,"logPeriod":100,"leakyReluAlpha":0.01,"learningRate":0.3,"momentum":0.1,"callbackPeriod":10,"timeout":"Infinity","beta1":0.9,"beta2":0.999,"epsilon":1e-8}}