{
    "type": "NeuralNetwork",
    "sizes": [
        52,
        8,
        8,
        9
    ],
    "layers": [
        {
            "weights": [],
            "biases": []
        },
        {
            "weights": [
                [
                    0.8690861463546753,
                    0.782394528388977,
                    -0.90876305103302,
                    1.4082270860671997,
                    -0.18642005324363708,
                    -1.9458081722259521,
                    0.8039006590843201,
                    -0.38443347811698914,
                    0.4724330008029938,
                    -0.45409926772117615,
                    -0.08925218880176544,
                    0.5422102808952332,
                    -1.3875131607055664,
                    1.292971134185791,
                    -1.3461787700653076,
                    -1.2328757047653198,
                    -0.37877631187438965,
                    -1.418796181678772,
                    0.25386616587638855,
                    0.2706528306007385,
                    0.8798995614051819,
                    0.5096457004547119,
                    0.49674317240715027,
                    0.001097599626518786,
                    -0.7422516942024231,
                    0.5758618712425232,
                    0.8588541746139526,
                    -0.47219565510749817,
                    -0.39033040404319763,
                    0.9441835284233093,
                    0.39682069420814514,
                    -0.08071534335613251,
                    1.5929272174835205,
                    0.21392153203487396,
                    1.099762201309204,
                    0.378507137298584,
                    0.5444632768630981,
                    0.48223328590393066,
                    -0.4288370907306671,
                    -0.5837626457214355,
                    -0.18083196878433228,
                    0.6363410949707031,
                    -0.9529086351394653,
                    1.2756391763687134,
                    -0.05443072319030762,
                    0.40242767333984375,
                    -0.03080909699201584,
                    -0.6806648969650269,
                    0.9332444071769714,
                    0.14748305082321167,
                    0.0770244151353836,
                    -0.3934524357318878
                ],
                [
                    -0.5884256362915039,
                    -0.33417001366615295,
                    -0.5067600011825562,
                    0.6711474061012268,
                    0.020378071814775467,
                    -0.04440503939986229,
                    -0.3501449525356293,
                    -0.0907406434416771,
                    0.28979867696762085,
                    -0.07783037424087524,
                    -0.15029576420783997,
                    0.2686624526977539,
                    -0.7857652902603149,
                    0.7789482474327087,
                    -0.42627882957458496,
                    -0.6321269869804382,
                    -0.5920385718345642,
                    -0.47561660408973694,
                    -0.03839678689837456,
                    0.38160496950149536,
                    0.21596971154212952,
                    0.17664842307567596,
                    0.2864401042461395,
                    0.20494602620601654,
                    -0.5987456440925598,
                    -0.16995631158351898,
                    0.5903310775756836,
                    -0.2773655354976654,
                    0.43328776955604553,
                    0.5378245115280151,
                    0.42527708411216736,
                    0.15084020793437958,
                    0.8806861042976379,
                    0.14245109260082245,
                    0.7263718843460083,
                    0.5464362502098083,
                    -0.010169272311031818,
                    0.3090868592262268,
                    -1.326858401298523,
                    -0.26326411962509155,
                    -0.5809615254402161,
                    1.3305397033691406,
                    -0.3371880054473877,
                    0.7642339468002319,
                    -0.20953939855098724,
                    0.37829411029815674,
                    -0.28803732991218567,
                    0.35494694113731384,
                    0.6520942449569702,
                    0.09453628957271576,
                    0.2217082381248474,
                    -0.27914902567863464
                ],
                [
                    -0.8978431224822998,
                    -0.7044157981872559,
                    0.01519099809229374,
                    0.5592567920684814,
                    0.4415249824523926,
                    0.8856874704360962,
                    0.18997934460639954,
                    0.08989956229925156,
                    -0.23788811266422272,
                    0.1736917793750763,
                    -0.0443856343626976,
                    -0.6803823113441467,
                    0.5098007917404175,
                    0.47617682814598083,
                    0.26262038946151733,
                    0.4751141667366028,
                    -1.243133306503296,
                    0.5131093263626099,
                    0.2509923577308655,
                    -0.11682821810245514,
                    -1.0356528759002686,
                    -0.423848956823349,
                    0.32426682114601135,
                    0.20412597060203552,
                    -0.6441481709480286,
                    -0.019069718196988106,
                    -0.07325311750173569,
                    0.054508376866579056,
                    0.758750319480896,
                    1.5712385177612305,
                    0.18608511984348297,
                    0.5305517315864563,
                    0.7553046345710754,
                    -0.01412188820540905,
                    0.5709120631217957,
                    0.1812712848186493,
                    -0.6529127359390259,
                    -0.6753114461898804,
                    -2.1658742427825928,
                    -0.7241472005844116,
                    -0.9645622968673706,
                    1.025328516960144,
                    0.35752612352371216,
                    -0.19687452912330627,
                    0.10865108668804169,
                    0.3129318058490753,
                    0.048113465309143066,
                    1.1726990938186646,
                    -0.17485931515693665,
                    0.09215281903743744,
                    -0.07775811105966568,
                    -0.17259351909160614
                ],
                [
                    -1.0015076398849487,
                    -0.8748708367347717,
                    0.7203563451766968,
                    -0.6752174496650696,
                    0.2058020383119583,
                    1.989301085472107,
                    -0.9297764897346497,
                    0.4334029257297516,
                    -0.4359738826751709,
                    0.2896718680858612,
                    0.35825103521347046,
                    -0.7023224830627441,
                    1.0472573041915894,
                    -0.8662517666816711,
                    1.1310802698135376,
                    1.1669334173202515,
                    0.18910451233386993,
                    1.1165883541107178,
                    -0.184089794754982,
                    -0.20630846917629242,
                    -1.3054239749908447,
                    -0.3859296143054962,
                    -0.210201695561409,
                    0.2918443977832794,
                    0.5614770650863647,
                    -0.5728856325149536,
                    -0.7553615570068359,
                    0.19878046214580536,
                    0.16918504238128662,
                    -0.8886788487434387,
                    -0.1544136106967926,
                    -0.15626826882362366,
                    -1.4132487773895264,
                    -0.3774354159832001,
                    -0.48532605171203613,
                    -0.10643328726291656,
                    -0.7077352404594421,
                    -0.3122207224369049,
                    0.21066634356975555,
                    0.5645033121109009,
                    -0.2460470050573349,
                    -0.38149210810661316,
                    0.7811998724937439,
                    -1.3400195837020874,
                    -0.06968215852975845,
                    -0.3140655755996704,
                    0.081328846514225,
                    1.104018211364746,
                    -0.9287976026535034,
                    0.05793773755431175,
                    0.1478055715560913,
                    0.1834806650876999
                ],
                [
                    -1.7974520921707153,
                    -0.9940360188484192,
                    0.579062819480896,
                    0.6024591326713562,
                    0.07903242111206055,
                    1.0442460775375366,
                    -1.171595811843872,
                    0.47231239080429077,
                    -0.15351903438568115,
                    0.3817548453807831,
                    -0.04718427360057831,
                    -0.687194287776947,
                    1.1195708513259888,
                    0.6859716773033142,
                    1.1474775075912476,
                    1.0459257364273071,
                    -0.770733118057251,
                    1.0421605110168457,
                    0.0032004076056182384,
                    -0.1344478577375412,
                    -0.9064931273460388,
                    -0.5103357434272766,
                    0.45484891533851624,
                    0.5858853459358215,
                    0.03147943690419197,
                    -0.6444282531738281,
                    -0.6477313041687012,
                    0.2655586302280426,
                    -0.0014758051838725805,
                    -1.8146533966064453,
                    -0.4363992512226105,
                    -0.1717873513698578,
                    -1.4275178909301758,
                    -0.3254663944244385,
                    0.6998639106750488,
                    0.32195839285850525,
                    -0.8943719267845154,
                    -0.4946663975715637,
                    -1.6304408311843872,
                    0.10336964577436447,
                    -0.8039718866348267,
                    0.06521730870008469,
                    0.7195432782173157,
                    -2.0856773853302,
                    -0.22691240906715393,
                    0.431357741355896,
                    0.0521862767636776,
                    1.874871015548706,
                    -0.9923170208930969,
                    0.0684010237455368,
                    -0.12678728997707367,
                    -0.0863754153251648
                ],
                [
                    -0.049774982035160065,
                    -0.1254575252532959,
                    0.5483003258705139,
                    -1.1379764080047607,
                    -0.00689953425899148,
                    0.9557697772979736,
                    0.47303739190101624,
                    0.03435079753398895,
                    -0.5105478167533875,
                    0.28502747416496277,
                    -0.018474865704774857,
                    -0.5744515061378479,
                    0.6838624477386475,
                    -0.9173816442489624,
                    0.5927133560180664,
                    0.5736774206161499,
                    0.14359401166439056,
                    0.4114663898944855,
                    0.18089228868484497,
                    -0.6226576566696167,
                    -0.8674240708351135,
                    -0.4940643012523651,
                    -0.13529597222805023,
                    -0.1908024251461029,
                    0.02502056583762169,
                    0.27024051547050476,
                    -1.29009211063385,
                    0.30830132961273193,
                    0.46107420325279236,
                    1.8528714179992676,
                    -0.36545369029045105,
                    0.4969146251678467,
                    0.27832144498825073,
                    -0.18817155063152313,
                    -0.3093363046646118,
                    -0.26239222288131714,
                    -0.4154599606990814,
                    -0.7981122136116028,
                    0.24517813324928284,
                    0.009611464105546474,
                    -0.060399871319532394,
                    -1.1393940448760986,
                    0.37669479846954346,
                    -0.7571636438369751,
                    0.41191816329956055,
                    -0.1883527785539627,
                    0.10158630460500717,
                    -0.3296431601047516,
                    -0.6840843558311462,
                    0.23152928054332733,
                    -0.3197500705718994,
                    0.14267660677433014
                ],
                [
                    0.12862727046012878,
                    -0.40447306632995605,
                    0.6542099714279175,
                    -1.068076252937317,
                    0.4034050703048706,
                    1.115659236907959,
                    0.4390430748462677,
                    0.18261346220970154,
                    -0.4087047576904297,
                    0.39571183919906616,
                    0.15160515904426575,
                    -0.6470949053764343,
                    0.8456541895866394,
                    -1.1071319580078125,
                    0.8137166500091553,
                    0.6811191439628601,
                    -0.29633957147598267,
                    0.8365070223808289,
                    0.4191933572292328,
                    -0.4401051700115204,
                    -1.4204902648925781,
                    -0.5667186975479126,
                    -0.33086124062538147,
                    -0.20641233026981354,
                    -0.095789834856987,
                    0.12757650017738342,
                    -1.1480987071990967,
                    0.4547383189201355,
                    0.9861542582511902,
                    2.111943483352661,
                    -0.35029473900794983,
                    0.4389621913433075,
                    0.5765675902366638,
                    -0.09704166650772095,
                    -0.5858486890792847,
                    -0.4794407784938812,
                    -0.5563965439796448,
                    -0.5107368230819702,
                    -0.6438404321670532,
                    -0.02462855726480484,
                    -0.2636803388595581,
                    -0.8767892718315125,
                    0.470897376537323,
                    -0.5283381342887878,
                    0.24798548221588135,
                    -0.12510086596012115,
                    0.42687901854515076,
                    -0.02081974782049656,
                    -1.1216529607772827,
                    0.3291739821434021,
                    -0.20276090502738953,
                    0.15346166491508484
                ],
                [
                    1.650288701057434,
                    1.3608949184417725,
                    -0.10061945021152496,
                    0.06509887427091599,
                    -1.081220269203186,
                    -1.8024076223373413,
                    0.7881857752799988,
                    0.0033163991756737232,
                    0.20858918130397797,
                    0.18866370618343353,
                    0.3207108974456787,
                    0.7748949527740479,
                    0.3114601671695709,
                    0.02873792126774788,
                    -0.18306519091129303,
                    -0.19015921652317047,
                    1.35269033908844,
                    -0.08988603949546814,
                    0.4203486144542694,
                    -0.40026724338531494,
                    1.3435039520263672,
                    0.18002595007419586,
                    0.12590011954307556,
                    -0.12055815756320953,
                    0.41203778982162476,
                    0.5381392240524292,
                    -0.3487481474876404,
                    0.08051596581935883,
                    -1.6810009479522705,
                    -1.5008538961410522,
                    -0.34739238023757935,
                    -0.6276305913925171,
                    -0.9745476841926575,
                    -0.20583564043045044,
                    0.13318534195423126,
                    -0.42289796471595764,
                    0.5643900036811829,
                    0.32363080978393555,
                    2.374811887741089,
                    0.7235817313194275,
                    0.9913327693939209,
                    -2.1300313472747803,
                    0.25350043177604675,
                    -0.5423392057418823,
                    0.19653965532779694,
                    0.1412501037120819,
                    0.03411892056465149,
                    -1.7185620069503784,
                    -0.45655936002731323,
                    -0.3228253722190857,
                    0.3919101059436798,
                    0.3465746343135834
                ]
            ],
            "biases": [
                -0.4803851842880249,
                -0.5245712399482727,
                0.19887910783290863,
                0.5881867408752441,
                1.0027856826782227,
                0.1117352619767189,
                -0.37164831161499023,
                1.2937885522842407
            ]
        },
        {
            "weights": [
                [
                    -2.080178737640381,
                    -1.6731748580932617,
                    -2.8199522495269775,
                    1.4574929475784302,
                    3.297476053237915,
                    -1.6998097896575928,
                    -2.4787721633911133,
                    5.296139240264893
                ],
                [
                    -2.5328755378723145,
                    0.43117135763168335,
                    2.6321873664855957,
                    1.9055062532424927,
                    2.071892261505127,
                    1.1003694534301758,
                    2.2200045585632324,
                    -6.200508117675781
                ],
                [
                    3.445539951324463,
                    1.5825496912002563,
                    1.439887523651123,
                    -2.667732000350952,
                    -1.5535141229629517,
                    -1.290265440940857,
                    -1.1683616638183594,
                    -0.4173963963985443
                ],
                [
                    2.6854190826416016,
                    1.9593935012817383,
                    -1.001875400543213,
                    -2.1003100872039795,
                    -1.2166000604629517,
                    -3.33121919631958,
                    -3.6474874019622803,
                    -1.1953452825546265
                ],
                [
                    -4.006910800933838,
                    -2.7338380813598633,
                    -1.0097299814224243,
                    2.589573621749878,
                    -0.30410030484199524,
                    2.278782844543457,
                    2.430448055267334,
                    1.5920305252075195
                ],
                [
                    1.4331423044204712,
                    0.12736019492149353,
                    -0.34312260150909424,
                    -1.8616414070129395,
                    -4.475737571716309,
                    1.647702932357788,
                    1.9820895195007324,
                    1.1360522508621216
                ],
                [
                    1.2156429290771484,
                    -1.179482102394104,
                    -3.485478639602661,
                    -1.3467438220977783,
                    -3.3931334018707275,
                    -0.0781300961971283,
                    -0.9987214803695679,
                    4.460511684417725
                ],
                [
                    -2.0837409496307373,
                    0.4004988670349121,
                    0.2507454752922058,
                    2.4882025718688965,
                    1.9506771564483643,
                    0.258655846118927,
                    0.5090953707695007,
                    -2.0419745445251465
                ]
            ],
            "biases": [
                0.5844597816467285,
                -1.1302844285964966,
                0.7026886940002441,
                0.752720832824707,
                -0.7328389286994934,
                0.19717736542224884,
                0.27522462606430054,
                -0.35818687081336975
            ]
        },
        {
            "weights": [
                [
                    5.261810779571533,
                    0.3694210946559906,
                    -4.477156162261963,
                    -3.296931028366089,
                    1.8331379890441895,
                    -3.4551076889038086,
                    -5.127597808837891,
                    0.06611480563879013
                ],
                [
                    3.6117734909057617,
                    -3.882805824279785,
                    0.4383164346218109,
                    -2.539973020553589,
                    -4.677974700927734,
                    -3.4420225620269775,
                    -3.3014488220214844,
                    -0.9884679913520813
                ],
                [
                    2.8448169231414795,
                    -6.090934753417969,
                    -4.687442302703857,
                    -2.990963935852051,
                    1.7493617534637451,
                    -0.5918030142784119,
                    2.9353296756744385,
                    -1.8140448331832886
                ],
                [
                    2.244858741760254,
                    -5.155145645141602,
                    0.11724088340997696,
                    2.205034017562866,
                    -3.8712682723999023,
                    -0.16565458476543427,
                    3.4780473709106445,
                    -3.7867953777313232
                ],
                [
                    -2.0840036869049072,
                    3.1102802753448486,
                    0.8148979544639587,
                    1.350214958190918,
                    -3.389849901199341,
                    -6.1813554763793945,
                    -2.5911264419555664,
                    0.2932402193546295
                ],
                [
                    -5.635178089141846,
                    -2.335344076156616,
                    1.9435698986053467,
                    4.204527378082275,
                    -2.6485579013824463,
                    -0.5341789722442627,
                    -1.8039908409118652,
                    -2.972477436065674
                ],
                [
                    -3.8736517429351807,
                    -4.954081058502197,
                    0.5227677226066589,
                    -4.476140975952148,
                    -0.4963762164115906,
                    3.2483999729156494,
                    1.1654282808303833,
                    -3.534165382385254
                ],
                [
                    -3.648700714111328,
                    3.3521196842193604,
                    0.5737123489379883,
                    -3.974030017852783,
                    -4.146075248718262,
                    3.02401065826416,
                    -3.3897311687469482,
                    -2.195626735687256
                ],
                [
                    -6.700766086578369,
                    3.234804630279541,
                    -3.8377697467803955,
                    -2.615865707397461,
                    1.2745293378829956,
                    -1.9675147533416748,
                    -2.9198455810546875,
                    1.954436182975769
                ]
            ],
            "biases": [
                -3.3722996711730957,
                1.465023398399353,
                -1.8318125009536743,
                -4.154489994049072,
                -1.3228380680084229,
                -1.5627286434173584,
                -0.6916438937187195,
                -2.160029649734497,
                -1.9411120414733887
            ]
        }
    ],
    "inputLookup": null,
    "inputLookupLength": 0,
    "outputLookup": null,
    "outputLookupLength": 0,
    "options": {
        "inputSize": 0,
        "outputSize": 0,
        "binaryThresh": 0.5,
        "activation": "sigmoid",
        "iterations": 20000,
        "errorThresh": 0.0005,
        "log": true,
        "logPeriod": 100,
        "hiddenLayers": [
            8,
            8
        ]
    },
    "trainOpts": {
        "activation": "sigmoid",
        "iterations": 20000,
        "errorThresh": 0.0005,
        "log": true,
        "logPeriod": 100,
        "leakyReluAlpha": 0.01,
        "learningRate": 0.3,
        "momentum": 0.1,
        "callbackPeriod": 10,
        "timeout": "Infinity",
        "beta1": 0.9,
        "beta2": 0.999,
        "epsilon": 1e-8
    }
}