{
    "type": "NeuralNetwork",
    "sizes": [
        67,
        8,
        8,
        12
    ],
    "layers": [
        {
            "weights": [],
            "biases": []
        },
        {
            "weights": [
                [
                    -0.8575267195701599,
                    -0.8143236041069031,
                    -0.7395585179328918,
                    0.7578575015068054,
                    0.29822206497192383,
                    0.7225528359413147,
                    -2.134005308151245,
                    0.7377395629882812,
                    -0.6167134046554565,
                    -0.4452822804450989,
                    0.9242970943450928,
                    -0.22635474801063538,
                    0.3589446544647217,
                    0.3053041994571686,
                    -0.28528496623039246,
                    0.029705004766583443,
                    0.04325957968831062,
                    -0.5503340363502502,
                    -1.0774635076522827,
                    0.7073711156845093,
                    -1.2496193647384644,
                    -1.2420575618743896,
                    0.23784376680850983,
                    0.3607131838798523,
                    -1.298840045928955,
                    -0.7462795972824097,
                    0.4320199191570282,
                    0.10912597179412842,
                    1.1494641304016113,
                    -0.834786593914032,
                    -0.36040326952934265,
                    0.2180265188217163,
                    1.5591285228729248,
                    0.1080344021320343,
                    0.5924454927444458,
                    -0.35240721702575684,
                    0.09613663703203201,
                    -0.3867429494857788,
                    0.9883949756622314,
                    -1.87096107006073,
                    0.23975922167301178,
                    0.7568353414535522,
                    0.276106595993042,
                    0.27005812525749207,
                    -0.41576364636421204,
                    1.8406143188476562,
                    0.16519783437252045,
                    0.7269092202186584,
                    0.524878203868866,
                    -0.5416980981826782,
                    -0.18837064504623413,
                    0.46819770336151123,
                    0.6045470833778381,
                    0.23172955214977264,
                    1.5699970722198486,
                    -0.711958110332489,
                    0.5232171416282654,
                    0.4803917407989502,
                    0.2078046351671219,
                    0.7769516706466675,
                    1.0089597702026367,
                    -0.5381203889846802,
                    0.7032298445701599,
                    1.5917142629623413,
                    0.39873725175857544,
                    0.4058528542518616,
                    0.01069045253098011
                ],
                [
                    1.5791540145874023,
                    0.8822351694107056,
                    0.527197539806366,
                    -0.8720777034759521,
                    -0.7109795212745667,
                    -0.7501040697097778,
                    -1.5721826553344727,
                    0.6020705103874207,
                    0.7498032450675964,
                    0.28116264939308167,
                    -0.8283889293670654,
                    0.38420021533966064,
                    0.5496962666511536,
                    0.19242149591445923,
                    0.11481141299009323,
                    -1.0774484872817993,
                    0.09363798797130585,
                    0.5873993039131165,
                    0.6373296976089478,
                    -0.7096267342567444,
                    0.6526170372962952,
                    0.715179979801178,
                    0.775363564491272,
                    -0.42149418592453003,
                    0.6428046226501465,
                    0.2824440896511078,
                    -0.21765099465847015,
                    -0.18856261670589447,
                    -0.9499841928482056,
                    1.0644872188568115,
                    0.3969508707523346,
                    -0.12748728692531586,
                    -0.6270150542259216,
                    0.5059985518455505,
                    0.056059714406728745,
                    0.4041630029678345,
                    0.1766270250082016,
                    0.11914242058992386,
                    -1.8172266483306885,
                    -0.5469873547554016,
                    -0.3490757942199707,
                    0.5704038739204407,
                    -0.6112240552902222,
                    -0.566981852054596,
                    0.24079203605651855,
                    -0.5216376185417175,
                    -0.2553641200065613,
                    -0.3420362174510956,
                    -0.15726298093795776,
                    0.5967106819152832,
                    0.5336671471595764,
                    1.566670536994934,
                    -0.0403231643140316,
                    0.5926176309585571,
                    -1.1248793601989746,
                    0.5023958683013916,
                    -2.2802093029022217,
                    -0.3845498263835907,
                    -0.18094192445278168,
                    -0.3721500337123871,
                    -0.9555537104606628,
                    0.38615089654922485,
                    0.9319480657577515,
                    0.07708799093961716,
                    -0.30937206745147705,
                    -0.0009647798724472523,
                    0.27647504210472107
                ],
                [
                    -1.590734601020813,
                    -0.8204061388969421,
                    0.25883370637893677,
                    1.0847045183181763,
                    -0.16247595846652985,
                    0.6264906525611877,
                    -0.8028736710548401,
                    -1.0767055749893188,
                    -0.9079806208610535,
                    0.18085543811321259,
                    0.7863767743110657,
                    -0.7244274616241455,
                    -1.0840121507644653,
                    -0.3603402078151703,
                    -0.017207685858011246,
                    0.8261052966117859,
                    -0.07163254171609879,
                    -0.8969607949256897,
                    0.15787488222122192,
                    1.138805627822876,
                    -0.1419677436351776,
                    -0.14713388681411743,
                    -0.020154178142547607,
                    0.13005879521369934,
                    -0.17069338262081146,
                    -0.7812308073043823,
                    0.18268680572509766,
                    -0.48901066184043884,
                    0.6538925170898438,
                    -1.3415971994400024,
                    -0.7424331903457642,
                    0.5288233757019043,
                    0.6427910923957825,
                    -0.04226144030690193,
                    0.9118794202804565,
                    -0.6409056186676025,
                    -1.2559430599212646,
                    0.11451150476932526,
                    -0.0945352166891098,
                    -1.7295581102371216,
                    -0.22699087858200073,
                    -0.8726973533630371,
                    0.5202128291130066,
                    0.4491535723209381,
                    -1.174674391746521,
                    1.0124309062957764,
                    -0.3140687346458435,
                    0.9174676537513733,
                    -0.27223843336105347,
                    -0.853992760181427,
                    -0.933811366558075,
                    -0.011516944505274296,
                    0.602706253528595,
                    0.08431483805179596,
                    -0.2670300304889679,
                    0.061925314366817474,
                    -0.10693750530481339,
                    0.1478290557861328,
                    0.430849552154541,
                    0.32753610610961914,
                    0.7026077508926392,
                    -0.6167781352996826,
                    -0.008804356679320335,
                    -1.4221707582473755,
                    0.3131563067436218,
                    0.4450571835041046,
                    -0.10361949354410172
                ],
                [
                    0.9767637252807617,
                    0.8077556490898132,
                    0.7191805243492126,
                    -1.078857183456421,
                    -0.631676197052002,
                    -1.0681341886520386,
                    1.2792279720306396,
                    0.1202642172574997,
                    0.6436176896095276,
                    0.3818957507610321,
                    -1.0762864351272583,
                    0.1928466111421585,
                    0.41788744926452637,
                    0.005203373730182648,
                    0.25367802381515503,
                    -1.001365065574646,
                    0.030779216438531876,
                    0.4740470349788666,
                    1.1334892511367798,
                    -1.1960325241088867,
                    1.0029677152633667,
                    1.0253816843032837,
                    0.38911402225494385,
                    -0.5563566088676453,
                    1.0465717315673828,
                    0.4226071834564209,
                    -0.34621164202690125,
                    -0.2045656442642212,
                    -1.3114076852798462,
                    0.8890195488929749,
                    0.265674352645874,
                    -0.34566330909729004,
                    -1.3783899545669556,
                    0.4828556478023529,
                    -0.3627367913722992,
                    0.4540594518184662,
                    0.22312352061271667,
                    0.32276588678359985,
                    -0.8555296063423157,
                    1.7273313999176025,
                    -0.47443220019340515,
                    0.24477733671665192,
                    -0.446180135011673,
                    -0.6095080375671387,
                    0.7160052061080933,
                    -0.48263633251190186,
                    -0.3356643617153168,
                    -0.7833868265151978,
                    -0.13837124407291412,
                    0.5289416313171387,
                    0.17896154522895813,
                    0.9450326561927795,
                    -0.18202097713947296,
                    0.28392311930656433,
                    -1.3267256021499634,
                    0.5649559497833252,
                    -1.639324426651001,
                    -0.6841110587120056,
                    -0.21471412479877472,
                    -0.5835901498794556,
                    -1.1347074508666992,
                    0.303786963224411,
                    0.6430028676986694,
                    -0.44672635197639465,
                    -0.4123733341693878,
                    -0.12035364657640457,
                    -0.02430177666246891
                ],
                [
                    -0.2939646244049072,
                    -0.3480187654495239,
                    0.7081863284111023,
                    0.05289113521575928,
                    -0.02900858223438263,
                    -0.2862710654735565,
                    1.0931720733642578,
                    -1.1540862321853638,
                    0.1650305837392807,
                    0.39898815751075745,
                    -1.192923665046692,
                    -0.6384403109550476,
                    -0.8358601927757263,
                    -0.3721824288368225,
                    0.34965789318084717,
                    2.0562314987182617,
                    0.3870782256126404,
                    -0.5809873342514038,
                    1.4448800086975098,
                    -0.0878676325082779,
                    1.307936429977417,
                    1.229308843612671,
                    -0.4113762080669403,
                    -0.2775500416755676,
                    1.3902469873428345,
                    0.014623615890741348,
                    -0.3687405288219452,
                    -0.04561110958456993,
                    -1.2175359725952148,
                    -1.2764390707015991,
                    -0.6218081116676331,
                    0.20745784044265747,
                    -2.6403696537017822,
                    -0.5271710157394409,
                    -0.1541799008846283,
                    -0.17598871886730194,
                    -1.5587472915649414,
                    0.2944454252719879,
                    0.20304831862449646,
                    1.8063079118728638,
                    -0.019455157220363617,
                    -0.7964503169059753,
                    -0.15749485790729523,
                    -0.1458989679813385,
                    0.5326896905899048,
                    0.6123881340026855,
                    -0.24082893133163452,
                    0.16807638108730316,
                    -0.5068995952606201,
                    -0.6355358958244324,
                    -0.8129523992538452,
                    -0.7671568393707275,
                    -0.15533532202243805,
                    -0.3478265702724457,
                    -0.7235988974571228,
                    0.566110372543335,
                    0.045424286276102066,
                    0.03187406063079834,
                    -0.013124113902449608,
                    -0.5340390205383301,
                    -0.44073113799095154,
                    0.16180385649204254,
                    -1.0823863744735718,
                    -1.7488856315612793,
                    -0.024833809584379196,
                    0.22883784770965576,
                    0.4601517617702484
                ],
                [
                    0.053128816187381744,
                    0.18441253900527954,
                    0.04736487939953804,
                    -0.7511895298957825,
                    0.4074181914329529,
                    -0.46901607513427734,
                    0.939329981803894,
                    -0.3589347004890442,
                    0.6627538204193115,
                    0.17717203497886658,
                    -0.757495105266571,
                    0.04234069213271141,
                    0.023499302566051483,
                    -0.04625745490193367,
                    0.1440383493900299,
                    0.7477314472198486,
                    0.28730151057243347,
                    -0.37399646639823914,
                    0.7205758690834045,
                    -0.5998633503913879,
                    0.6276030540466309,
                    0.5030332207679749,
                    -0.5247857570648193,
                    -0.37218692898750305,
                    0.4894735813140869,
                    0.2353632152080536,
                    -0.2592146396636963,
                    0.3786608874797821,
                    -0.81857830286026,
                    -0.20626500248908997,
                    -0.15781904757022858,
                    -0.3195739686489105,
                    -1.491830825805664,
                    -0.3635145425796509,
                    -0.577312707901001,
                    0.14472787082195282,
                    -0.16559354960918427,
                    0.25666719675064087,
                    0.669318675994873,
                    2.30008602142334,
                    0.1514950543642044,
                    -0.3425452411174774,
                    0.028623925521969795,
                    0.022977259010076523,
                    0.5974474549293518,
                    0.7257510423660278,
                    0.30443474650382996,
                    -0.625281035900116,
                    -0.04249649867415428,
                    -0.06719556450843811,
                    -0.10480701923370361,
                    -0.8600152730941772,
                    -0.4626333713531494,
                    -0.4256412982940674,
                    0.9484343528747559,
                    0.15164174139499664,
                    1.5269839763641357,
                    0.11053916811943054,
                    -0.20777086913585663,
                    -0.5103287696838379,
                    -0.4241775870323181,
                    0.387686550617218,
                    -0.37521693110466003,
                    -0.12465588003396988,
                    0.24733267724514008,
                    -0.2705637514591217,
                    0.26472732424736023
                ],
                [
                    -0.09043066203594208,
                    0.3771774172782898,
                    -0.2773347496986389,
                    0.2301865965127945,
                    0.10550636053085327,
                    -0.6859630942344666,
                    1.071542739868164,
                    -0.4863247871398926,
                    0.25845247507095337,
                    0.0209193117916584,
                    -0.5942299365997314,
                    0.21537555754184723,
                    -0.11811147630214691,
                    -0.09726927429437637,
                    -0.0659809410572052,
                    -0.08784760534763336,
                    0.10628432780504227,
                    0.1593046337366104,
                    0.1712830811738968,
                    0.16559568047523499,
                    0.012723177671432495,
                    0.11406504362821579,
                    -0.9535858631134033,
                    -0.39822152256965637,
                    0.10369738191366196,
                    0.40838369727134705,
                    -0.3005639910697937,
                    0.5349709987640381,
                    -0.575033962726593,
                    0.1331510692834854,
                    0.1370040476322174,
                    0.29767096042633057,
                    -1.3914926052093506,
                    0.2574617564678192,
                    -0.5508052110671997,
                    0.14224036037921906,
                    1.0797377824783325,
                    -0.09125503897666931,
                    0.03290329501032829,
                    1.932995319366455,
                    0.28251907229423523,
                    -0.3518298268318176,
                    -0.25376996397972107,
                    -0.25912827253341675,
                    0.4501200318336487,
                    0.44492900371551514,
                    0.052569955587387085,
                    0.276107519865036,
                    0.3069797158241272,
                    -0.07699049264192581,
                    0.6572087407112122,
                    -1.4687029123306274,
                    -0.7307854890823364,
                    -0.54387366771698,
                    1.5025535821914673,
                    -0.19060465693473816,
                    0.910913348197937,
                    -0.017383089289069176,
                    0.04334120452404022,
                    -0.4195886552333832,
                    -0.6431443691253662,
                    0.39137616753578186,
                    0.8513094186782837,
                    0.4300016462802887,
                    0.019227607175707817,
                    -0.16144119203090668,
                    -0.20913496613502502
                ],
                [
                    1.569516658782959,
                    0.8916745185852051,
                    -0.18059520423412323,
                    -0.5835233926773071,
                    -0.2518880367279053,
                    -0.3334512412548065,
                    -2.2169129848480225,
                    0.9810603260993958,
                    0.9113085865974426,
                    -0.11636650562286377,
                    0.15091964602470398,
                    0.4038650095462799,
                    0.6996818780899048,
                    0.23825883865356445,
                    0.010229778476059437,
                    -2.015787124633789,
                    0.08939564973115921,
                    0.6787228584289551,
                    -0.5876860618591309,
                    -0.7977445721626282,
                    -0.46074074506759644,
                    -0.48591122031211853,
                    0.8837437629699707,
                    0.02574451081454754,
                    -0.48176640272140503,
                    0.41000285744667053,
                    0.2635978162288666,
                    -0.5818979740142822,
                    0.16090285778045654,
                    0.9338327646255493,
                    0.5504639744758606,
                    -0.1977079063653946,
                    1.9412884712219238,
                    0.11812552064657211,
                    0.5226593613624573,
                    0.4347340762615204,
                    0.2990715205669403,
                    -0.018575765192508698,
                    -0.6659501791000366,
                    -0.44473734498023987,
                    -0.16113600134849548,
                    0.9169167876243591,
                    -0.11191274225711823,
                    -0.11335401982069016,
                    0.13464535772800446,
                    0.34477391839027405,
                    -0.21280896663665771,
                    -0.6775993704795837,
                    0.1309223473072052,
                    0.5001018643379211,
                    0.18265923857688904,
                    1.9541162252426147,
                    0.43748119473457336,
                    1.0167003870010376,
                    -1.117313027381897,
                    -0.061703719198703766,
                    -1.6365630626678467,
                    0.06589707732200623,
                    -0.3251323997974396,
                    -0.01349693350493908,
                    -0.07972998172044754,
                    0.35851120948791504,
                    0.470964252948761,
                    0.44304192066192627,
                    -0.11312201619148254,
                    0.07333745062351227,
                    0.1024385541677475
                ]
            ],
            "biases": [
                -0.055885229259729385,
                0.7896737456321716,
                1.457671046257019,
                0.8000118136405945,
                0.8452144861221313,
                -0.7723801136016846,
                -0.6693242788314819,
                -0.12715259194374084
            ]
        },
        {
            "weights": [
                [
                    0.8445077538490295,
                    4.061542510986328,
                    0.9392712712287903,
                    1.8025699853897095,
                    -2.422703742980957,
                    -2.916480541229248,
                    -2.363140106201172,
                    4.6921257972717285
                ],
                [
                    3.2074592113494873,
                    -4.551300048828125,
                    2.2831804752349854,
                    -5.171957969665527,
                    -0.9695532321929932,
                    -0.441980242729187,
                    -1.3684982061386108,
                    -2.182689666748047
                ],
                [
                    3.0244152545928955,
                    0.4065955579280853,
                    -1.596983790397644,
                    -1.281976580619812,
                    -5.529909610748291,
                    -2.4313857555389404,
                    -1.5537993907928467,
                    3.2752249240875244
                ],
                [
                    3.685316324234009,
                    -4.379000663757324,
                    2.602149486541748,
                    -3.878265857696533,
                    0.12944906949996948,
                    0.8502755761146545,
                    3.2508134841918945,
                    -2.9346344470977783
                ],
                [
                    -3.9347708225250244,
                    -1.0488981008529663,
                    0.7043689489364624,
                    1.48440682888031,
                    6.036265850067139,
                    2.2495007514953613,
                    -0.4268490970134735,
                    -3.056978464126587
                ],
                [
                    -0.4859261214733124,
                    0.5376513004302979,
                    -4.783880233764648,
                    1.6456387042999268,
                    -1.278795838356018,
                    2.940131187438965,
                    3.645291566848755,
                    -0.42104703187942505
                ],
                [
                    2.4362010955810547,
                    0.2127845734357834,
                    -1.5356886386871338,
                    -0.4989638030529022,
                    -0.9764788150787354,
                    1.1216678619384766,
                    -0.5053370594978333,
                    3.2969350814819336
                ],
                [
                    -5.55419397354126,
                    1.4858647584915161,
                    -5.86148738861084,
                    3.2424166202545166,
                    -0.6003565788269043,
                    1.2455096244812012,
                    1.7190231084823608,
                    0.36848482489585876
                ]
            ],
            "biases": [
                0.43640097975730896,
                0.30203020572662354,
                -0.22616742551326752,
                1.5728386640548706,
                -1.5481183528900146,
                0.13727393746376038,
                -0.47471338510513306,
                -1.6649829149246216
            ]
        },
        {
            "weights": [
                [
                    2.2996363639831543,
                    -2.6682369709014893,
                    -5.610370635986328,
                    -4.571253299713135,
                    5.2353620529174805,
                    -2.042806625366211,
                    -3.3502252101898193,
                    -4.335566520690918
                ],
                [
                    2.8015689849853516,
                    -4.265726089477539,
                    -4.300382137298584,
                    5.7964253425598145,
                    -2.064842939376831,
                    -4.468845367431641,
                    -2.823505163192749,
                    -2.646198272705078
                ],
                [
                    3.069676160812378,
                    -3.240030527114868,
                    -1.5512137413024902,
                    -4.457761764526367,
                    -3.9943206310272217,
                    -6.082087993621826,
                    1.5752760171890259,
                    -4.448498249053955
                ],
                [
                    0.6059155464172363,
                    -2.658437967300415,
                    -0.06625965982675552,
                    -3.5666427612304688,
                    -6.492489337921143,
                    0.1454649567604065,
                    -0.6968223452568054,
                    6.4223432540893555
                ],
                [
                    1.4768520593643188,
                    -4.803485870361328,
                    0.2061021327972412,
                    4.730458736419678,
                    -5.034176826477051,
                    2.7792723178863525,
                    -1.8943507671356201,
                    -2.2829995155334473
                ],
                [
                    -4.703304290771484,
                    1.2087891101837158,
                    -2.089735984802246,
                    1.6585947275161743,
                    -5.534879684448242,
                    2.1028449535369873,
                    0.4727265238761902,
                    -1.5495744943618774
                ],
                [
                    0.2610895335674286,
                    -2.845238208770752,
                    -6.085068702697754,
                    -6.284658908843994,
                    1.9486265182495117,
                    -0.010144458152353764,
                    0.3583773374557495,
                    5.323854923248291
                ],
                [
                    -4.778882026672363,
                    -5.13718843460083,
                    -2.6108758449554443,
                    1.501727819442749,
                    2.4655323028564453,
                    1.4835355281829834,
                    -0.3328188955783844,
                    -6.9491400718688965
                ],
                [
                    -6.608804225921631,
                    -2.491424560546875,
                    -2.0076518058776855,
                    -2.331592321395874,
                    1.7891714572906494,
                    1.3668640851974487,
                    -4.269832134246826,
                    3.8967301845550537
                ],
                [
                    -1.4061790704727173,
                    -2.9729795455932617,
                    6.463106632232666,
                    -3.657456874847412,
                    -4.1116228103637695,
                    1.4490984678268433,
                    0.2415873408317566,
                    -3.682795286178589
                ],
                [
                    0.36254817247390747,
                    3.3392813205718994,
                    3.259782552719116,
                    1.5102589130401611,
                    -6.434852600097656,
                    -3.8319590091705322,
                    -1.918192744255066,
                    -3.0547170639038086
                ],
                [
                    -4.015491008758545,
                    4.721071243286133,
                    -3.1888723373413086,
                    1.1805585622787476,
                    1.3145148754119873,
                    -4.245218276977539,
                    -2.7936389446258545,
                    -3.6541552543640137
                ]
            ],
            "biases": [
                -1.59927237033844,
                -2.2759618759155273,
                -0.18011033535003662,
                -3.317657470703125,
                -4.767516136169434,
                -1.5995599031448364,
                -5.038910865783691,
                -1.7158112525939941,
                -0.6463667154312134,
                -3.5200178623199463,
                -2.4337620735168457,
                -1.2285813093185425
            ]
        }
    ],
    "inputLookup": null,
    "inputLookupLength": 0,
    "outputLookup": null,
    "outputLookupLength": 0,
    "options": {
        "inputSize": 0,
        "outputSize": 0,
        "binaryThresh": 0.5,
        "activation": "sigmoid",
        "iterations": 20000,
        "errorThresh": 0.0005,
        "log": true,
        "logPeriod": 100,
        "hiddenLayers": [
            8,
            8
        ]
    },
    "trainOpts": {
        "activation": "sigmoid",
        "iterations": 20000,
        "errorThresh": 0.0005,
        "log": true,
        "logPeriod": 100,
        "leakyReluAlpha": 0.01,
        "learningRate": 0.3,
        "momentum": 0.1,
        "callbackPeriod": 10,
        "timeout": "Infinity",
        "beta1": 0.9,
        "beta2": 0.999,
        "epsilon": 1e-8
    }
}